{"learner":{"attributes":{"scikit_learn":"{\"_estimator_type\": \"classifier\"}"},"feature_names":[],"feature_types":[],"gradient_booster":{"model":{"cats":{"enc":[],"feature_segments":[],"sorted_idx":[]},"gbtree_model_param":{"num_parallel_tree":"1","num_trees":"400"},"iteration_indptr":[0,1,2,3,4,5,6,7,8,9,10,11,12,13,14,15,16,17,18,19,20,21,22,23,24,25,26,27,28,29,30,31,32,33,34,35,36,37,38,39,40,41,42,43,44,45,46,47,48,49,50,51,52,53,54,55,56,57,58,59,60,61,62,63,64,65,66,67,68,69,70,71,72,73,74,75,76,77,78,79,80,81,82,83,84,85,86,87,88,89,90,91,92,93,94,95,96,97,98,99,100,101,102,103,104,105,106,107,108,109,110,111,112,113,114,115,116,117,118,119,120,121,122,123,124,125,126,127,128,129,130,131,132,133,134,135,136,137,138,139,140,141,142,143,144,145,146,147,148,149,150,151,152,153,154,155,156,157,158,159,160,161,162,163,164,165,166,167,168,169,170,171,172,173,174,175,176,177,178,179,180,181,182,183,184,185,186,187,188,189,190,191,192,193,194,195,196,197,198,199,200,201,202,203,204,205,206,207,208,209,210,211,212,213,214,215,216,217,218,219,220,221,222,223,224,225,226,227,228,229,230,231,232,233,234,235,236,237,238,239,240,241,242,243,244,245,246,247,248,249,250,251,252,253,254,255,256,257,258,259,260,261,262,263,264,265,266,267,268,269,270,271,272,273,274,275,276,277,278,279,280,281,282,283,284,285,286,287,288,289,290,291,292,293,294,295,296,297,298,299,300,301,302,303,304,305,306,307,308,309,310,311,312,313,314,315,316,317,318,319,320,321,322,323,324,325,326,327,328,329,330,331,332,333,334,335,336,337,338,339,340,341,342,343,344,345,346,347,348,349,350,351,352,353,354,355,356,357,358,359,360,361,362,363,364,365,366,367,368,369,370,371,372,373,374,375,376,377,378,379,380,381,382,383,384,385,386,387,388,389,390,391,392,393,394,395,396,397,398,399,400],"tree_info":[0,0,0,0,0,0,0,0,0,0,0,0,0,0,0,0,0,0,0,0,0,0,0,0,0,0,0,0,0,0,0,0,0,0,0,0,0,0,0,0,0,0,0,0,0,0,0,0,0,0,0,0,0,0,0,0,0,0,0,0,0,0,0,0,0,0,0,0,0,0,0,0,0,0,0,0,0,0,0,0,0,0,0,0,0,0,0,0,0,0,0,0,0,0,0,0,0,0,0,0,0,0,0,0,0,0,0,0,0,0,0,0,0,0,0,0,0,0,0,0,0,0,0,0,0,0,0,0,0,0,0,0,0,0,0,0,0,0,0,0,0,0,0,0,0,0,0,0,0,0,0,0,0,0,0,0,0,0,0,0,0,0,0,0,0,0,0,0,0,0,0,0,0,0,0,0,0,0,0,0,0,0,0,0,0,0,0,0,0,0,0,0,0,0,0,0,0,0,0,0,0,0,0,0,0,0,0,0,0,0,0,0,0,0,0,0,0,0,0,0,0,0,0,0,0,0,0,0,0,0,0,0,0,0,0,0,0,0,0,0,0,0,0,0,0,0,0,0,0,0,0,0,0,0,0,0,0,0,0,0,0,0,0,0,0,0,0,0,0,0,0,0,0,0,0,0,0,0,0,0,0,0,0,0,0,0,0,0,0,0,0,0,0,0,0,0,0,0,0,0,0,0,0,0,0,0,0,0,0,0,0,0,0,0,0,0,0,0,0,0,0,0,0,0,0,0,0,0,0,0,0,0,0,0,0,0,0,0,0,0,0,0,0,0,0,0,0,0,0,0,0,0,0,0,0,0,0,0,0,0,0,0,0,0,0,0,0,0,0,0,0,0,0,0,0,0,0,0,0,0,0,0,0,0,0,0,0,0,0,0,0,0,0,0,0,0,0,0,0,0],"trees":[{"base_weights":[3.0218168E-8,-5.465197E-1,4.8699996E-1,-1.6289729E-1,-1.7116637E0,-1.0584557E0,6.885442E-1,-5.8551264E-1,1.1459993E0,-1.9704033E0,1.5124754E0,9.6803166E-2,-1.6606251E0,1.9315091E0,5.757555E-1,3.507954E-2,-1.8414975E0,1.7625284E0,-1.4636047E-1,6.563114E-2,-9.9691115E-2,1.7092313E0,-2.2766401E-1,-1.9505035E0,-1.7493653E-1,1.9481678E0,2.2293143E-3,-1.6862698E0,6.7580986E-1,-8.1081724E-1,1.8384894E0,7.924976E-2,-1.8971719E0,-4.886853E-2,1.7998176E0,-9.71831E-2,1.1134858E0,-8.903853E-3,1.8243959E0,-6.0000002E-2,5.2180704E-2,-9.836043E-2,2.2293143E-3,6.4088124E-1,-1.0238854E0,9.908052E-2,1.250153E0,1.1112723E0,-1.8977355E0,4.0368956E-1,1.27537E0,-7.296797E-2,-1.4538336E0,-7.647059E-2,1.9118235E0,3.0167777E-2,-1.9172909E0,1.8153193E0,2.6633025E-3,1.4938172E0,-5.3075415E-1,9.539869E-2,2.2293143E-3,1.1474594E0,-6.923077E-2,5.65421E-1,-1.5836575E0,8.226203E-2,2.164129E-1,2.2293143E-3,7.105823E-2,2.7480332E-2,-9.80198E-2,8.232398E-1,-9.879507E-2,1.480383E0,-1.4515811E0,-4.302038E-2,6.709971E-2,-7.8987926E-2,6.253815E-2,9.674775E-2,-5E-2,-3.8940206E-2,-9.644501E-2,9.202571E-2,2.9690845E-2,-5.555556E-2,8.01178E-2,4.0549982E-2,-6.2695846E-2,9.289035E-3,7.596164E-2,6.857729E-2,-5E-2,2.2293143E-3,-8.888889E-2,-5E-2,5.7698946E-2,4.4126038E-2,-6.727482E-2,7.97635E-2,-9.2E-2,6.563114E-2,-8.5445404E-2],"categories":[],"categories_nodes":[],"categories_segments":[],"categories_sizes":[],"default_left":[0,0,0,0,0,0,0,0,0,0,0,0,0,0,0,0,0,0,0,0,0,0,0,0,0,0,0,0,0,0,0,0,0,0,0,0,0,0,0,0,0,0,0,0,0,0,0,0,0,0,0,0,0,0,0,0,0,0,0,0,0,0,0,0,0,0,0,0,0,0,0,0,0,0,0,0,0,0,0,0,0,0,0,0,0,0,0,0,0,0,0,0,0,0,0,0,0,0,0,0,0,0,0,0,0],"id":0,"left_children":[1,3,5,7,9,11,13,15,17,19,21,-1,23,25,27,29,31,33,35,-1,-1,37,39,41,43,45,-1,47,49,51,53,-1,55,-1,57,-1,59,-1,61,-1,-1,-1,-1,63,65,-1,67,69,71,73,75,77,79,-1,81,-1,83,85,-1,87,89,-1,-1,91,-1,93,95,-1,97,-1,-1,-1,-1,99,-1,101,103,-1,-1,-1,-1,-1,-1,-1,-1,-1,-1,-1,-1,-1,-1,-1,-1,-1,-1,-1,-1,-1,-1,-1,-1,-1,-1,-1,-1],"loss_changes":[8.0139294E2,6.338894E2,4.966638E2,5.9170795E2,2.9605994E2,3.351493E2,1.9643604E2,6.3013684E2,2.0831561E2,2.7655518E1,9.518875E0,0E0,6.58952E1,3.5846863E0,2.9385034E2,8.2832117E2,5.4007446E1,1.9828918E1,1.9522185E2,0E0,0E0,5.5574265E0,5.69146E0,4.3733826E0,1.880729E1,2.2488403E-1,0E0,3.468698E1,2.0167157E2,1.752709E2,4.5741516E1,0E0,1.4414307E1,0E0,4.637024E0,0E0,3.2536304E1,0E0,3.3032913E0,0E0,0E0,0E0,0E0,1.593292E1,1.2663729E1,0E0,2.9119596E0,1.4244151E0,8.985565E0,8.5406854E2,2.1817218E2,1.9411317E2,6.9226654E1,0E0,1.3392883E1,0E0,1.9561768E0,4.239563E0,0E0,1.3510254E1,1.0985481E1,0E0,0E0,3.911415E0,0E0,6.649434E0,3.2544289E0,0E0,4.9905195E0,0E0,0E0,0E0,0E0,9.459891E1,0E0,1.4021857E2,2.1820816E1,0E0,0E0,0E0,0E0,0E0,0E0,0E0,0E0,0E0,0E0,0E0,0E0,0E0,0E0,0E0,0E0,0E0,0E0,0E0,0E0,0E0,0E0,0E0,0E0,0E0,0E0,0E0,0E0],"parents":[2147483647,0,0,1,1,2,2,3,3,4,4,5,5,6,6,7,7,8,8,9,9,10,10,12,12,13,13,14,14,15,15,16,16,17,17,18,18,21,21,22,22,23,23,24,24,25,25,27,27,28,28,29,29,30,30,32,32,34,34,36,36,38,38,43,43,44,44,46,46,47,47,48,48,49,49,50,50,51,51,52,52,54,54,56,56,57,57,59,59,60,60,63,63,65,65,66,66,68,68,73,73,75,75,76,76],"right_children":[2,4,6,8,10,12,14,16,18,20,22,-1,24,26,28,30,32,34,36,-1,-1,38,40,42,44,46,-1,48,50,52,54,-1,56,-1,58,-1,60,-1,62,-1,-1,-1,-1,64,66,-1,68,70,72,74,76,78,80,-1,82,-1,84,86,-1,88,90,-1,-1,92,-1,94,96,-1,98,-1,-1,-1,-1,100,-1,102,104,-1,-1,-1,-1,-1,-1,-1,-1,-1,-1,-1,-1,-1,-1,-1,-1,-1,-1,-1,-1,-1,-1,-1,-1,-1,-1,-1,-1],"split_conditions":[-4.3875033E-1,1.8188405E0,3.4686708E-1,5.8751535E-1,3.5143957E-1,-1.4266541E0,-1.4266541E0,3.0158848E-1,6.903606E-1,-1.4266541E0,1.5135857E0,9.6803166E-2,9.964284E0,1.5120611E0,-6.536804E-1,1.8950362E0,-1.4266541E0,-2.1722725E-1,1.845833E0,6.563114E-2,-9.9691115E-2,-1.33572E0,-2.3693642E-1,1.8722988E1,-2.9095054E0,9.024493E-1,2.2293143E-3,-2.0509236E-1,6.0050493E-1,-1.7761348E0,-2.1722725E-1,7.924976E-2,-1.4198107E0,-4.886853E-2,1.5586928E0,-9.71831E-2,1.6587566E-1,-8.903853E-3,1.3932698E0,-6.0000002E-2,5.2180704E-2,-9.836043E-2,2.2293143E-3,6.7359626E-1,-3.4638557E0,9.908052E-2,-1.0932716E0,2.5157265E-2,-2.336769E-1,1.8188405E0,1.8950362E0,-1.3133576E0,-7.110688E-1,-7.647059E-2,4.5568924E0,3.0167777E-2,-2.4803212E0,1.7576957E0,2.6633025E-3,-2.1722725E-1,-6.405959E-1,9.539869E-2,2.2293143E-3,1.3378552E-1,-6.923077E-2,-1.02192834E-1,-1.0711513E0,8.226203E-2,5.770234E-1,2.2293143E-3,7.105823E-2,2.7480332E-2,-9.80198E-2,1.4946878E-1,-9.879507E-2,9.086939E0,-8.314148E0,-4.302038E-2,6.709971E-2,-7.8987926E-2,6.253815E-2,9.674775E-2,-5E-2,-3.8940206E-2,-9.644501E-2,9.202571E-2,2.9690845E-2,-5.555556E-2,8.01178E-2,4.0549982E-2,-6.2695846E-2,9.289035E-3,7.596164E-2,6.857729E-2,-5E-2,2.2293143E-3,-8.888889E-2,-5E-2,5.7698946E-2,4.4126038E-2,-6.727482E-2,7.97635E-2,-9.2E-2,6.563114E-2,-8.5445404E-2],"split_indices":[24,8,30,29,0,2,2,0,29,2,50,0,22,0,40,9,2,39,29,0,0,16,55,37,30,37,0,47,1,31,39,0,29,0,19,0,16,0,48,0,0,0,0,48,19,0,0,46,46,8,9,0,0,0,54,0,42,55,0,39,46,0,0,39,0,44,5,0,0,0,0,0,0,37,0,11,60,0,0,0,0,0,0,0,0,0,0,0,0,0,0,0,0,0,0,0,0,0,0,0,0,0,0,0,0],"split_type":[0,0,0,0,0,0,0,0,0,0,0,0,0,0,0,0,0,0,0,0,0,0,0,0,0,0,0,0,0,0,0,0,0,0,0,0,0,0,0,0,0,0,0,0,0,0,0,0,0,0,0,0,0,0,0,0,0,0,0,0,0,0,0,0,0,0,0,0,0,0,0,0,0,0,0,0,0,0,0,0,0,0,0,0,0,0,0,0,0,0,0,0,0,0,0,0,0,0,0,0,0,0,0,0,0],"sum_hessian":[3.009E3,1.4177992E3,1.5912009E3,1.0674742E3,3.5032492E2,1.8307983E2,1.4081211E3,8.0735034E2,2.601239E2,3.246596E2,2.5665323E1,3.0280962E1,1.5279887E2,1.1580381E2,1.2923173E3,5.4100665E2,2.6634366E2,1.7586328E2,8.4260605E1,1.9096103E0,3.2275E2,2.3074116E1,2.5912058E0,1.2759121E2,2.520766E1,1.1475821E2,1.0456029E0,5.406922E1,1.238248E3,3.6864337E2,1.7236328E2,3.8192205E0,2.6252444E2,2.0228014E0,1.7384048E2,3.45E1,4.976061E1,1.2956029E0,2.1778513E1,1.5E0,1.0912058E0,1.265456E2,1.0456029E0,1.2979647E1,1.2228015E1,1.0775658E2,7.001632E0,3.500816E0,5.0568405E1,8.5284393E2,3.8540408E2,1.7218164E2,1.9646175E2,3.25E0,1.6911328E2,1.8640072E0,2.6066043E2,1.7227208E2,1.5684044E0,4.048699E1,9.273618E0,2.073291E1,1.0456029E0,1.0729647E1,2.25E0,3.1824117E0,9.045603E0,4.6376247E0,2.3640072E0,1.0456029E0,2.455213E0,1.0684044E0,4.95E1,7.2557117E2,1.27272804E2,3.5888046E2,2.6523617E1,1.1087217E2,6.1309475E1,1.881189E2,8.342838E0,1.6811328E2,1E0,3.3184044E0,2.57342E2,1.6829407E2,3.9780145E0,1.25E0,3.923699E1,3.205213E0,6.068404E0,3.4096103E0,7.3200364E0,2.1824117E0,1E0,1.0456029E0,8E0,1E0,1.3640072E0,7.0684314E2,1.8728014E1,3.4738046E2,1.15E1,1.9096103E0,2.4614008E1],"tree_param":{"num_deleted":"0","num_feature":"103","num_nodes":"105","size_leaf_vector":"1"}},{"base_weights":[-1.866643E-5,-5.2025026E-1,4.6325728E-1,-1.5509959E-1,-1.6299709E0,-1.0080935E0,6.549414E-1,-5.5729526E-1,1.0907952E0,-1.8766948E0,1.4426041E0,9.2330456E-2,-1.5820996E0,1.8409605E0,5.474545E-1,3.3345886E-2,-1.7535607E0,1.6782868E0,-1.4041765E-1,6.352305E-2,-9.49609E-2,3.7914318E-1,1.7730396E0,-1.8582195E0,-1.6839191E-1,1.8568591E0,2.1723423E-3,-1.6055325E0,6.42574E-1,-7.711534E-1,1.7504861E0,7.6205865E-2,-1.806894E0,-4.7252636E-2,1.7140974E0,-9.267685E-2,1.0593743E0,-4.7769156E-1,6.98043E-2,9.0805165E-2,2.5983114E-2,-9.37094E-2,2.1723423E-3,6.1057943E-1,-9.7927415E-1,9.440525E-2,1.2003559E0,1.0727466E0,-1.8084619E0,3.836591E-1,1.2135082E0,-6.922397E-2,-1.3833741E0,-7.363038E-2,1.8207923E0,2.9190455E-2,-1.8261962E0,1.7288779E0,2.581985E-3,1.4219472E0,-5.0674134E-1,3.6748847E-1,-6.300058E-2,1.098372E0,-6.689073E-2,5.4201645E-1,-1.5155289E0,7.899022E-2,2.0799303E-1,2.1723423E-3,6.859614E-2,2.7538637E-2,-9.346944E-2,7.8244555E-1,-9.412532E-2,1.4086239E0,-1.3821234E0,-4.0907677E-2,6.387049E-2,-7.5177975E-2,5.9799016E-2,9.214103E-2,-6.966218E-3,-3.7455164E-2,-9.18576E-2,8.763903E-2,2.8509635E-2,-5.40359E-2,7.6332875E-2,3.901705E-2,-6.0056057E-2,-2.3136592E-2,4.9752574E-2,8.930062E-3,7.271387E-2,6.3430525E-2,-3.132039E-2,-8.533411E-2,3.2867962E-3,-3.1253852E-2,5.069774E-2,4.1943595E-2,-6.4151645E-2,7.590914E-2,-8.794194E-2,6.352305E-2,-8.1485175E-2],"categories":[],"categories_nodes":[],"categories_segments":[],"categories_sizes":[],"default_left":[0,0,0,0,0,0,0,0,0,0,0,0,0,0,0,0,0,0,0,0,0,0,0,0,0,0,0,0,0,0,0,0,0,0,0,0,0,0,0,0,0,0,0,0,0,0,0,0,0,0,0,0,0,0,0,0,0,0,0,0,0,0,0,0,0,0,0,0,0,0,0,0,0,0,0,0,0,0,0,0,0,0,0,0,0,0,0,0,0,0,0,0,0,0,0,0,0,0,0,0,0,0,0,0,0,0,0],"id":1,"left_children":[1,3,5,7,9,11,13,15,17,19,21,-1,23,25,27,29,31,33,35,-1,-1,37,39,41,43,45,-1,47,49,51,53,-1,55,-1,57,-1,59,61,-1,-1,-1,-1,-1,63,65,-1,67,69,71,73,75,77,79,-1,81,-1,83,85,-1,87,89,91,-1,93,-1,95,97,-1,99,-1,-1,-1,-1,101,-1,103,105,-1,-1,-1,-1,-1,-1,-1,-1,-1,-1,-1,-1,-1,-1,-1,-1,-1,-1,-1,-1,-1,-1,-1,-1,-1,-1,-1,-1,-1,-1],"loss_changes":[7.24505E2,5.7353687E2,4.4912283E2,5.350436E2,2.683933E2,3.0388812E2,1.7841309E2,5.7020264E2,1.8874454E2,2.5439941E1,8.680805E0,0E0,5.9591034E1,3.2495117E0,2.6560065E2,7.489662E2,4.9382202E1,1.8201447E1,1.7689375E2,0E0,0E0,7.2731285E0,1.3760376E-1,3.9770508E0,1.7131704E1,1.0253906E-1,0E0,3.180391E1,1.8253241E2,1.585721E2,4.1875793E1,0E0,1.3199036E1,0E0,4.19812E0,0E0,2.9503624E1,3.6763248E0,0E0,0E0,0E0,0E0,0E0,1.4743185E1,1.1597369E1,0E0,2.6808167E0,1.3254309E0,8.425003E0,7.724952E2,1.9732495E2,1.7558339E2,6.291809E1,0E0,7.584961E0,0E0,1.7045288E0,3.7895508E0,0E0,1.2504997E1,1.0112558E1,2.0809221E0,0E0,3.5765018E0,0E0,4.342703E0,3.143839E0,0E0,2.891289E0,0E0,0E0,0E0,0E0,8.5713745E1,0E0,1.2735724E2,2.0115166E1,0E0,0E0,0E0,0E0,0E0,0E0,0E0,0E0,0E0,0E0,0E0,0E0,0E0,0E0,0E0,0E0,0E0,0E0,0E0,0E0,0E0,0E0,0E0,0E0,0E0,0E0,0E0,0E0,0E0,0E0],"parents":[2147483647,0,0,1,1,2,2,3,3,4,4,5,5,6,6,7,7,8,8,9,9,10,10,12,12,13,13,14,14,15,15,16,16,17,17,18,18,21,21,22,22,23,23,24,24,25,25,27,27,28,28,29,29,30,30,32,32,34,34,36,36,37,37,43,43,44,44,46,46,47,47,48,48,49,49,50,50,51,51,52,52,54,54,56,56,57,57,59,59,60,60,61,61,63,63,65,65,66,66,68,68,73,73,75,75,76,76],"right_children":[2,4,6,8,10,12,14,16,18,20,22,-1,24,26,28,30,32,34,36,-1,-1,38,40,42,44,46,-1,48,50,52,54,-1,56,-1,58,-1,60,62,-1,-1,-1,-1,-1,64,66,-1,68,70,72,74,76,78,80,-1,82,-1,84,86,-1,88,90,92,-1,94,-1,96,98,-1,100,-1,-1,-1,-1,102,-1,104,106,-1,-1,-1,-1,-1,-1,-1,-1,-1,-1,-1,-1,-1,-1,-1,-1,-1,-1,-1,-1,-1,-1,-1,-1,-1,-1,-1,-1,-1,-1],"split_conditions":[-4.3875033E-1,1.8188405E0,3.4686708E-1,5.8751535E-1,3.5143957E-1,-1.4266541E0,-1.4266541E0,3.0158848E-1,6.903606E-1,-1.4266541E0,8.451153E-2,9.2330456E-2,9.964284E0,1.5120611E0,-6.536804E-1,1.8950362E0,-1.4266541E0,-2.1722725E-1,1.845833E0,6.352305E-2,-9.49609E-2,2.6013118E-1,1.2985942E0,1.8722988E1,-2.9095054E0,9.024493E-1,2.1723423E-3,-2.0509236E-1,6.0050493E-1,-1.7761348E0,-2.1722725E-1,7.6205865E-2,-1.4198107E0,-4.7252636E-2,1.5586928E0,-9.267685E-2,1.6587566E-1,2.8533426E-1,6.98043E-2,9.0805165E-2,2.5983114E-2,-9.37094E-2,2.1723423E-3,6.7359626E-1,-3.4638557E0,9.440525E-2,-1.0932716E0,2.5157265E-2,-3.1848955E-1,1.8188405E0,1.8950362E0,-1.3133576E0,-7.110688E-1,-7.363038E-2,3.825525E0,2.9190455E-2,-2.4803212E0,1.7576957E0,2.581985E-3,-2.1722725E-1,-6.405959E-1,-2.960337E-1,-6.300058E-2,1.3378552E-1,-6.689073E-2,-1.7381652E-1,3.5869163E-1,7.899022E-2,6.140319E-1,2.1723423E-3,6.859614E-2,2.7538637E-2,-9.346944E-2,1.4946878E-1,-9.412532E-2,9.086939E0,-8.314148E0,-4.0907677E-2,6.387049E-2,-7.5177975E-2,5.9799016E-2,9.214103E-2,-6.966218E-3,-3.7455164E-2,-9.18576E-2,8.763903E-2,2.8509635E-2,-5.40359E-2,7.6332875E-2,3.901705E-2,-6.0056057E-2,-2.3136592E-2,4.9752574E-2,8.930062E-3,7.271387E-2,6.3430525E-2,-3.132039E-2,-8.533411E-2,3.2867962E-3,-3.1253852E-2,5.069774E-2,4.1943595E-2,-6.4151645E-2,7.590914E-2,-8.794194E-2,6.352305E-2,-8.1485175E-2],"split_indices":[24,8,30,29,0,2,2,0,29,2,19,0,22,0,40,9,2,39,29,0,0,45,59,37,30,37,0,47,1,31,39,0,29,0,19,0,16,48,0,0,0,0,0,48,19,0,0,46,51,8,9,0,0,0,54,0,42,55,0,39,46,5,0,39,0,44,60,0,0,0,0,0,0,37,0,11,60,0,0,0,0,0,0,0,0,0,0,0,0,0,0,0,0,0,0,0,0,0,0,0,0,0,0,0,0,0,0],"split_type":[0,0,0,0,0,0,0,0,0,0,0,0,0,0,0,0,0,0,0,0,0,0,0,0,0,0,0,0,0,0,0,0,0,0,0,0,0,0,0,0,0,0,0,0,0,0,0,0,0,0,0,0,0,0,0,0,0,0,0,0,0,0,0,0,0,0,0,0,0,0,0,0,0,0,0,0,0,0,0,0,0,0,0,0,0,0,0,0,0,0,0,0,0,0,0,0,0,0,0,0,0,0,0,0,0,0,0],"sum_hessian":[3.0041104E3,1.4150121E3,1.5890983E3,1.0655391E3,3.4947308E2,1.8267113E2,1.4064271E3,8.059255E2,2.5961353E2,3.2385696E2,2.5616104E1,3.0210133E1,1.52461E2,1.1553018E2,1.2908969E3,5.40187E2,2.6573846E2,1.7550539E2,8.410815E1,1.9075553E0,3.219494E2,6.581586E0,1.9034517E1,1.2728563E2,2.5175373E1,1.1448458E2,1.0456016E0,5.3947212E1,1.2369497E3,3.6822186E2,1.7196513E2,3.8132298E0,2.6192523E2,2.021594E0,1.734838E2,3.441867E1,4.9689472E1,3.8597689E0,2.7218173E0,1.7968197E1,1.0663203E0,1.2624003E2,1.0456016E0,1.296633E1,1.22090435E1,1.07492546E2,6.992036E0,3.497718E0,5.0449493E1,8.5216876E2,3.847809E2,1.720614E2,1.9616048E2,3.245253E0,1.6871988E2,1.8635831E0,2.6006168E2,1.7191539E2,1.5684016E0,4.042313E1,9.266341E0,2.110234E0,1.7495347E0,1.0719024E1,2.2473059E0,3.179223E0,9.02982E0,4.629788E0,2.362248E0,1.0456016E0,2.4521165E0,1.0676503E0,4.9381844E1,7.25206E2,1.26962746E2,3.5830423E2,2.6476692E1,1.1082088E2,6.1240517E1,1.8782579E2,8.334686E0,1.66904E2,1.8158675E0,3.317147E0,2.567445E2,1.6793825E2,3.977138E0,1.249036E0,3.9174095E1,3.2038958E0,6.062445E0,1.0215071E0,1.0887269E0,3.4095366E0,7.309487E0,1.9073668E0,1.2718563E0,7.985204E0,1.044616E0,1.2719498E0,1.0902982E0,7.064992E2,1.8706839E1,3.4682852E2,1.1475699E1,1.9075553E0,2.4569138E1],"tree_param":{"num_deleted":"0","num_feature":"103","num_nodes":"107","size_leaf_vector":"1"}},{"base_weights":[-9.1764805E-6,-4.969732E-1,4.4174883E-1,-1.4813042E-1,-1.5589341E0,-9.6401286E-1,6.243649E-1,-5.3211874E-1,1.0420243E0,-1.7956485E0,1.3828984E0,8.843705E-2,-1.5133429E0,1.7624083E0,5.215856E-1,3.1886533E-2,-1.6768647E0,1.6040951E0,-1.3519536E-1,6.156679E-2,-9.0871826E-2,1.5674623E0,-2.3478904E-1,-1.7781434E0,-1.6188285E-1,1.7777164E0,2.1168238E-3,-1.5349079E0,6.1214435E-1,-7.349895E-1,1.6739897E0,7.3452495E-2,-1.7282014E0,-4.5725446E-2,1.638665E0,-8.875781E-2,1.0105193E0,-9.960777E-3,1.6770324E0,-5.7429876E-2,4.858564E-2,-8.967697E-2,2.1168238E-3,5.827309E-1,-9.377136E-1,9.0357676E-2,1.156421E0,1.0369415E0,-1.730724E0,3.6512485E-1,1.1581087E0,-6.574137E-2,-1.3200656E0,-7.104706E-2,1.7417308E0,2.8252903E-2,-1.746845E0,1.6575861E0,2.959991E-1,1.3573977E0,-4.844631E-1,8.773871E-2,1.8074078E-3,1.0531954E0,-6.473309E-2,5.2349573E-1,-1.4542744E0,7.604882E-2,2.0357838E-1,2.1168238E-3,6.6333555E-2,2.6829956E-2,-8.949009E-2,7.443636E-1,-9.008031E-2,1.3443308E0,-1.320159E0,-3.893179E-2,6.0921814E-2,-7.175798E-2,5.7273693E-2,8.8148385E-2,-6.741403E-3,-3.6046784E-2,-8.786525E-2,8.4036924E-2,2.738457E-2,5.564363E-2,-3.42063E-2,-5.2601963E-2,7.293867E-2,3.7564542E-2,-5.7619046E-2,8.585239E-3,6.977134E-2,6.1902095E-2,-3.1037513E-2,-8.194059E-2,3.2027233E-3,4.994766E-2,-3.0892327E-2,3.9904993E-2,-6.1296113E-2,7.245379E-2,-8.436987E-2,6.156679E-2,-7.7962816E-2],"categories":[],"categories_nodes":[],"categories_segments":[],"categories_sizes":[],"default_left":[0,0,0,0,0,0,0,0,0,0,0,0,0,0,0,0,0,0,0,0,0,0,0,0,0,0,0,0,0,0,0,0,0,0,0,0,0,0,0,0,0,0,0,0,0,0,0,0,0,0,0,0,0,0,0,0,0,0,0,0,0,0,0,0,0,0,0,0,0,0,0,0,0,0,0,0,0,0,0,0,0,0,0,0,0,0,0,0,0,0,0,0,0,0,0,0,0,0,0,0,0,0,0,0,0,0,0],"id":2,"left_children":[1,3,5,7,9,11,13,15,17,19,21,-1,23,25,27,29,31,33,35,-1,-1,37,39,41,43,45,-1,47,49,51,53,-1,55,-1,57,-1,59,-1,61,-1,-1,-1,-1,63,65,-1,67,69,71,73,75,77,79,-1,81,-1,83,85,87,89,91,-1,-1,93,-1,95,97,-1,99,-1,-1,-1,-1,101,-1,103,105,-1,-1,-1,-1,-1,-1,-1,-1,-1,-1,-1,-1,-1,-1,-1,-1,-1,-1,-1,-1,-1,-1,-1,-1,-1,-1,-1,-1,-1,-1],"loss_changes":[6.5695734E2,5.2146027E2,4.0729468E2,4.8549786E2,2.4489294E2,2.7668964E2,1.6314948E2,5.1847064E2,1.7171475E2,2.3514648E1,8.276756E0,0E0,5.4293884E1,2.9730225E0,2.4079398E2,6.798627E2,4.5343872E1,1.6779327E1,1.6090294E2,0E0,0E0,4.961815E0,5.0657377E0,3.6475525E0,1.5617458E1,8.300781E-3,0E0,2.9295425E1,1.6604172E2,1.44024E2,3.850592E1,0E0,1.2156799E1,0E0,3.916748E0,0E0,2.6840492E1,0E0,2.8216705E0,0E0,0E0,0E0,0E0,1.3665985E1,1.069419E1,0E0,2.4577131E0,1.2373786E0,7.807663E0,7.00844E2,1.790108E2,1.5907503E2,5.735266E1,0E0,6.9578857E0,0E0,1.5165405E0,3.4699402E0,3.6662383E0,1.1608902E1,9.32243E0,0E0,0E0,3.2866812E0,0E0,4.179914E0,2.9032726E0,0E0,2.8118443E0,0E0,0E0,0E0,0E0,7.775772E1,0E0,1.16033264E2,1.8601933E1,0E0,0E0,0E0,0E0,0E0,0E0,0E0,0E0,0E0,0E0,0E0,0E0,0E0,0E0,0E0,0E0,0E0,0E0,0E0,0E0,0E0,0E0,0E0,0E0,0E0,0E0,0E0,0E0,0E0,0E0],"parents":[2147483647,0,0,1,1,2,2,3,3,4,4,5,5,6,6,7,7,8,8,9,9,10,10,12,12,13,13,14,14,15,15,16,16,17,17,18,18,21,21,22,22,23,23,24,24,25,25,27,27,28,28,29,29,30,30,32,32,34,34,36,36,38,38,43,43,44,44,46,46,47,47,48,48,49,49,50,50,51,51,52,52,54,54,56,56,57,57,58,58,59,59,60,60,63,63,65,65,66,66,68,68,73,73,75,75,76,76],"right_children":[2,4,6,8,10,12,14,16,18,20,22,-1,24,26,28,30,32,34,36,-1,-1,38,40,42,44,46,-1,48,50,52,54,-1,56,-1,58,-1,60,-1,62,-1,-1,-1,-1,64,66,-1,68,70,72,74,76,78,80,-1,82,-1,84,86,88,90,92,-1,-1,94,-1,96,98,-1,100,-1,-1,-1,-1,102,-1,104,106,-1,-1,-1,-1,-1,-1,-1,-1,-1,-1,-1,-1,-1,-1,-1,-1,-1,-1,-1,-1,-1,-1,-1,-1,-1,-1,-1,-1,-1,-1],"split_conditions":[-4.3875033E-1,1.8188405E0,3.4686708E-1,5.8751535E-1,3.5143957E-1,-1.4266541E0,-1.4266541E0,3.0158848E-1,6.903606E-1,-1.4266541E0,1.5135857E0,8.843705E-2,9.964284E0,1.5120611E0,-6.536804E-1,1.8950362E0,-1.4266541E0,-2.1722725E-1,1.845833E0,6.156679E-2,-9.0871826E-2,-7.59557E-1,-2.3693642E-1,1.8722988E1,-2.9095054E0,9.024493E-1,2.1168238E-3,-2.0509236E-1,6.0050493E-1,-1.7761348E0,-2.1722725E-1,7.3452495E-2,-1.4198107E0,-4.5725446E-2,1.1926558E0,-8.875781E-2,1.6587566E-1,-9.960777E-3,1.5444069E0,-5.7429876E-2,4.858564E-2,-8.967697E-2,2.1168238E-3,6.7359626E-1,-3.4638557E0,9.0357676E-2,-1.0932716E0,2.5157265E-2,-3.1848955E-1,1.8188405E0,1.8950362E0,-1.3133576E0,-7.110688E-1,-7.104706E-2,3.825525E0,2.8252903E-2,-2.4803212E0,1.7576957E0,-5.6104535E-1,-2.1722725E-1,-6.405959E-1,8.773871E-2,1.8074078E-3,1.3378552E-1,-6.473309E-2,-2.5109747E-1,3.5869163E-1,7.604882E-2,8.935071E-1,2.1168238E-3,6.6333555E-2,2.6829956E-2,-8.949009E-2,1.4946878E-1,-9.008031E-2,9.086939E0,-8.314148E0,-3.893179E-2,6.0921814E-2,-7.175798E-2,5.7273693E-2,8.8148385E-2,-6.741403E-3,-3.6046784E-2,-8.786525E-2,8.4036924E-2,2.738457E-2,5.564363E-2,-3.42063E-2,-5.2601963E-2,7.293867E-2,3.7564542E-2,-5.7619046E-2,8.585239E-3,6.977134E-2,6.1902095E-2,-3.1037513E-2,-8.194059E-2,3.2027233E-3,4.994766E-2,-3.0892327E-2,3.9904993E-2,-6.1296113E-2,7.245379E-2,-8.436987E-2,6.156679E-2,-7.7962816E-2],"split_indices":[24,8,30,29,0,2,2,0,29,2,50,0,22,0,40,9,2,39,29,0,0,24,55,37,30,37,0,47,1,31,39,0,29,0,19,0,16,0,48,0,0,0,0,48,19,0,0,46,51,8,9,0,0,0,54,0,42,55,55,39,46,0,0,39,0,55,60,0,16,0,0,0,0,37,0,11,60,0,0,0,0,0,0,0,0,0,0,0,0,0,0,0,0,0,0,0,0,0,0,0,0,0,0,0,0,0,0],"split_type":[0,0,0,0,0,0,0,0,0,0,0,0,0,0,0,0,0,0,0,0,0,0,0,0,0,0,0,0,0,0,0,0,0,0,0,0,0,0,0,0,0,0,0,0,0,0,0,0,0,0,0,0,0,0,0,0,0,0,0,0,0,0,0,0,0,0,0,0,0,0,0,0,0,0,0,0,0,0,0,0,0,0,0,0,0,0,0,0,0,0,0,0,0,0,0,0,0,0,0,0,0,0,0,0,0,0,0],"sum_hessian":[2.990456E3,1.4072352E3,1.5832208E3,1.0601326E3,3.471027E2,1.8153125E2,1.4016896E3,8.019473E2,2.581852E2,3.2161368E2,2.5489008E1,3.0011772E1,1.5151947E2,1.1476663E2,1.286923E3,5.379009E2,2.640464E2,1.745044E2,8.3680824E1,1.9016688E0,3.19712E2,2.2906614E1,2.5823941E0,1.2643124E2,2.5088238E1,1.1372103E2,1.0455979E0,5.360735E1,1.2333157E3,3.6704172E2,1.7085919E2,3.796239E0,2.6025015E2,2.0181365E0,1.7248627E2,3.4190952E1,4.948987E1,1.2899323E0,2.1616682E1,1.4967469E0,1.0856473E0,1.2538564E2,1.0455979E0,1.2928671E1,1.2159566E1,1.0675432E2,6.966719E0,3.4888787E0,5.0118473E1,8.5027893E2,3.830367E2,1.7172447E2,1.9531726E2,3.231763E0,1.6762743E2,1.8623664E0,2.583878E2,1.6985805E2,2.6282222E0,4.024412E1,9.245748E0,2.0572586E1,1.0440952E0,1.0689061E1,2.2396095E0,3.1723707E0,8.987196E0,4.6076074E0,2.3591118E0,1.0455979E0,2.4432807E0,1.0674751E0,4.9051E1,7.2418304E2,1.2609589E2,3.5669174E2,2.6344997E1,1.10677155E2,6.104731E1,1.8700555E2,8.3117E0,1.6581148E2,1.8159465E0,3.3135674E0,2.5507423E2,1.6588339E2,3.974648E0,1.3596222E0,1.2686E0,1.2462543E0,3.8997868E1,3.2001452E0,6.0456023E0,3.4093275E0,7.279734E0,1.9024055E0,1.269965E0,7.9425116E0,1.0446839E0,1.0887588E0,1.270353E0,7.0553564E2,1.8647373E1,3.4528433E2,1.1407411E1,1.9016688E0,2.4443329E1],"tree_param":{"num_deleted":"0","num_feature":"103","num_nodes":"107","size_leaf_vector":"1"}},{"base_weights":[-3.537287E-5,-4.762742E-1,4.2210808E-1,-1.4186321E-1,-1.4970317E0,-9.251634E-1,5.9634423E-1,-5.095074E-1,9.98622E-1,-1.7249173E0,1.3269744E0,8.501901E-2,-1.4527016E0,1.6935726E0,4.9778926E-1,3.0584857E-2,-1.60936E0,1.5382597E0,-1.3057126E-1,5.974585E-2,-8.730497E-2,3.306104E-1,1.6391329E0,-1.7080323E0,-1.5596156E-1,8.542126E-2,2.0627321E-3,-1.4726387E0,5.841119E-1,-7.0179844E-1,1.6067119E0,7.094887E-2,-1.6589787E0,-4.4278957E-2,1.5717812E0,-8.532011E-2,9.660852E-1,-4.7411808E-1,6.484332E-2,8.395294E-2,2.4019679E-2,-8.614933E-2,2.0627321E-3,5.570069E-1,-8.999316E-1,1.0035552E0,-1.6625013E0,3.47894E-1,1.1080863E0,-6.2489584E-2,-1.2627274E0,-6.8686225E-2,1.6722598E0,2.7352676E-2,-1.6770906E0,1.5856034E0,2.1170806E-3,1.1538574E0,-7.53262E-2,5.1585216E-2,-6.752391E-2,1.0114065E0,-6.273652E-2,5.059594E-1,-1.3991671E0,2.0627321E-3,6.424629E-2,2.683699E-2,-8.603188E-2,7.0869654E-1,-8.654493E-2,1.2862514E0,-1.2644355E0,-3.7078273E-2,5.821202E-2,-6.8663195E-2,5.4933816E-2,8.464379E-2,-6.523954E-3,-3.4708668E-2,-8.435893E-2,1.0945849E-2,8.005871E-2,-7.134982E-2,6.642761E-2,8.253957E-3,6.708871E-2,6.0058903E-2,-3.0182991E-2,4.13242E-3,-7.912203E-2,3.7994646E-2,-5.8669325E-2,-2.4514241E-2,7.3494524E-2,5.974585E-2,-7.480433E-2],"categories":[],"categories_nodes":[],"categories_segments":[],"categories_sizes":[],"default_left":[0,0,0,0,0,0,0,0,0,0,0,0,0,0,0,0,0,0,0,0,0,0,0,0,0,0,0,0,0,0,0,0,0,0,0,0,0,0,0,0,0,0,0,0,0,0,0,0,0,0,0,0,0,0,0,0,0,0,0,0,0,0,0,0,0,0,0,0,0,0,0,0,0,0,0,0,0,0,0,0,0,0,0,0,0,0,0,0,0,0,0,0,0,0,0,0,0],"id":3,"left_children":[1,3,5,7,9,11,13,15,17,19,21,-1,23,25,27,29,31,33,35,-1,-1,37,39,41,43,-1,-1,45,47,49,51,-1,53,-1,55,-1,57,59,-1,-1,-1,-1,-1,61,63,65,67,69,71,73,75,-1,77,-1,79,81,-1,83,-1,-1,-1,85,-1,87,89,-1,-1,-1,-1,91,-1,93,95,-1,-1,-1,-1,-1,-1,-1,-1,-1,-1,-1,-1,-1,-1,-1,-1,-1,-1,-1,-1,-1,-1,-1,-1],"loss_changes":[5.9736633E2,4.7639178E2,3.703057E2,4.4193427E2,2.2395172E2,2.5284995E2,1.5004865E2,4.733688E2,1.5679333E2,2.1825378E1,7.633156E0,0E0,4.9750793E1,2.7416382E0,2.1888193E2,6.1912085E2,4.1788147E1,1.5526337E1,1.4684682E2,0E0,0E0,6.464568E0,1.0762787E-1,3.3701172E0,1.4266976E1,0E0,0E0,2.7093842E1,1.5169351E2,1.3124936E2,3.553836E1,0E0,1.12526245E1,0E0,3.5679016E0,0E0,2.5036564E1,7.7762375E0,0E0,0E0,0E0,0E0,0E0,1.2687438E1,9.8899765E0,1.1586404E0,7.393814E0,6.3752484E2,1.6281992E2,1.443161E2,5.2411774E1,0E0,6.4253235E0,0E0,1.3751831E0,3.2752686E0,0E0,2.3178848E1,0E0,0E0,0E0,3.0337057E0,0E0,3.9362557E0,2.8247395E0,0E0,0E0,0E0,0E0,7.061484E1,0E0,1.1660211E2,1.7250225E1,0E0,0E0,0E0,0E0,0E0,0E0,0E0,0E0,0E0,0E0,0E0,0E0,0E0,0E0,0E0,0E0,0E0,0E0,0E0,0E0,0E0,0E0,0E0,0E0],"parents":[2147483647,0,0,1,1,2,2,3,3,4,4,5,5,6,6,7,7,8,8,9,9,10,10,12,12,13,13,14,14,15,15,16,16,17,17,18,18,21,21,22,22,23,23,24,24,27,27,28,28,29,29,30,30,32,32,34,34,36,36,37,37,43,43,44,44,45,45,46,46,47,47,48,48,49,49,50,50,52,52,54,54,55,55,57,57,61,61,63,63,64,64,69,69,71,71,72,72],"right_children":[2,4,6,8,10,12,14,16,18,20,22,-1,24,26,28,30,32,34,36,-1,-1,38,40,42,44,-1,-1,46,48,50,52,-1,54,-1,56,-1,58,60,-1,-1,-1,-1,-1,62,64,66,68,70,72,74,76,-1,78,-1,80,82,-1,84,-1,-1,-1,86,-1,88,90,-1,-1,-1,-1,92,-1,94,96,-1,-1,-1,-1,-1,-1,-1,-1,-1,-1,-1,-1,-1,-1,-1,-1,-1,-1,-1,-1,-1,-1,-1,-1],"split_conditions":[-4.3875033E-1,1.8188405E0,3.4686708E-1,5.8751535E-1,3.5143957E-1,-1.4266541E0,-1.4266541E0,3.0158848E-1,6.903606E-1,-1.4266541E0,8.451153E-2,8.501901E-2,9.964284E0,1.5120611E0,-6.536804E-1,1.8950362E0,-1.4266541E0,-2.1722725E-1,1.845833E0,5.974585E-2,-8.730497E-2,3.8944054E-1,1.2985942E0,1.8722988E1,-2.9095054E0,8.542126E-2,2.0627321E-3,-2.0509236E-1,6.0050493E-1,-1.7761348E0,-2.1722725E-1,7.094887E-2,-1.4198107E0,-4.4278957E-2,1.5586928E0,-8.532011E-2,2.255575E0,-3.512626E-1,6.484332E-2,8.395294E-2,2.4019679E-2,-8.614933E-2,2.0627321E-3,6.7359626E-1,-3.4638557E0,2.5157265E-2,-2.336769E-1,1.8188405E0,1.8950362E0,-1.3133576E0,-7.110688E-1,-6.8686225E-2,3.825525E0,2.7352676E-2,-2.4803212E0,-3.072781E0,2.1170806E-3,-6.96226E-1,-7.53262E-2,5.1585216E-2,-6.752391E-2,1.3378552E-1,-6.273652E-2,-2.5109747E-1,-1.0711513E0,2.0627321E-3,6.424629E-2,2.683699E-2,-8.603188E-2,1.4946878E-1,-8.654493E-2,-1.8329895E0,-8.314148E0,-3.7078273E-2,5.821202E-2,-6.8663195E-2,5.4933816E-2,8.464379E-2,-6.523954E-3,-3.4708668E-2,-8.435893E-2,1.0945849E-2,8.005871E-2,-7.134982E-2,6.642761E-2,8.253957E-3,6.708871E-2,6.0058903E-2,-3.0182991E-2,4.13242E-3,-7.912203E-2,3.7994646E-2,-5.8669325E-2,-2.4514241E-2,7.3494524E-2,5.974585E-2,-7.480433E-2],"split_indices":[24,8,30,29,0,2,2,0,29,2,19,0,22,0,40,9,2,39,29,0,0,47,59,37,30,0,0,47,1,31,39,0,29,0,19,0,29,47,0,0,0,0,0,48,19,46,46,8,9,0,0,0,54,0,42,44,0,0,0,0,0,39,0,55,5,0,0,0,0,37,0,31,60,0,0,0,0,0,0,0,0,0,0,0,0,0,0,0,0,0,0,0,0,0,0,0,0],"split_type":[0,0,0,0,0,0,0,0,0,0,0,0,0,0,0,0,0,0,0,0,0,0,0,0,0,0,0,0,0,0,0,0,0,0,0,0,0,0,0,0,0,0,0,0,0,0,0,0,0,0,0,0,0,0,0,0,0,0,0,0,0,0,0,0,0,0,0,0,0,0,0,0,0,0,0,0,0,0,0,0,0,0,0,0,0,0,0,0,0,0,0,0,0,0,0,0,0],"sum_hessian":[2.969364E3,1.3952229E3,1.5741412E3,1.0517858E3,3.4343716E2,1.7976994E2,1.3943712E3,7.9580505E2,2.5598065E2,3.1815274E2,2.5284424E1,2.9705118E1,1.5006483E2,1.1358847E2,1.2807827E3,5.343701E2,2.6143497E2,1.7296094E2,8.301973E1,1.8923495E0,3.162604E2,6.523017E0,1.8761406E1,1.2511272E2,2.4952116E1,1.1254288E2,1.0455918E0,5.308094E1,1.2277018E3,3.65218E2,1.6915211E2,3.7696233E0,2.5766534E2,2.0126605E0,1.7094827E2,3.3839027E1,4.91807E1,3.8368728E0,2.6861444E0,1.7702406E1,1.0589998E0,1.2406712E2,1.0455918E0,1.2869857E1,1.2082259E1,3.4749436E0,4.9606E1,8.4735956E2,3.8034225E2,1.7120335E2,1.9401462E2,3.210585E0,1.6594153E2,1.860435E0,2.558049E2,1.6938078E2,1.5674891E0,4.620518E1,2.975519E0,1.3463024E0,2.4905703E0,1.0642398E1,2.227459E0,3.1626081E0,8.919651E0,1.0455918E0,2.4293518E0,1.0655305E0,4.8540466E1,7.2260144E2,1.2475814E2,3.542013E2,2.614097E1,1.1045483E2,6.074853E1,1.8573871E2,8.275913E0,1.6412555E2,1.8159811E0,3.3079374E0,2.5249696E2,2.077678E0,1.673031E2,2.4748254E0,4.3730354E1,3.4089978E0,7.2334E0,1.8936502E0,1.2689579E0,1.042203E0,7.877448E0,7.040462E2,1.8555185E1,3.3026917E1,3.2117438E2,1.8923495E0,2.4248621E1],"tree_param":{"num_deleted":"0","num_feature":"103","num_nodes":"97","size_leaf_vector":"1"}},{"base_weights":[-9.277864E-5,-4.4718638E-1,4.1356742E-1,-1.250879E-1,-1.437238E0,-8.840498E-1,5.805937E-1,-4.772976E-1,9.7337943E-1,-1.6577781E0,1.2891579E0,8.194617E-2,-1.3924711E0,1.6309222E0,4.8559672E-1,4.163736E-2,-1.5448823E0,1.4826814E0,-1.0952609E-1,6.2150266E-2,-8.417703E-2,1.4606069E0,-2.3085698E-1,-1.6449674E0,-1.5050717E-1,1.6455477E0,2.010021E-3,-1.4160012E0,5.6995666E-1,-6.631012E-1,1.5569524E0,7.119852E-2,-1.602007E0,-5.736625E-2,1.5152093E0,-8.228189E-2,9.3517154E-1,-1.07761705E-2,1.5640941E0,-5.4433256E-2,4.5482077E-2,-8.299794E-2,2.010021E-3,5.3313416E-1,-8.652841E-1,8.375193E-2,1.0238836E0,9.723265E-1,-1.6016667E0,3.461246E-1,1.0587783E0,-5.959988E-2,-1.1786919E0,-6.6519104E-2,1.6186715E0,2.6487583E-2,-1.6193722E0,1.5326619E0,2.6387292E-1,1.1143224E0,-7.259153E-2,8.1815496E-2,1.4730872E-3,9.725701E-1,-6.0882676E-2,4.894948E-1,-1.3489928E0,7.058822E-2,-3.7684955E-3,2.010021E-3,6.2313702E-2,2.615864E-2,-8.2947515E-2,6.822048E-1,-8.336848E-2,1.2291013E0,-1.2092693E0,-3.5043318E-2,5.5207487E-2,-6.642051E-2,6.2443357E-2,8.191057E-2,-6.313605E-3,-8.1547976E-2,-3.6893375E-2,1.0587105E-2,7.737523E-2,5.331856E-2,-3.4236927E-2,-6.890117E-2,6.404756E-2,7.935666E-3,6.462888E-2,5.872799E-2,-2.9907987E-2,-7.638537E-2,4.0341103E-3,2.3482678E-2,-2.4207199E-2,2.8610656E-2,7.829375E-2,6.662076E-2,-8.3947726E-2,5.8045913E-2,-7.1809664E-2],"categories":[],"categories_nodes":[],"categories_segments":[],"categories_sizes":[],"default_left":[0,0,0,0,0,0,0,0,0,0,0,0,0,0,0,0,0,0,0,0,0,0,0,0,0,0,0,0,0,0,0,0,0,0,0,0,0,0,0,0,0,0,0,0,0,0,0,0,0,0,0,0,0,0,0,0,0,0,0,0,0,0,0,0,0,0,0,0,0,0,0,0,0,0,0,0,0,0,0,0,0,0,0,0,0,0,0,0,0,0,0,0,0,0,0,0,0,0,0,0,0,0,0,0,0],"id":4,"left_children":[1,3,5,7,9,11,13,15,17,19,21,-1,23,25,27,29,31,33,35,-1,-1,37,39,41,43,45,-1,47,49,51,53,-1,55,-1,57,-1,59,-1,61,-1,-1,-1,-1,63,65,-1,67,69,71,73,75,77,79,-1,81,-1,83,85,87,89,-1,-1,-1,91,-1,93,95,-1,97,-1,-1,-1,-1,99,-1,101,103,-1,-1,-1,-1,-1,-1,-1,-1,-1,-1,-1,-1,-1,-1,-1,-1,-1,-1,-1,-1,-1,-1,-1,-1,-1,-1,-1,-1],"loss_changes":[5.4458057E2,4.5108466E2,3.320035E2,4.13981E2,2.1094513E2,2.2652295E2,1.344721E2,4.4880542E2,1.43464E2,2.6135315E1,7.256626E0,0E0,4.5547943E1,2.539978E0,2.0046933E2,5.8413306E2,4.721814E1,1.6862183E1,1.3640826E2,0E0,0E0,4.499508E0,4.4680624E0,3.130127E0,1.30558815E1,3.194275E-1,0E0,2.5128624E1,1.301069E2,1.16115204E2,3.3095062E1,0E0,1.0498779E1,0E0,3.4186096E0,0E0,2.3281849E1,0E0,2.4699783E0,0E0,0E0,0E0,0E0,1.1795844E1,9.167268E0,0E0,3.0340757E0,1.0878854E0,6.9173737E0,5.556388E2,1.4598203E2,1.299424E2,7.4825226E1,0E0,6.018402E0,0E0,1.4376831E0,3.0531616E0,3.4828422E0,2.1570366E1,0E0,0E0,0E0,2.8111124E0,0E0,3.7941823E0,2.6354275E0,0E0,9.27703E-1,0E0,0E0,0E0,0E0,6.742578E1,0E0,1.06916504E2,1.5991329E1,0E0,0E0,0E0,0E0,0E0,0E0,0E0,0E0,0E0,0E0,0E0,0E0,0E0,0E0,0E0,0E0,0E0,0E0,0E0,0E0,0E0,0E0,0E0,0E0,0E0,0E0,0E0,0E0],"parents":[2147483647,0,0,1,1,2,2,3,3,4,4,5,5,6,6,7,7,8,8,9,9,10,10,12,12,13,13,14,14,15,15,16,16,17,17,18,18,21,21,22,22,23,23,24,24,25,25,27,27,28,28,29,29,30,30,32,32,34,34,36,36,38,38,43,43,44,44,46,46,47,47,48,48,49,49,50,50,51,51,52,52,54,54,56,56,57,57,58,58,59,59,63,63,65,65,66,66,68,68,73,73,75,75,76,76],"right_children":[2,4,6,8,10,12,14,16,18,20,22,-1,24,26,28,30,32,34,36,-1,-1,38,40,42,44,46,-1,48,50,52,54,-1,56,-1,58,-1,60,-1,62,-1,-1,-1,-1,64,66,-1,68,70,72,74,76,78,80,-1,82,-1,84,86,88,90,-1,-1,-1,92,-1,94,96,-1,98,-1,-1,-1,-1,100,-1,102,104,-1,-1,-1,-1,-1,-1,-1,-1,-1,-1,-1,-1,-1,-1,-1,-1,-1,-1,-1,-1,-1,-1,-1,-1,-1,-1,-1,-1],"split_conditions":[-4.25554E-1,1.8188405E0,3.4686708E-1,5.8751535E-1,3.5143957E-1,-1.4266541E0,-1.4266541E0,3.0158848E-1,6.903606E-1,-1.4266541E0,1.5135857E0,8.194617E-2,9.964284E0,1.5120611E0,-6.536804E-1,1.8950362E0,-1.4266541E0,-6.536804E-1,1.845833E0,6.2150266E-2,-8.417703E-2,-2.506763E0,-2.3693642E-1,1.8722988E1,-2.9095054E0,9.024493E-1,2.010021E-3,-2.0509236E-1,6.0050493E-1,-1.7761348E0,-2.1722725E-1,7.119852E-2,-1.4198107E0,-5.736625E-2,1.1926558E0,-8.228189E-2,2.255575E0,-1.07761705E-2,1.5444069E0,-5.4433256E-2,4.5482077E-2,-8.299794E-2,2.010021E-3,6.7359626E-1,-3.4638557E0,8.375193E-2,-1.0932716E0,2.5157265E-2,-3.1848955E-1,1.8188405E0,1.8950362E0,-1.3133576E0,-7.110688E-1,-6.6519104E-2,3.825525E0,2.6487583E-2,6.424307E0,-3.072781E0,-5.6104535E-1,-6.96226E-1,-7.259153E-2,8.1815496E-2,1.4730872E-3,1.3378552E-1,-6.0882676E-2,-1.7381652E-1,3.5869163E-1,7.058822E-2,2.8738227E0,2.010021E-3,6.2313702E-2,2.615864E-2,-8.2947515E-2,3.0446367E0,-8.336848E-2,9.086939E0,-8.314148E0,-3.5043318E-2,5.5207487E-2,-6.642051E-2,6.2443357E-2,8.191057E-2,-6.313605E-3,-8.1547976E-2,-3.6893375E-2,1.0587105E-2,7.737523E-2,5.331856E-2,-3.4236927E-2,-6.890117E-2,6.404756E-2,7.935666E-3,6.462888E-2,5.872799E-2,-2.9907987E-2,-7.638537E-2,4.0341103E-3,2.3482678E-2,-2.4207199E-2,2.8610656E-2,7.829375E-2,6.662076E-2,-8.3947726E-2,5.8045913E-2,-7.1809664E-2],"split_indices":[24,8,30,29,0,2,2,0,29,2,50,0,22,0,40,9,2,40,29,0,0,45,55,37,30,37,0,47,1,31,39,0,29,0,19,0,29,0,48,0,0,0,0,48,19,0,0,46,51,8,9,0,0,0,54,0,37,44,55,0,0,0,0,39,0,44,60,0,3,0,0,0,0,10,0,11,60,0,0,0,0,0,0,0,0,0,0,0,0,0,0,0,0,0,0,0,0,0,0,0,0,0,0,0,0],"split_type":[0,0,0,0,0,0,0,0,0,0,0,0,0,0,0,0,0,0,0,0,0,0,0,0,0,0,0,0,0,0,0,0,0,0,0,0,0,0,0,0,0,0,0,0,0,0,0,0,0,0,0,0,0,0,0,0,0,0,0,0,0,0,0,0,0,0,0,0,0,0,0,0,0,0,0,0,0,0,0,0,0,0,0,0,0,0,0,0,0,0,0,0,0,0,0,0,0,0,0,0,0,0,0,0,0],"sum_hessian":[2.9425564E3,1.4140918E3,1.5284645E3,1.0678192E3,3.4627267E2,1.7381479E2,1.3546497E3,8.0899164E2,2.588275E2,3.2072125E2,2.5551424E1,2.8779047E1,1.4503574E2,1.1101797E2,1.2436317E3,5.450251E2,2.6396655E2,1.7578485E2,8.304265E1,2.4073899E0,3.1831387E2,2.299662E1,2.5548038E0,1.2026158E2,2.4774158E1,1.0997238E2,1.0455836E0,5.2156734E1,1.191475E3,3.7239505E2,1.7263007E2,4.531485E0,2.5943506E2,1.7288506E0,1.74056E2,3.3382362E1,4.9660282E1,1.2743288E0,2.172229E1,1.4840481E0,1.0707557E0,1.19215996E2,1.0455836E0,1.2792768E1,1.1981391E1,1.0337402E2,6.5983596E0,3.4565127E0,4.8700222E1,8.184251E2,3.730499E2,1.7208469E2,2.0031035E2,3.182691E0,1.6944737E2,1.8578618E0,2.575772E2,1.7144008E2,2.6159265E0,4.6689297E1,2.9709864E0,2.0682758E1,1.0395315E0,1.0581402E1,2.2113655E0,3.149174E0,8.832217E0,4.5189385E0,2.0794213E0,1.0455836E0,2.410929E0,1.0649441E0,4.7635277E1,7.019252E2,1.164999E2,3.4741803E2,2.563189E1,1.1120476E2,6.087993E1,1.8910048E2,1.1209881E1,1.676314E2,1.8159757E0,2.5339615E2,4.181063E0,2.0746377E0,1.6936545E2,1.3498515E0,1.2660751E0,2.4702692E0,4.421903E1,3.4085627E0,7.172839E0,1.8831563E0,1.2660176E0,7.7898836E0,1.0423334E0,1.0585318E0,1.0208896E0,6.2569196E2,7.623323E1,3.3602206E2,1.1395948E1,1.8799715E0,2.3751917E1],"tree_param":{"num_deleted":"0","num_feature":"103","num_nodes":"105","size_leaf_vector":"1"}},{"base_weights":[-1.3394962E-4,-4.40976E-1,3.872593E-1,-1.3130279E-1,-1.3938326E0,-8.597614E-1,5.4633385E-1,-4.7040185E-1,9.225352E-1,-1.6076249E0,1.2339395E0,7.931172E-2,-1.3505625E0,1.5778201E0,4.5518073E-1,2.8290788E-2,-1.495762E0,1.4251711E0,-1.2462516E-1,5.6344148E-2,-8.139325E-2,2.9156116E-1,1.5322518E0,-1.5912277E0,-1.4549862E-1,1.5920596E0,1.9586568E-3,-1.3677764E0,5.337965E-1,-6.426789E-1,1.4935609E0,6.6485934E-2,-1.5425432E0,-4.224656E-2,1.457291E0,-7.957878E-2,8.816683E-1,-4.6541494E-1,6.057892E-2,7.852393E-2,2.2151096E-2,-8.028006E-2,1.9586568E-3,5.10884E-1,-8.334478E-1,8.101136E-2,1.0149425E0,9.430294E-1,-1.548415E0,3.1678373E-1,1.0197113E0,-5.6589328E-2,-1.1624303E0,-6.452152E-2,1.5555869E0,2.565558E-2,-1.5598822E0,1.4800076E0,4.053019E-1,1.2040291E0,-4.8406926E-1,4.8324376E-2,-6.4450696E-2,9.3632257E-1,-5.9155803E-2,4.7386107E-1,-1.3033123E0,6.841164E-2,1.341852E-1,1.9586568E-3,6.0518116E-2,2.6172707E-2,-8.025256E-2,6.435691E-1,-8.066932E-2,1.1834328E0,-1.1679586E0,-3.1435996E-2,5.797863E-2,-8.2768746E-2,-3.4323014E-2,7.876762E-2,-6.1101234E-3,-3.049509E-2,-7.850215E-2,7.4912325E-2,1.2819885E-2,-3.9087135E-2,5.123529E-2,-5.4682214E-2,6.527884E-2,3.393497E-2,-5.541082E-2,7.6298187E-3,6.236132E-2,5.709619E-2,-2.9096821E-2,4.9075307E-3,-7.4107334E-2,4.6169203E-2,-3.2293577E-2,3.46206E-2,-5.7298012E-2,-2.6630362E-2,6.818368E-2,5.64545E-2,-6.935774E-2],"categories":[],"categories_nodes":[],"categories_segments":[],"categories_sizes":[],"default_left":[0,0,0,0,0,0,0,0,0,0,0,0,0,0,0,0,0,0,0,0,0,0,0,0,0,0,0,0,0,0,0,0,0,0,0,0,0,0,0,0,0,0,0,0,0,0,0,0,0,0,0,0,0,0,0,0,0,0,0,0,0,0,0,0,0,0,0,0,0,0,0,0,0,0,0,0,0,0,0,0,0,0,0,0,0,0,0,0,0,0,0,0,0,0,0,0,0,0,0,0,0,0,0,0,0,0,0],"id":5,"left_children":[1,3,5,7,9,11,13,15,17,19,21,-1,23,25,27,29,31,33,35,-1,-1,37,39,41,43,45,-1,47,49,51,53,-1,55,-1,57,-1,59,61,-1,-1,-1,-1,-1,63,65,-1,67,69,71,73,75,77,79,-1,81,-1,83,85,87,89,91,-1,-1,93,-1,95,97,-1,99,-1,-1,-1,-1,101,-1,103,105,-1,-1,-1,-1,-1,-1,-1,-1,-1,-1,-1,-1,-1,-1,-1,-1,-1,-1,-1,-1,-1,-1,-1,-1,-1,-1,-1,-1,-1,-1],"loss_changes":[4.9738626E2,4.0178192E2,3.0798203E2,3.6823203E2,1.8964008E2,2.1314908E2,1.2860455E2,3.9854382E2,1.3223286E2,1.8955017E1,6.7773438E0,0E0,4.2381256E1,2.3756104E0,1.8204443E2,5.1741174E2,3.5760315E1,1.3597992E1,1.2287873E2,0E0,0E0,5.726988E0,1.0716629E-1,2.930603E0,1.1967555E1,1.4743042E-1,0E0,2.3410545E1,1.27648224E2,1.0990527E2,3.0550049E1,0E0,9.758728E0,0E0,3.4055176E0,0E0,2.2354668E1,6.8943563E0,0E0,0E0,0E0,0E0,0E0,1.0981268E1,8.51687E0,0E0,2.2454634E0,1.0240097E0,6.607727E0,5.3109827E2,1.3541357E2,1.1952195E2,4.374353E1,0E0,5.5696106E0,0E0,1.4505615E0,3.2687988E0,4.4184284E0,1.0829716E1,8.123243E0,0E0,0E0,2.6138039E0,0E0,3.5799522E0,2.5832233E0,0E0,2.6547706E0,0E0,0E0,0E0,0E0,6.367328E1,0E0,1.08565155E2,1.4938698E1,0E0,0E0,0E0,0E0,0E0,0E0,0E0,0E0,0E0,0E0,0E0,0E0,0E0,0E0,0E0,0E0,0E0,0E0,0E0,0E0,0E0,0E0,0E0,0E0,0E0,0E0,0E0,0E0,0E0,0E0],"parents":[2147483647,0,0,1,1,2,2,3,3,4,4,5,5,6,6,7,7,8,8,9,9,10,10,12,12,13,13,14,14,15,15,16,16,17,17,18,18,21,21,22,22,23,23,24,24,25,25,27,27,28,28,29,29,30,30,32,32,34,34,36,36,37,37,43,43,44,44,46,46,47,47,48,48,49,49,50,50,51,51,52,52,54,54,56,56,57,57,58,58,59,59,60,60,63,63,65,65,66,66,68,68,73,73,75,75,76,76],"right_children":[2,4,6,8,10,12,14,16,18,20,22,-1,24,26,28,30,32,34,36,-1,-1,38,40,42,44,46,-1,48,50,52,54,-1,56,-1,58,-1,60,62,-1,-1,-1,-1,-1,64,66,-1,68,70,72,74,76,78,80,-1,82,-1,84,86,88,90,92,-1,-1,94,-1,96,98,-1,100,-1,-1,-1,-1,102,-1,104,106,-1,-1,-1,-1,-1,-1,-1,-1,-1,-1,-1,-1,-1,-1,-1,-1,-1,-1,-1,-1,-1,-1,-1,-1,-1,-1,-1,-1,-1,-1],"split_conditions":[-4.3875033E-1,1.8188405E0,3.4686708E-1,5.8751535E-1,3.5143957E-1,-1.4266541E0,-1.4266541E0,3.0158848E-1,6.903606E-1,-1.4266541E0,8.451153E-2,7.931172E-2,9.964284E0,1.5120611E0,-6.536804E-1,1.8950362E0,-1.4266541E0,-2.1722725E-1,1.845833E0,5.6344148E-2,-8.139325E-2,3.8944054E-1,4.4224353E0,1.8722988E1,-2.9095054E0,9.024493E-1,1.9586568E-3,-2.0509236E-1,6.0050493E-1,-1.7761348E0,-2.1722725E-1,6.6485934E-2,-1.4198107E0,-4.224656E-2,1.7576957E0,-7.957878E-2,1.6587566E-1,-3.512626E-1,6.057892E-2,7.852393E-2,2.2151096E-2,-8.028006E-2,1.9586568E-3,6.7359626E-1,-3.4638557E0,8.101136E-2,-1.0932716E0,2.5157265E-2,-2.336769E-1,1.8188405E0,1.8950362E0,-1.3035597E0,-9.7882116E-1,-6.452152E-2,3.825525E0,2.565558E-2,-2.4803212E0,1.1926558E0,1.9417474E0,-2.1722725E-1,-6.405959E-1,4.8324376E-2,-6.4450696E-2,1.3378552E-1,-5.9155803E-2,-2.5109747E-1,-1.0711513E0,6.841164E-2,8.935071E-1,1.9586568E-3,6.0518116E-2,2.6172707E-2,-8.025256E-2,1.4946878E-1,-8.066932E-2,-1.8329895E0,-8.314148E0,-3.1435996E-2,5.797863E-2,-8.2768746E-2,-3.4323014E-2,7.876762E-2,-6.1101234E-3,-3.049509E-2,-7.850215E-2,7.4912325E-2,1.2819885E-2,-3.9087135E-2,5.123529E-2,-5.4682214E-2,6.527884E-2,3.393497E-2,-5.541082E-2,7.6298187E-3,6.236132E-2,5.709619E-2,-2.9096821E-2,4.9075307E-3,-7.4107334E-2,4.6169203E-2,-3.2293577E-2,3.46206E-2,-5.7298012E-2,-2.6630362E-2,6.818368E-2,5.64545E-2,-6.935774E-2],"split_indices":[24,8,30,29,0,2,2,0,29,2,19,0,22,0,40,9,2,39,29,0,0,47,84,37,30,37,0,47,1,31,39,0,29,0,55,0,16,47,0,0,0,0,0,48,19,0,0,46,46,8,9,0,1,0,54,0,42,19,55,39,46,0,0,39,0,55,5,0,16,0,0,0,0,37,0,31,60,0,0,0,0,0,0,0,0,0,0,0,0,0,0,0,0,0,0,0,0,0,0,0,0,0,0,0,0,0,0],"split_type":[0,0,0,0,0,0,0,0,0,0,0,0,0,0,0,0,0,0,0,0,0,0,0,0,0,0,0,0,0,0,0,0,0,0,0,0,0,0,0,0,0,0,0,0,0,0,0,0,0,0,0,0,0,0,0,0,0,0,0,0,0,0,0,0,0,0,0,0,0,0,0,0,0,0,0,0,0,0,0,0,0,0,0,0,0,0,0,0,0,0,0,0,0,0,0,0,0,0,0,0,0,0,0,0,0,0,0],"sum_hessian":[2.9104517E3,1.3612506E3,1.549201E3,1.0282219E3,3.330287E2,1.7476611E2,1.3744349E3,7.7832855E2,2.498933E2,3.0833145E2,2.4697243E1,2.8834124E1,1.4593199E2,1.1027354E2,1.2641615E3,5.243022E2,2.5402641E2,1.6860303E2,8.1290276E1,1.8637034E0,3.0646774E2,6.4136586E0,1.8283585E1,1.2137213E2,2.4559868E1,1.0922797E2,1.0455737E0,5.1585644E1,1.2125758E3,3.600096E2,1.6429254E2,3.6907196E0,2.503357E2,1.9992434E0,1.6660379E2,3.283808E1,4.845219E1,3.7896862E0,2.6239724E0,1.7236832E1,1.0467522E0,1.2032655E2,1.0455737E0,1.2699994E1,1.1859873E1,1.0242158E2,6.8063917E0,3.4341393E0,4.8151505E1,8.3936273E2,3.7321307E2,1.6972768E2,1.9028194E2,3.1489677E0,1.6114359E2,1.8547143E0,2.4848099E2,1.6268393E2,3.9198544E0,3.929551E1,9.156682E0,1.3204571E0,2.469229E0,1.0508192E1,2.191802E0,3.1333673E0,8.726505E0,4.462797E0,2.3435946E0,1.0455737E0,2.3885655E0,1.0619179E0,4.708959E1,7.184011E2,1.2096157E2,3.4765427E2,2.5558817E1,1.1575499E2,5.3972687E1,9.225693E1,9.802501E1,1.5932764E2,1.8159335E0,3.275389E0,2.452056E2,1.6007347E2,2.6104655E0,1.2541926E0,2.6656618E0,1.2496855E0,3.8045826E1,3.167785E0,5.988897E0,3.408035E0,7.100157E0,1.8691046E0,1.2642627E0,1.0385907E0,7.687915E0,1.073636E0,1.2699585E0,6.999111E2,1.8490097E1,3.285858E1,3.147957E2,1.8648822E0,2.3693935E1],"tree_param":{"num_deleted":"0","num_feature":"103","num_nodes":"107","size_leaf_vector":"1"}},{"base_weights":[-1.8250296E-4,-4.1580713E-1,3.80609E-1,-1.1633422E-1,-1.3456535E0,-8.2572734E-1,5.333916E-1,-4.426353E-1,9.045076E-1,-1.5538768E0,1.2042527E0,7.6846145E-2,-1.3010185E0,1.5282884E0,4.4515488E-1,3.809434E-2,-1.443809E0,1.3809667E0,-1.04412206E-1,5.8678757E-2,-7.892918E-2,1.3666596E0,-2.1416524E-1,-1.5408467E0,-1.4084074E-1,1.5424747E0,1.908617E-3,-1.3218056E0,5.2208966E-1,-6.096974E-1,1.4560695E0,6.699611E-2,-1.4979621E0,-5.4551758E-2,1.4121857E0,-7.715949E-2,8.589713E-1,-1.0384082E-2,1.4661225E0,-5.1774096E-2,4.3674055E-2,-7.7770464E-2,1.908617E-3,4.9006364E-1,-8.039559E-1,7.8524046E-2,9.5872307E-1,-1.4739487E0,6.3031994E-2,3.159054E-1,9.7744703E-1,-5.429693E-2,-1.0894066E0,-6.2672965E-2,1.5148058E0,2.4854815E-2,-1.5147244E0,1.424909E0,1.3150683E-3,1.0314947E0,-7.031339E-2,7.6789685E-2,1.1864874E-3,9.023572E-1,-5.7542283E-2,4.5913297E-1,-1.2612592E0,6.641259E-2,-2.5679856E-3,-7.80372E-2,3.5159167E-2,6.20433E-1,-7.8143656E-2,1.1344099E0,-1.1211766E0,-3.1989776E-2,5.0904363E-2,-6.169319E-2,6.0611207E-2,7.668621E-2,-5.9132697E-3,-7.6313406E-2,-3.2913838E-2,7.791254E-3,7.1979605E-2,-6.6767365E-2,5.959911E-2,7.3359124E-3,6.0260653E-2,5.5941314E-2,-2.8850202E-2,4.7819023E-3,-7.1847364E-2,2.2744175E-2,-2.3326097E-2,2.5750795E-2,7.364781E-2,6.1809845E-2,-8.3343185E-2,5.4960735E-2,-6.6843055E-2],"categories":[],"categories_nodes":[],"categories_segments":[],"categories_sizes":[],"default_left":[0,0,0,0,0,0,0,0,0,0,0,0,0,0,0,0,0,0,0,0,0,0,0,0,0,0,0,0,0,0,0,0,0,0,0,0,0,0,0,0,0,0,0,0,0,0,0,0,0,0,0,0,0,0,0,0,0,0,0,0,0,0,0,0,0,0,0,0,0,0,0,0,0,0,0,0,0,0,0,0,0,0,0,0,0,0,0,0,0,0,0,0,0,0,0,0,0,0,0,0,0],"id":6,"left_children":[1,3,5,7,9,11,13,15,17,19,21,-1,23,25,27,29,31,33,35,-1,-1,37,39,41,43,45,-1,47,49,51,53,-1,55,-1,57,-1,59,-1,61,-1,-1,-1,-1,63,65,-1,67,69,-1,71,73,75,77,-1,79,-1,81,83,-1,85,-1,-1,-1,87,-1,89,91,-1,93,-1,-1,95,-1,97,99,-1,-1,-1,-1,-1,-1,-1,-1,-1,-1,-1,-1,-1,-1,-1,-1,-1,-1,-1,-1,-1,-1,-1,-1,-1,-1],"loss_changes":[4.5524222E2,3.82818E2,2.7710754E2,3.4728204E2,1.7970935E2,1.9193222E2,1.1633737E2,3.8018213E2,1.21554855E2,2.2748718E1,6.2474556E0,0E0,3.911345E1,2.227951E0,1.6732661E2,4.9191357E2,4.063434E1,1.47854E1,1.1490803E2,0E0,0E0,3.9576187E0,4.049084E0,2.7505493E0,1.09848385E1,2.4583435E-1,0E0,2.2064491E1,1.1004419E2,9.789105E1,2.8623901E1,0E0,9.174255E0,0E0,2.9586487E0,0E0,2.0882656E1,0E0,2.1811714E0,0E0,0E0,0E0,0E0,1.0235219E1,7.9270105E0,0E0,2.6575508E0,1.0362114E1,0E0,4.6470035E2,1.21786285E2,1.0828882E2,6.706502E1,0E0,5.273407E0,0E0,1.4666748E0,2.9127502E0,0E0,1.9361366E1,0E0,0E0,0E0,2.4377031E0,0E0,3.458014E0,2.4275436E0,0E0,8.6436117E-1,0E0,0E0,6.198755E1,0E0,9.9260315E1,1.3902878E1,0E0,0E0,0E0,0E0,0E0,0E0,0E0,0E0,0E0,0E0,0E0,0E0,0E0,0E0,0E0,0E0,0E0,0E0,0E0,0E0,0E0,0E0,0E0,0E0,0E0,0E0],"parents":[2147483647,0,0,1,1,2,2,3,3,4,4,5,5,6,6,7,7,8,8,9,9,10,10,12,12,13,13,14,14,15,15,16,16,17,17,18,18,21,21,22,22,23,23,24,24,25,25,27,27,28,28,29,29,30,30,32,32,34,34,36,36,38,38,43,43,44,44,46,46,47,47,49,49,50,50,51,51,52,52,54,54,56,56,57,57,59,59,63,63,65,65,66,66,68,68,71,71,73,73,74,74],"right_children":[2,4,6,8,10,12,14,16,18,20,22,-1,24,26,28,30,32,34,36,-1,-1,38,40,42,44,46,-1,48,50,52,54,-1,56,-1,58,-1,60,-1,62,-1,-1,-1,-1,64,66,-1,68,70,-1,72,74,76,78,-1,80,-1,82,84,-1,86,-1,-1,-1,88,-1,90,92,-1,94,-1,-1,96,-1,98,100,-1,-1,-1,-1,-1,-1,-1,-1,-1,-1,-1,-1,-1,-1,-1,-1,-1,-1,-1,-1,-1,-1,-1,-1,-1,-1],"split_conditions":[-4.25554E-1,1.8188405E0,3.4686708E-1,5.8751535E-1,3.5143957E-1,-1.4266541E0,-1.4266541E0,3.0158848E-1,6.903606E-1,-1.4266541E0,1.5135857E0,7.6846145E-2,9.964284E0,1.5120611E0,-6.536804E-1,1.8950362E0,-1.4266541E0,-6.536804E-1,1.845833E0,5.8678757E-2,-7.892918E-2,-2.506763E0,-2.3693642E-1,1.8722988E1,-2.9095054E0,9.024493E-1,1.908617E-3,7.491492E-2,6.0050493E-1,-1.7761348E0,-2.1722725E-1,6.699611E-2,-1.4198107E0,-5.4551758E-2,1.5586928E0,-7.715949E-2,2.255575E0,-1.0384082E-2,1.5444069E0,-5.1774096E-2,4.3674055E-2,-7.7770464E-2,1.908617E-3,6.7359626E-1,-3.4638557E0,7.8524046E-2,-1.0932716E0,1.5283314E0,6.3031994E-2,1.8188405E0,1.8950362E0,-1.3133576E0,-7.110688E-1,-6.2672965E-2,3.825525E0,2.4854815E-2,6.424307E0,-3.072781E0,1.3150683E-3,-6.96226E-1,-7.031339E-2,7.6789685E-2,1.1864874E-3,1.3378552E-1,-5.7542283E-2,-1.7381652E-1,-1.0711513E0,6.641259E-2,2.8738227E0,-7.80372E-2,3.5159167E-2,3.0446367E0,-7.8143656E-2,9.086939E0,-8.314148E0,-3.1989776E-2,5.0904363E-2,-6.169319E-2,6.0611207E-2,7.668621E-2,-5.9132697E-3,-7.6313406E-2,-3.2913838E-2,7.791254E-3,7.1979605E-2,-6.6767365E-2,5.959911E-2,7.3359124E-3,6.0260653E-2,5.5941314E-2,-2.8850202E-2,4.7819023E-3,-7.1847364E-2,2.2744175E-2,-2.3326097E-2,2.5750795E-2,7.364781E-2,6.1809845E-2,-8.3343185E-2,5.4960735E-2,-6.6843055E-2],"split_indices":[24,8,30,29,0,2,2,0,29,2,50,0,22,0,40,9,2,40,29,0,0,45,55,37,30,37,0,42,1,31,39,0,29,0,19,0,29,0,48,0,0,0,0,48,19,0,0,26,0,8,9,0,0,0,54,0,37,44,0,0,0,0,0,39,0,44,5,0,3,0,0,10,0,11,60,0,0,0,0,0,0,0,0,0,0,0,0,0,0,0,0,0,0,0,0,0,0,0,0,0,0],"split_type":[0,0,0,0,0,0,0,0,0,0,0,0,0,0,0,0,0,0,0,0,0,0,0,0,0,0,0,0,0,0,0,0,0,0,0,0,0,0,0,0,0,0,0,0,0,0,0,0,0,0,0,0,0,0,0,0,0,0,0,0,0,0,0,0,0,0,0,0,0,0,0,0,0,0,0,0,0,0,0,0,0,0,0,0,0,0,0,0,0,0,0,0,0,0,0,0,0,0,0,0,0],"sum_hessian":[2.8744312E3,1.3743116E3,1.5001196E3,1.0403683E3,3.339433E2,1.6813774E2,1.3319818E3,7.888025E2,2.5156583E2,3.0909357E2,2.4849718E1,2.7785189E1,1.4035255E2,1.0717942E2,1.2248024E3,5.3356476E2,2.5523773E2,1.7062158E2,8.0944244E1,2.3573647E0,3.067362E2,2.232951E1,2.5202088E0,1.1603753E2,2.431502E1,1.06133865E2,1.0455617E0,5.0428604E1,1.1743738E3,3.6663858E2,1.669262E2,4.417416E0,2.5082031E2,1.7045307E0,1.6891704E2,3.2221214E1,4.872303E1,1.2622375E0,2.1067272E1,1.4632343E0,1.0569745E0,1.14991974E2,1.0455617E0,1.2593866E1,1.1721153E1,9.966214E1,6.471721E0,4.802829E1,2.400313E0,8.095198E2,3.6485406E2,1.7043015E2,1.9620844E2,3.1102219E0,1.6381596E2,1.8510547E0,2.4896927E2,1.6735248E2,1.564565E0,4.578094E1,2.9420922E0,2.0034786E1,1.0324848E0,1.0424662E1,2.169205E0,3.114576E0,8.606577E0,4.3989778E0,2.0727434E0,4.645923E1,1.5690615E0,6.9718427E2,1.1233549E2,3.398919E2,2.496216E1,1.105019E2,5.9928253E1,1.8505759E2,1.1150851E1,1.620001E2,1.8158585E0,2.4488644E2,4.082816E0,2.0469127E0,1.6530557E2,2.4422624E0,4.3338676E1,3.4074268E0,7.017235E0,1.8542176E0,1.2603586E0,1.0388477E0,7.567729E0,1.0535296E0,1.0192138E0,6.2188983E2,7.529444E1,3.2851373E2,1.1378174E1,1.8474052E0,2.3114754E1],"tree_param":{"num_deleted":"0","num_feature":"103","num_nodes":"101","size_leaf_vector":"1"}},{"base_weights":[-2.3865947E-4,-4.0209964E-1,3.6573386E-1,-1.1240694E-1,-1.3069788E0,-8.006963E-1,5.1202744E-1,-4.2710868E-1,8.7374705E-1,-1.5100007E0,1.1656048E0,7.4676745E-2,-1.2617298E0,1.4846592E0,4.267777E-1,3.682411E-2,-1.4001628E0,1.3361427E0,-1.0274294E-1,5.7125267E-2,-7.671569E-2,1.3242105E0,-2.0701738E-1,-1.4966514E0,-1.365301E-1,1.4987314E0,1.8598512E-3,-1.2811859E0,5.0030667E-1,-5.84921E-1,1.4122472E0,6.5108225E-2,-1.4530556E0,-4.3155327E-2,1.3705497E0,-7.498253E-2,8.2354915E-1,-1.1079588E-2,1.423755E0,-5.0492883E-2,4.273527E-2,-7.5555205E-2,1.8598512E-3,-6.761873E-2,1.9152395E-1,7.63156E-2,9.2897767E-1,-1.4307274E0,6.1198592E-2,3.0197692E-1,9.415405E-1,-4.7188986E-2,-1.0449647E0,-6.0956012E-2,1.4697684E0,2.4083592E-2,-1.4696093E0,1.3872918E0,2.2678436E-1,9.909433E-1,-6.802093E-2,7.463314E-2,1.1563663E-3,4.9691477E-1,-6.254097E-2,6.456875E-2,-2.6235038E-3,-7.582388E-2,3.418881E-2,5.9187776E-1,-7.593345E-2,1.0926139E0,-1.0823148E0,-2.8881416E-2,5.467374E-2,-5.8991224E-2,5.1277038E-2,7.442492E-2,-5.722822E-3,-2.6736533E-2,-7.399381E-2,7.058721E-2,2.5470573E-2,5.095805E-2,-3.4532238E-2,-6.4694725E-2,5.734696E-2,-4.470336E-2,3.851288E-2,2.2187175E-2,-2.2740679E-2,2.4537815E-2,7.082992E-2,-2.787663E-2,6.3531674E-2,5.355505E-2,-6.466009E-2],"categories":[],"categories_nodes":[],"categories_segments":[],"categories_sizes":[],"default_left":[0,0,0,0,0,0,0,0,0,0,0,0,0,0,0,0,0,0,0,0,0,0,0,0,0,0,0,0,0,0,0,0,0,0,0,0,0,0,0,0,0,0,0,0,0,0,0,0,0,0,0,0,0,0,0,0,0,0,0,0,0,0,0,0,0,0,0,0,0,0,0,0,0,0,0,0,0,0,0,0,0,0,0,0,0,0,0,0,0,0,0,0,0,0,0,0,0],"id":7,"left_children":[1,3,5,7,9,11,13,15,17,19,21,-1,23,25,27,29,31,33,35,-1,-1,37,39,41,43,45,-1,47,49,51,53,-1,55,-1,57,-1,59,-1,61,-1,-1,-1,-1,-1,63,-1,65,67,-1,69,71,73,75,-1,77,-1,79,81,83,85,-1,-1,-1,87,-1,-1,89,-1,-1,91,-1,93,95,-1,-1,-1,-1,-1,-1,-1,-1,-1,-1,-1,-1,-1,-1,-1,-1,-1,-1,-1,-1,-1,-1,-1,-1],"loss_changes":[4.17168E2,3.5425513E2,2.537359E2,3.1853928E2,1.6629657E2,1.7728857E2,1.0879312E2,3.5120172E2,1.1227098E2,2.1315308E1,5.8115044E0,0E0,3.643927E1,2.1022644E0,1.531981E2,4.520959E2,3.779123E1,1.3941437E1,1.0570266E2,0E0,0E0,3.8447533E0,3.8459907E0,2.596283E0,1.0248155E1,2.3051453E-1,0E0,2.0639442E1,1.01695496E2,9.002864E1,2.6701538E1,0E0,8.612305E0,0E0,2.8717957E0,0E0,1.9331444E1,0E0,2.0581741E0,0E0,0E0,0E0,0E0,0E0,9.694764E0,0E0,2.5012836E0,9.74752E0,0E0,4.260196E2,1.1152985E2,1.0284641E2,5.5992325E1,0E0,4.9627075E0,0E0,1.5598755E0,2.7970276E0,3.3179665E0,1.7974918E1,0E0,0E0,0E0,7.4241447E0,0E0,0E0,8.214922E-1,0E0,0E0,5.731006E1,0E0,9.950955E1,1.2997805E1,0E0,0E0,0E0,0E0,0E0,0E0,0E0,0E0,0E0,0E0,0E0,0E0,0E0,0E0,0E0,0E0,0E0,0E0,0E0,0E0,0E0,0E0,0E0,0E0],"parents":[2147483647,0,0,1,1,2,2,3,3,4,4,5,5,6,6,7,7,8,8,9,9,10,10,12,12,13,13,14,14,15,15,16,16,17,17,18,18,21,21,22,22,23,23,24,24,25,25,27,27,28,28,29,29,30,30,32,32,34,34,36,36,38,38,44,44,46,46,47,47,49,49,50,50,51,51,52,52,54,54,56,56,57,57,58,58,59,59,63,63,66,66,69,69,71,71,72,72],"right_children":[2,4,6,8,10,12,14,16,18,20,22,-1,24,26,28,30,32,34,36,-1,-1,38,40,42,44,46,-1,48,50,52,54,-1,56,-1,58,-1,60,-1,62,-1,-1,-1,-1,-1,64,-1,66,68,-1,70,72,74,76,-1,78,-1,80,82,84,86,-1,-1,-1,88,-1,-1,90,-1,-1,92,-1,94,96,-1,-1,-1,-1,-1,-1,-1,-1,-1,-1,-1,-1,-1,-1,-1,-1,-1,-1,-1,-1,-1,-1,-1,-1],"split_conditions":[-4.25554E-1,1.8188405E0,3.4686708E-1,5.8751535E-1,3.5143957E-1,-1.4266541E0,-1.4266541E0,3.0158848E-1,6.903606E-1,-1.4266541E0,1.5135857E0,7.4676745E-2,9.964284E0,1.5120611E0,-6.536804E-1,1.8950362E0,-1.4266541E0,-2.1722725E-1,1.845833E0,5.7125267E-2,-7.671569E-2,-7.59557E-1,-2.3693642E-1,1.8722988E1,1.2255406E0,9.024493E-1,1.8598512E-3,7.491492E-2,6.0050493E-1,-1.7855576E0,-2.1722725E-1,6.5108225E-2,-1.4198107E0,-4.3155327E-2,1.1926558E0,-7.498253E-2,2.255575E0,-1.1079588E-2,1.5444069E0,-5.0492883E-2,4.273527E-2,-7.5555205E-2,1.8598512E-3,-6.761873E-2,6.7359626E-1,7.63156E-2,-1.0932716E0,1.5283314E0,6.1198592E-2,1.8188405E0,1.8950362E0,-1.3035597E0,-7.110688E-1,-6.0956012E-2,3.825525E0,2.4083592E-2,-2.4803212E0,1.9291803E0,-5.6104535E-1,-6.96226E-1,-6.802093E-2,7.463314E-2,1.1563663E-3,-4.028543E-1,-6.254097E-2,6.456875E-2,2.8738227E0,-7.582388E-2,3.418881E-2,3.0446367E0,-7.593345E-2,-1.8329895E0,-8.314148E0,-2.8881416E-2,5.467374E-2,-5.8991224E-2,5.1277038E-2,7.442492E-2,-5.722822E-3,-2.6736533E-2,-7.399381E-2,7.058721E-2,2.5470573E-2,5.095805E-2,-3.4532238E-2,-6.4694725E-2,5.734696E-2,-4.470336E-2,3.851288E-2,2.2187175E-2,-2.2740679E-2,2.4537815E-2,7.082992E-2,-2.787663E-2,6.3531674E-2,5.355505E-2,-6.466009E-2],"split_indices":[24,8,30,29,0,2,2,0,29,2,50,0,22,0,40,9,2,39,29,0,0,24,55,37,24,37,0,42,1,31,39,0,29,0,19,0,29,0,48,0,0,0,0,0,48,0,0,26,0,8,9,0,0,0,54,0,42,52,55,0,0,0,0,50,0,0,3,0,0,10,0,31,60,0,0,0,0,0,0,0,0,0,0,0,0,0,0,0,0,0,0,0,0,0,0,0,0],"split_type":[0,0,0,0,0,0,0,0,0,0,0,0,0,0,0,0,0,0,0,0,0,0,0,0,0,0,0,0,0,0,0,0,0,0,0,0,0,0,0,0,0,0,0,0,0,0,0,0,0,0,0,0,0,0,0,0,0,0,0,0,0,0,0,0,0,0,0,0,0,0,0,0,0,0,0,0,0,0,0,0,0,0,0,0,0,0,0,0,0,0,0,0,0,0,0,0,0],"sum_hessian":[2.8345254E3,1.3509729E3,1.4835524E3,1.0242034E3,3.2676953E2,1.6483272E2,1.3187197E3,7.768589E2,2.4734451E2,3.023344E2,2.4435131E1,2.7206425E1,1.376263E2,1.04946686E2,1.2137731E3,5.267007E2,2.501582E2,1.6760873E2,7.973578E1,2.328324E0,3.0000607E2,2.193574E1,2.4993916E0,1.1358223E2,2.4044062E1,1.0390114E2,1.0455483E0,4.9419155E1,1.1643539E3,3.6312753E2,1.6357315E2,4.3489513E0,2.4580925E2,2.210819E0,1.6539792E2,3.154497E1,4.819081E1,1.25295E0,2.068279E1,1.4510243E0,1.0483674E0,1.1253668E2,1.0455483E0,4.44552E0,1.9598543E1,9.750237E1,6.3987684E0,4.704006E1,2.3790963E0,8.044478E2,3.5990607E2,1.6793529E2,1.9519223E2,3.067188E0,1.6050595E2,1.8469403E0,2.4396231E2,1.6280194E2,2.59597E0,4.526747E1,2.9233425E0,1.965033E1,1.0324597E0,1.6714931E1,2.8836117E0,4.3286963E0,2.0700722E0,4.5478573E1,1.5614886E0,6.9453253E2,1.0991527E2,3.353347E2,2.4571379E1,1.1496642E2,5.2968872E1,1.8365994E2,1.1532283E1,1.586902E2,1.8157537E0,3.2267447E0,2.4073557E2,1.5779851E2,5.0034404E0,1.3334184E0,1.2625515E0,2.4268925E0,4.2840576E1,2.3722427E0,1.4342688E1,1.0511438E0,1.0189284E0,6.200958E2,7.443672E1,3.2445965E1,3.028887E2,1.8278391E0,2.274354E1],"tree_param":{"num_deleted":"0","num_feature":"103","num_nodes":"97","size_leaf_vector":"1"}},{"base_weights":[-2.9257787E-4,-3.6320603E-1,3.7796324E-1,-9.004301E-2,-1.2374933E0,-7.681186E-1,5.2631325E-1,-3.858179E-1,8.5613006E-1,-1.4610568E0,1.2706681E0,7.2638914E-2,-1.2163278E0,1.4439819E0,4.421536E-1,5.1845644E-2,-1.3512707E0,1.29213E0,-1.0002719E-1,5.816382E-2,-1.4884257E0,1.4148668E0,1.1637026E-1,-1.4547257E0,-1.3629058E-1,1.4582912E0,1.8123304E-3,-1.2239772E0,5.132186E-1,-5.124037E-1,1.3871228E0,6.560283E-2,-1.414219E0,-5.888138E-2,1.3381201E0,-1.4641457E0,8.1176716E-1,-7.474333E-2,-4.207481E-3,7.36856E-2,1.1270068E-3,-4.927854E-2,5.1765688E-2,-1.4697099E0,1.8123304E-3,4.576524E-1,-7.6305807E-1,7.430826E-2,9.011031E-1,-7.335791E-2,4.5910937E-1,3.2483643E-1,9.229435E-1,5.7117916E-3,-9.9547106E-1,-5.9355713E-2,1.4407803E0,2.3340348E-2,-1.4298627E0,-1.6801756E-2,1.3537539E0,-7.4267715E-2,-2.298738E-2,9.712482E-1,-6.590848E-2,-7.3977016E-2,-2.8921053E-2,8.4388787E-1,-5.441959E-2,4.4057474E-1,-1.2035058E0,6.2861234E-2,-2.6680236E-3,9.20263E-1,-4.482142E-2,5.9068197E-1,-7.376543E-2,4.4329742E-1,1.4823309E0,-2.8279135E-2,5.029596E-2,-5.817584E-2,4.9183976E-2,7.292505E-2,-5.538571E-3,-4.0272098E-2,-7.247509E-2,5.2319705E-3,6.838933E-2,-6.2771946E-2,5.5983562E-2,5.572191E-3,5.7311263E-2,5.3504456E-2,-2.7232075E-2,-6.8992995E-2,5.8643916E-3,2.1646546E-2,-2.2172926E-2,6.1498325E-2,4.041906E-3,3.2167807E-2,-6.343696E-2,-1.6657958E-2,4.1285455E-2,7.472802E-2,6.296837E-3],"categories":[],"categories_nodes":[],"categories_segments":[],"categories_sizes":[],"default_left":[0,0,0,0,0,0,0,0,0,0,0,0,0,0,0,0,0,0,0,0,0,0,0,0,0,0,0,0,0,0,0,0,0,0,0,0,0,0,0,0,0,0,0,0,0,0,0,0,0,0,0,0,0,0,0,0,0,0,0,0,0,0,0,0,0,0,0,0,0,0,0,0,0,0,0,0,0,0,0,0,0,0,0,0,0,0,0,0,0,0,0,0,0,0,0,0,0,0,0,0,0,0,0,0,0,0,0],"id":8,"left_children":[1,3,5,7,9,11,13,15,17,19,21,-1,23,25,27,29,31,33,35,-1,37,39,41,43,45,47,-1,49,51,53,55,-1,57,-1,59,61,63,-1,-1,-1,-1,-1,-1,65,-1,67,69,-1,71,-1,73,75,77,79,81,-1,83,-1,85,-1,87,-1,-1,89,-1,-1,-1,91,-1,93,95,-1,97,99,-1,101,-1,103,105,-1,-1,-1,-1,-1,-1,-1,-1,-1,-1,-1,-1,-1,-1,-1,-1,-1,-1,-1,-1,-1,-1,-1,-1,-1,-1,-1,-1],"loss_changes":[3.8357098E2,3.4045447E2,2.3302367E2,3.047047E2,1.9216986E2,1.5825642E2,9.29628E1,3.5047964E2,1.082404E2,2.4147339E1,4.547714E0,0E0,3.3622482E1,1.9891205E0,1.3224539E2,4.3135324E2,4.522882E1,2.181482E1,1.0336169E2,0E0,2.671875E0,2.0214424E0,5.3074126E0,2.4548798E0,9.601682E0,2.1899414E-1,0E0,1.9406425E1,8.2043365E1,1.0075065E2,2.5199615E1,0E0,8.118683E0,0E0,5.0455933E0,2.5764465E-2,1.822356E1,0E0,0E0,0E0,0E0,0E0,0E0,7.6919556E-2,0E0,8.912083E0,7.139999E0,0E0,2.3593116E0,0E0,4.912987E0,3.5135016E2,8.935214E1,1.12114204E2,7.04265E1,0E0,4.75412E0,0E0,1.9151611E0,0E0,2.9063416E0,0E0,0E0,1.6932392E1,0E0,0E0,0E0,2.3688402E0,0E0,3.1084228E0,2.3503876E0,0E0,7.8086615E-1,1.2974281E0,0E0,6.3386124E1,0E0,5.432591E1,2.3735657E0,0E0,0E0,0E0,0E0,0E0,0E0,0E0,0E0,0E0,0E0,0E0,0E0,0E0,0E0,0E0,0E0,0E0,0E0,0E0,0E0,0E0,0E0,0E0,0E0,0E0,0E0,0E0,0E0],"parents":[2147483647,0,0,1,1,2,2,3,3,4,4,5,5,6,6,7,7,8,8,9,9,10,10,12,12,13,13,14,14,15,15,16,16,17,17,18,18,20,20,21,21,22,22,23,23,24,24,25,25,27,27,28,28,29,29,30,30,32,32,34,34,35,35,36,36,43,43,45,45,46,46,48,48,50,50,51,51,52,52,53,53,54,54,56,56,58,58,60,60,63,63,67,67,69,69,70,70,72,72,73,73,75,75,77,77,78,78],"right_children":[2,4,6,8,10,12,14,16,18,20,22,-1,24,26,28,30,32,34,36,-1,38,40,42,44,46,48,-1,50,52,54,56,-1,58,-1,60,62,64,-1,-1,-1,-1,-1,-1,66,-1,68,70,-1,72,-1,74,76,78,80,82,-1,84,-1,86,-1,88,-1,-1,90,-1,-1,-1,92,-1,94,96,-1,98,100,-1,102,-1,104,106,-1,-1,-1,-1,-1,-1,-1,-1,-1,-1,-1,-1,-1,-1,-1,-1,-1,-1,-1,-1,-1,-1,-1,-1,-1,-1,-1,-1],"split_conditions":[-3.7731925E-1,1.8188405E0,3.4686708E-1,5.8751535E-1,8.5369027E-1,-1.4266541E0,-1.4266541E0,3.0158848E-1,6.903606E-1,-1.4266541E0,1.5135857E0,7.2638914E-2,9.964284E0,1.5120611E0,-6.536804E-1,1.8950362E0,-1.4266541E0,-6.536804E-1,1.845833E0,5.816382E-2,3.5143957E-1,1.5444069E0,-2.3693642E-1,1.8722988E1,-2.9095054E0,9.024493E-1,1.8123304E-3,-2.1722725E-1,6.0050493E-1,-1.7855576E0,-2.1722725E-1,6.560283E-2,-1.4198107E0,-5.888138E-2,-1.410595E0,1.1225567E0,2.255575E0,-7.474333E-2,-4.207481E-3,7.36856E-2,1.1270068E-3,-4.927854E-2,5.1765688E-2,5.4274945E0,1.8123304E-3,6.7359626E-1,-3.4638557E0,7.430826E-2,-1.0932716E0,-7.335791E-2,6.903606E-1,1.8188405E0,1.8188405E0,-1.3133576E0,-7.110688E-1,-5.9355713E-2,3.825525E0,2.3340348E-2,-2.1657197E0,-1.6801756E-2,-3.072781E0,-7.4267715E-2,-2.298738E-2,-6.96226E-1,-6.590848E-2,-7.3977016E-2,-2.8921053E-2,1.3378552E-1,-5.441959E-2,-1.7381652E-1,3.5869163E-1,6.2861234E-2,2.8738227E0,8.551371E-2,-4.482142E-2,1.4946878E-1,-7.376543E-2,2.1751834E-1,2.3370743E0,-2.8279135E-2,5.029596E-2,-5.817584E-2,4.9183976E-2,7.292505E-2,-5.538571E-3,-4.0272098E-2,-7.247509E-2,5.2319705E-3,6.838933E-2,-6.2771946E-2,5.5983562E-2,5.572191E-3,5.7311263E-2,5.3504456E-2,-2.7232075E-2,-6.8992995E-2,5.8643916E-3,2.1646546E-2,-2.2172926E-2,6.1498325E-2,4.041906E-3,3.2167807E-2,-6.343696E-2,-1.6657958E-2,4.1285455E-2,7.472802E-2,6.296837E-3],"split_indices":[24,8,30,29,0,2,2,0,29,2,50,0,22,0,40,9,2,40,29,0,0,48,55,37,30,37,0,39,1,31,39,0,29,0,7,16,29,0,0,0,0,0,0,26,0,48,19,0,0,0,29,8,8,0,0,0,54,0,47,0,44,0,0,0,0,0,0,39,0,44,60,0,3,7,0,37,0,29,4,0,0,0,0,0,0,0,0,0,0,0,0,0,0,0,0,0,0,0,0,0,0,0,0,0,0,0,0],"split_type":[0,0,0,0,0,0,0,0,0,0,0,0,0,0,0,0,0,0,0,0,0,0,0,0,0,0,0,0,0,0,0,0,0,0,0,0,0,0,0,0,0,0,0,0,0,0,0,0,0,0,0,0,0,0,0,0,0,0,0,0,0,0,0,0,0,0,0,0,0,0,0,0,0,0,0,0,0,0,0,0,0,0,0,0,0,0,0,0,0,0,0,0,0,0,0,0,0,0,0,0,0,0,0,0,0,0,0],"sum_hessian":[2.7921973E3,1.4250184E3,1.3671787E3,1.0866178E3,3.3840076E2,1.5620844E2,1.2109703E3,8.2828656E2,2.5833118E2,3.1108945E2,2.7311304E1,2.5854902E1,1.3035353E2,1.0037147E2,1.1105989E3,5.705765E2,2.5771008E2,1.771849E2,8.1146255E1,2.782467E0,3.0830698E2,2.4077702E1,3.2336032E0,1.06498955E2,2.3854572E1,9.9325935E1,1.0455333E0,4.4768574E1,1.0658303E3,4.0152145E2,1.6905505E2,5.49222E0,2.5221785E2,2.789272E0,1.7439563E2,3.2266766E1,4.887949E1,3.068351E2,1.4718583E0,2.3045267E1,1.0324346E0,1.4374257E0,1.7961776E0,1.0545342E2,1.0455333E0,1.2386545E1,1.1468026E1,9.300594E1,6.319994E0,3.9228878E1,5.539697E0,7.313603E2,3.3446997E2,1.9420953E2,2.073119E2,3.0205283E0,1.6603453E2,1.8424245E0,2.5037543E2,1.4238881E0,1.7297176E2,3.113057E1,1.1361954E0,4.5980648E1,2.8988445E0,1.03650215E2,1.803206E0,1.0274032E1,2.1125135E0,3.0721965E0,8.39583E0,4.2530403E0,2.0669537E0,4.3730836E0,1.1666136E0,6.378364E2,9.352386E1,1.8103459E2,1.5343538E2,1.2388432E2,7.032521E1,1.9146695E2,1.584496E1,1.642189E2,1.8156223E0,8.915637E0,2.414598E2,2.015545E0,1.709562E2,2.4072862E0,4.357336E1,3.4016893E0,6.8723426E0,1.821917E0,1.2502795E0,7.367404E0,1.0284257E0,1.0485669E0,1.0183866E0,2.8546274E0,1.5184561E0,6.2090137E2,1.6935066E1,5.9781597E1,1.2125299E2,1.519634E2,1.4719863E0],"tree_param":{"num_deleted":"0","num_feature":"103","num_nodes":"107","size_leaf_vector":"1"}},{"base_weights":[-3.9154588E-4,-4.400801E-1,2.91916E-1,-1.7718805E-1,-1.2527804E0,-7.8355676E-1,4.1589728E-1,-4.6717563E-1,7.590629E-1,-1.4434614E0,1.134674E0,7.1189895E-2,-1.2145277E0,1.4016908E0,3.4139898E-1,-4.359782E-3,-1.3682575E0,1.1689209E0,-4.312444E-1,-1.2162162E-3,-1.4527006E0,1.3273455E0,-1.9687966E-1,-1.425582E0,-1.3233574E-1,1.4275376E0,-1.145588E-2,-1.2527919E0,4.0373492E-1,-6.065015E-1,1.3293608E0,5.2759595E-2,-1.3984706E0,1.2266427E0,-6.395435E-2,9.2324585E-1,-1.2989587E0,-7.2881244E-2,-1.2844545E-2,7.072628E-2,3.3412618E-3,-4.8125427E-2,4.077099E-2,-1.4387051E0,1.7660253E-3,-6.4442806E-2,1.763947E-1,7.269979E-2,8.984013E-1,-1.3892747E0,5.821531E-2,2.0774235E-1,8.729579E-1,-1.0187061E-1,-1.0599868E0,-4.9990777E-2,1.3700287E0,-4.6632543E-1,-1.4103001E0,-5.5090513E-2,1.2829486E0,5.80698E-2,1.273784E0,8.321419E-2,-7.104677E-2,-7.237375E-2,-2.7312422E-2,4.654538E-1,-5.9579827E-2,6.1273962E-2,1.1722569E-1,-7.3380165E-2,3.2420833E-2,5.0783366E-1,-7.241846E-2,1.0142013E0,-1.0779442E0,-3.1851504E-2,4.935952E-2,-7.43362E-2,-3.2208826E-2,6.959539E-2,-5.3603E-3,-5.6197114E-2,3.9467808E-2,-2.7598461E-2,-7.0984945E-2,-5.8252733E-2,6.6259556E-2,3.4887623E-2,-7.157578E-2,6.9421716E-2,7.0479065E-3,-3.736587E-2,4.366655E-2,-4.2284828E-2,3.608912E-2,4.3822676E-2,-3.1095732E-2,1.8822907E-2,7.086835E-2,5.5601485E-2,-8.321618E-2,5.1234912E-2,-6.343477E-2],"categories":[],"categories_nodes":[],"categories_segments":[],"categories_sizes":[],"default_left":[0,0,0,0,0,0,0,0,0,0,0,0,0,0,0,0,0,0,0,0,0,0,0,0,0,0,0,0,0,0,0,0,0,0,0,0,0,0,0,0,0,0,0,0,0,0,0,0,0,0,0,0,0,0,0,0,0,0,0,0,0,0,0,0,0,0,0,0,0,0,0,0,0,0,0,0,0,0,0,0,0,0,0,0,0,0,0,0,0,0,0,0,0,0,0,0,0,0,0,0,0,0,0,0,0],"id":9,"left_children":[1,3,5,7,9,11,13,15,17,19,21,-1,23,25,27,29,31,33,35,-1,37,39,41,43,45,47,-1,49,51,53,55,-1,57,59,-1,61,63,-1,-1,-1,-1,-1,-1,65,-1,-1,67,-1,69,71,-1,73,75,77,79,-1,81,83,85,-1,87,89,91,93,-1,-1,-1,95,-1,-1,97,-1,-1,99,-1,101,103,-1,-1,-1,-1,-1,-1,-1,-1,-1,-1,-1,-1,-1,-1,-1,-1,-1,-1,-1,-1,-1,-1,-1,-1,-1,-1,-1,-1],"loss_changes":[3.5343445E2,2.3439676E2,2.205758E2,2.2594383E2,1.237504E2,1.6448407E2,1.08339264E2,2.648197E2,9.655133E1,3.227295E0,5.494711E0,0E0,3.262773E1,4.7018127E0,1.3753822E2,3.385372E2,1.7253143E1,2.2300858E1,6.1324905E1,0E0,1.0812988E0,1.8779812E0,3.4582732E0,2.353836E0,8.9931E0,1.2602234E-1,0E0,1.8816086E1,1.2192912E2,6.63524E1,1.3789825E1,0E0,1.6939087E0,2.027301E1,0E0,6.1614532E0,5.4452934E0,0E0,0E0,0E0,0E0,0E0,0E0,1.4134216E-1,0E0,0E0,8.564911E0,0E0,1.7698159E0,8.900688E0,0E0,4.6686E2,1.0880618E2,8.138725E1,2.6165146E1,0E0,4.3280487E0,4.327655E0,9.1122437E-1,0E0,1.611586E1,7.646068E0,1.6984501E0,2.9540062E0,0E0,0E0,0E0,6.4725885E0,0E0,0E0,2.405933E0,0E0,0E0,9.443335E1,0E0,9.750015E1,1.2079031E1,0E0,0E0,0E0,0E0,0E0,0E0,0E0,0E0,0E0,0E0,0E0,0E0,0E0,0E0,0E0,0E0,0E0,0E0,0E0,0E0,0E0,0E0,0E0,0E0,0E0,0E0,0E0,0E0],"parents":[2147483647,0,0,1,1,2,2,3,3,4,4,5,5,6,6,7,7,8,8,9,9,10,10,12,12,13,13,14,14,15,15,16,16,17,17,18,18,20,20,21,21,22,22,23,23,24,24,25,25,27,27,28,28,29,29,30,30,32,32,33,33,35,35,36,36,43,43,46,46,48,48,49,49,51,51,52,52,53,53,54,54,56,56,57,57,58,58,60,60,61,61,62,62,63,63,67,67,70,70,73,73,75,75,76,76],"right_children":[2,4,6,8,10,12,14,16,18,20,22,-1,24,26,28,30,32,34,36,-1,38,40,42,44,46,48,-1,50,52,54,56,-1,58,60,-1,62,64,-1,-1,-1,-1,-1,-1,66,-1,-1,68,-1,70,72,-1,74,76,78,80,-1,82,84,86,-1,88,90,92,94,-1,-1,-1,96,-1,-1,98,-1,-1,100,-1,102,104,-1,-1,-1,-1,-1,-1,-1,-1,-1,-1,-1,-1,-1,-1,-1,-1,-1,-1,-1,-1,-1,-1,-1,-1,-1,-1,-1,-1],"split_conditions":[-5.024566E-1,1.8188405E0,3.4686708E-1,5.8751535E-1,8.5369027E-1,-1.4266541E0,-1.4266541E0,3.0158848E-1,1.4992882E0,-2.2655144E0,1.5135857E0,7.1189895E-2,9.964284E0,1.5120611E0,-6.536804E-1,1.8950362E0,-1.4266541E0,2.255575E0,6.903606E-1,-1.2162162E-3,3.5143957E-1,1.287744E0,-2.3693642E-1,1.8722988E1,1.2255406E0,9.024493E-1,-1.145588E-2,7.491492E-2,5.865792E-1,-1.7761348E0,-2.1722725E-1,5.2759595E-2,-2.4803212E0,-4.7868703E-2,-6.395435E-2,-6.876599E-1,-1.9250044E0,-7.2881244E-2,-1.2844545E-2,7.072628E-2,3.3412618E-3,-4.8125427E-2,4.077099E-2,2.2579548E0,1.7660253E-3,-6.4442806E-2,6.7359626E-1,7.269979E-2,-1.0932716E0,1.5283314E0,5.821531E-2,1.8188405E0,1.8950362E0,-1.3133576E0,-9.7882116E-1,-4.9990777E-2,3.825525E0,-4.25062E-1,-2.4475915E0,-5.5090513E-2,-6.96226E-1,7.418509E-1,5.270697E-1,-1.5493235E-1,-7.104677E-2,-7.237375E-2,-2.7312422E-2,-4.028543E-1,-5.9579827E-2,6.1273962E-2,8.935071E-1,-7.3380165E-2,3.2420833E-2,1.8950362E0,-7.241846E-2,9.086939E0,-8.314148E0,-3.1851504E-2,4.935952E-2,-7.43362E-2,-3.2208826E-2,6.959539E-2,-5.3603E-3,-5.6197114E-2,3.9467808E-2,-2.7598461E-2,-7.0984945E-2,-5.8252733E-2,6.6259556E-2,3.4887623E-2,-7.157578E-2,6.9421716E-2,7.0479065E-3,-3.736587E-2,4.366655E-2,-4.2284828E-2,3.608912E-2,4.3822676E-2,-3.1095732E-2,1.8822907E-2,7.086835E-2,5.5601485E-2,-8.321618E-2,5.1234912E-2,-6.343477E-2],"split_indices":[24,8,30,29,0,2,2,0,0,7,50,0,22,0,40,9,2,29,29,0,0,7,55,37,24,37,0,42,1,31,39,0,42,39,0,24,27,0,0,0,0,0,0,46,0,0,48,0,0,26,0,8,9,0,1,0,54,53,47,0,0,53,3,7,0,0,0,50,0,0,16,0,0,9,0,11,60,0,0,0,0,0,0,0,0,0,0,0,0,0,0,0,0,0,0,0,0,0,0,0,0,0,0,0,0],"split_type":[0,0,0,0,0,0,0,0,0,0,0,0,0,0,0,0,0,0,0,0,0,0,0,0,0,0,0,0,0,0,0,0,0,0,0,0,0,0,0,0,0,0,0,0,0,0,0,0,0,0,0,0,0,0,0,0,0,0,0,0,0,0,0,0,0,0,0,0,0,0,0,0,0,0,0,0,0,0,0,0,0,0,0,0,0,0,0,0,0,0,0,0,0,0,0,0,0,0,0,0,0,0,0,0,0],"sum_hessian":[2.747943E3,1.0971326E3,1.6508107E3,8.2989606E2,2.672365E2,1.7008575E2,1.4807249E3,6.3402026E2,1.9587581E2,2.4783765E2,1.9398874E1,2.7407228E1,1.4267853E2,1.0278708E2,1.3779377E3,4.1953995E2,2.1448029E2,1.4571857E2,5.0157246E1,1.6266028E0,2.4621104E2,1.6949497E1,2.449377E0,1.1912824E2,2.3550282E1,1.0130612E2,1.4809618E0,5.113383E1,1.326804E3,2.894195E2,1.3012045E2,2.223273E0,2.1225702E2,1.4284923E2,2.8693388E0,1.9560137E1,3.0597109E1,2.4498326E2,1.2277708E0,1.5738795E1,1.2107022E0,1.4226074E0,1.0267698E0,1.18082726E2,1.045517E0,4.2931647E0,1.9257116E1,9.481715E1,6.488975E0,4.8803352E1,2.3304791E0,9.3690515E2,3.898988E2,1.3756458E2,1.5185492E2,1.8282111E0,1.2829225E2,3.166435E0,2.0909058E2,2.9343615E0,1.3991487E2,5.9760623E0,1.3584075E1,2.506997E0,2.809011E1,1.163178E2,1.7649246E0,1.6442533E1,2.814584E0,4.172985E0,2.3159897E0,4.726622E1,1.5371327E0,7.9376624E2,1.4313895E2,3.6402396E2,2.5874834E1,9.251715E1,4.504743E1,7.367174E1,7.818318E1,1.26476776E2,1.8154669E0,2.1469593E0,1.0194758E0,2.9116826E0,2.061789E2,1.9225144E0,1.3799236E2,4.552592E0,1.4234706E0,1.2130721E1,1.4533544E0,1.2486484E0,1.2583488E0,2.3128371E0,1.4129696E1,1.0508286E0,1.2651612E0,6.948186E2,9.8947624E1,3.5176132E2,1.22626295E1,1.7884893E0,2.4086346E1],"tree_param":{"num_deleted":"0","num_feature":"103","num_nodes":"105","size_leaf_vector":"1"}},{"base_weights":[-5.940627E-4,-3.437124E-1,3.5216743E-1,-8.750631E-2,-1.1780276E0,-7.287805E-1,4.8873743E-1,-3.6517352E-1,8.065004E-1,-1.3931397E0,1.2056724E0,6.922086E-2,-1.1535139E0,1.3756204E0,4.0984818E-1,4.3460477E-2,-1.2844285E0,1.2220727E0,-1.0135954E-1,5.5495787E-2,-1.4199106E0,1.3449897E0,1.09731734E-1,-1.385554E0,-1.3231052E-1,1.3898275E0,2.058738E-3,-1.1600368E0,4.748757E-1,-4.788783E-1,1.3159885E0,6.2413234E-2,-1.344864E0,-5.577741E-2,1.2660662E0,-1.3982233E0,7.503327E-1,-7.131877E-2,-4.040844E-3,7.0239455E-2,1.2871202E-4,-4.70285E-2,4.9459424E-2,-1.400582E0,1.7209124E-3,4.2838174E-1,-7.268123E-1,7.087089E-2,8.511095E-1,-6.9905736E-2,4.3725932E-1,3.0084738E-1,8.588331E-1,4.7857226E-3,-9.358671E-1,-5.643022E-2,1.3678755E0,2.2549083E-2,-1.3604922E0,-1.8293556E-2,1.2819788E0,-2.0785658E-2,-7.097494E-2,9.0150964E-1,-6.2140096E-2,-7.052501E-2,-2.6612395E-2,7.908234E-1,-5.166146E-2,4.241615E-1,-1.1529479E0,5.9793163E-2,-1.2491544E-3,8.7802744E-1,-4.2893928E-2,5.421804E-1,-7.031089E-2,3.9530382E-1,1.4099681E0,-2.4381913E-2,5.1039286E-2,-5.492651E-2,4.7318485E-2,6.927539E-2,-5.1878127E-3,-3.765588E-2,-6.90018E-2,6.5241426E-2,1.8090291E-2,-5.939814E-2,5.214828E-2,3.971699E-3,5.4677177E-2,5.1651478E-2,-2.6244491E-2,-6.637626E-2,5.985142E-3,2.0992694E-2,-2.13721E-2,5.8972098E-2,3.2680947E-3,2.9636992E-2,-6.172753E-2,-1.7746357E-2,3.8519304E-2,1.6579052E-2,7.1439564E-2],"categories":[],"categories_nodes":[],"categories_segments":[],"categories_sizes":[],"default_left":[0,0,0,0,0,0,0,0,0,0,0,0,0,0,0,0,0,0,0,0,0,0,0,0,0,0,0,0,0,0,0,0,0,0,0,0,0,0,0,0,0,0,0,0,0,0,0,0,0,0,0,0,0,0,0,0,0,0,0,0,0,0,0,0,0,0,0,0,0,0,0,0,0,0,0,0,0,0,0,0,0,0,0,0,0,0,0,0,0,0,0,0,0,0,0,0,0,0,0,0,0,0,0,0,0,0,0],"id":10,"left_children":[1,3,5,7,9,11,13,15,17,19,21,-1,23,25,27,29,31,33,35,-1,37,39,41,43,45,47,-1,49,51,53,55,-1,57,-1,59,61,63,-1,-1,-1,-1,-1,-1,65,-1,67,69,-1,71,-1,73,75,77,79,81,-1,83,-1,85,-1,87,-1,-1,89,-1,-1,-1,91,-1,93,95,-1,97,99,-1,101,-1,103,105,-1,-1,-1,-1,-1,-1,-1,-1,-1,-1,-1,-1,-1,-1,-1,-1,-1,-1,-1,-1,-1,-1,-1,-1,-1,-1,-1,-1],"loss_changes":[3.2742807E2,2.9302475E2,1.9726303E2,2.6099734E2,1.6683823E2,1.3624524E2,8.2332245E1,3.0132715E2,9.414107E1,2.1403748E1,4.004936E0,0E0,2.954512E1,1.769577E0,1.1176863E2,3.7031967E2,3.9461395E1,1.9000275E1,8.849891E1,0E0,2.4229736E0,1.9262695E0,4.769474E0,2.2274628E0,8.422753E0,2.1028137E-1,0E0,1.7200245E1,6.9690414E1,8.732346E1,2.2108215E1,0E0,7.3934326E0,0E0,4.8403625E0,7.323837E-2,1.5716124E1,0E0,0E0,0E0,0E0,0E0,0E0,1.19781494E-1,0E0,7.784567E0,6.463885E0,0E0,2.1015038E0,0E0,4.4183307E0,2.9815564E2,8.2713135E1,9.701704E1,6.323358E1,0E0,4.274933E0,0E0,1.8063965E0,0E0,3.0376892E0,0E0,0E0,1.4718224E1,0E0,0E0,0E0,2.3047152E0,0E0,2.8666708E0,2.1938753E0,0E0,7.281143E-1,1.2173033E0,0E0,5.7611206E1,0E0,5.0485554E1,2.5409546E0,0E0,0E0,0E0,0E0,0E0,0E0,0E0,0E0,0E0,0E0,0E0,0E0,0E0,0E0,0E0,0E0,0E0,0E0,0E0,0E0,0E0,0E0,0E0,0E0,0E0,0E0,0E0,0E0],"parents":[2147483647,0,0,1,1,2,2,3,3,4,4,5,5,6,6,7,7,8,8,9,9,10,10,12,12,13,13,14,14,15,15,16,16,17,17,18,18,20,20,21,21,22,22,23,23,24,24,25,25,27,27,28,28,29,29,30,30,32,32,34,34,35,35,36,36,43,43,45,45,46,46,48,48,50,50,51,51,52,52,53,53,54,54,56,56,58,58,60,60,63,63,67,67,69,69,70,70,72,72,73,73,75,75,77,77,78,78],"right_children":[2,4,6,8,10,12,14,16,18,20,22,-1,24,26,28,30,32,34,36,-1,38,40,42,44,46,48,-1,50,52,54,56,-1,58,-1,60,62,64,-1,-1,-1,-1,-1,-1,66,-1,68,70,-1,72,-1,74,76,78,80,82,-1,84,-1,86,-1,88,-1,-1,90,-1,-1,-1,92,-1,94,96,-1,98,100,-1,102,-1,104,106,-1,-1,-1,-1,-1,-1,-1,-1,-1,-1,-1,-1,-1,-1,-1,-1,-1,-1,-1,-1,-1,-1,-1,-1,-1,-1,-1,-1],"split_conditions":[-3.7731925E-1,1.8188405E0,3.4686708E-1,5.8751535E-1,8.5369027E-1,-1.4266541E0,-1.4266541E0,3.0158848E-1,6.903606E-1,-1.4266541E0,1.5135857E0,6.922086E-2,9.964284E0,1.5120611E0,-6.536804E-1,1.8950362E0,-1.4266541E0,-6.536804E-1,1.845833E0,5.5495787E-2,3.5143957E-1,1.5444069E0,-2.3693642E-1,1.8722988E1,-2.9095054E0,9.024493E-1,2.058738E-3,-2.1722725E-1,6.0050493E-1,-1.7855576E0,-2.1722725E-1,6.2413234E-2,-1.4198107E0,-5.577741E-2,-1.410595E0,-7.8905374E-1,2.255575E0,-7.131877E-2,-4.040844E-3,7.0239455E-2,1.2871202E-4,-4.70285E-2,4.9459424E-2,5.4274945E0,1.7209124E-3,6.7359626E-1,-3.4638557E0,7.087089E-2,-1.0932716E0,-6.9905736E-2,6.903606E-1,1.8188405E0,1.8188405E0,-1.3035597E0,-7.110688E-1,-5.643022E-2,3.825525E0,2.2549083E-2,-2.1657197E0,-1.8293556E-2,1.7576957E0,-2.0785658E-2,-7.097494E-2,-6.96226E-1,-6.2140096E-2,-7.052501E-2,-2.6612395E-2,1.3378552E-1,-5.166146E-2,-2.5109747E-1,3.5869163E-1,5.9793163E-2,2.8738227E0,1.534218E-1,-4.2893928E-2,1.4946878E-1,-7.031089E-2,2.1751834E-1,-2.433158E0,-2.4381913E-2,5.1039286E-2,-5.492651E-2,4.7318485E-2,6.927539E-2,-5.1878127E-3,-3.765588E-2,-6.90018E-2,6.5241426E-2,1.8090291E-2,-5.939814E-2,5.214828E-2,3.971699E-3,5.4677177E-2,5.1651478E-2,-2.6244491E-2,-6.637626E-2,5.985142E-3,2.0992694E-2,-2.13721E-2,5.8972098E-2,3.2680947E-3,2.9636992E-2,-6.172753E-2,-1.7746357E-2,3.8519304E-2,1.6579052E-2,7.1439564E-2],"split_indices":[24,8,30,29,0,2,2,0,29,2,50,0,22,0,40,9,2,40,29,0,0,48,55,37,30,37,0,39,1,31,39,0,29,0,7,19,29,0,0,0,0,0,0,26,0,48,19,0,0,0,29,8,8,0,0,0,54,0,47,0,55,0,0,0,0,0,0,39,0,55,60,0,3,48,0,37,0,29,49,0,0,0,0,0,0,0,0,0,0,0,0,0,0,0,0,0,0,0,0,0,0,0,0,0,0,0,0],"split_type":[0,0,0,0,0,0,0,0,0,0,0,0,0,0,0,0,0,0,0,0,0,0,0,0,0,0,0,0,0,0,0,0,0,0,0,0,0,0,0,0,0,0,0,0,0,0,0,0,0,0,0,0,0,0,0,0,0,0,0,0,0,0,0,0,0,0,0,0,0,0,0,0,0,0,0,0,0,0,0,0,0,0,0,0,0,0,0,0,0,0,0,0,0,0,0,0,0,0,0,0,0,0,0,0,0,0,0],"sum_hessian":[2.7031465E3,1.3703157E3,1.3328308E3,1.0492202E3,3.2109543E2,1.4901831E2,1.1838125E3,8.0102386E2,2.4819638E2,2.9489847E2,2.6196949E1,2.4560703E1,1.2445761E2,9.53572E1,1.0884552E3,5.5518274E2,2.4584117E2,1.7002254E2,7.8173836E1,2.6924884E0,2.92206E2,2.3040737E1,3.156213E0,1.0112335E2,2.3334257E1,9.4311615E1,1.0455912E0,4.2622776E1,1.0458325E3,3.9405667E2,1.6112605E2,5.2715073E0,2.4056966E2,2.6907442E0,1.673318E2,3.0733904E1,4.743993E1,2.907372E2,1.4687684E0,2.201365E1,1.0270865E0,1.406725E0,1.7494881E0,1.0007786E2,1.0454994E0,1.2152398E1,1.118186E1,8.816517E1,6.146442E0,3.720243E1,5.4203453E0,7.2087854E2,3.2495392E2,1.9192169E2,2.0213498E2,2.9175527E0,1.582085E2,1.8351557E0,2.387345E2,1.4034913E0,1.6592831E2,1.0867506E0,2.9647154E1,4.4604427E1,2.8355021E0,9.833034E1,1.7475188E0,1.0105447E1,2.0469515E0,3.022595E0,8.159265E0,4.0893974E0,2.0570445E0,4.284336E0,1.1360091E0,6.3218677E2,8.8691795E1,1.7743791E2,1.47516E2,1.2961926E2,6.2302433E1,1.8643924E2,1.5695735E1,1.563932E2,1.81529E0,8.674834E0,2.3005966E2,1.6149992E2,4.428389E0,2.3591306E0,4.2245296E1,3.393397E0,6.7120495E0,1.7873963E0,1.2351985E0,7.137107E0,1.0221583E0,1.0421821E0,1.0148623E0,2.7959895E0,1.4883467E0,6.153427E2,1.6844055E1,5.916039E1,1.1827753E2,2.8500757E0,1.4466592E2],"tree_param":{"num_deleted":"0","num_feature":"103","num_nodes":"107","size_leaf_vector":"1"}},{"base_weights":[-6.7636353E-4,-3.3393592E-1,3.3922684E-1,-8.49179E-2,-1.1523391E0,-7.11265E-1,4.7014594E-1,-3.5357398E-1,7.8301257E-1,-1.3635902E0,1.1755384E0,6.772966E-2,-1.1257204E0,1.3456867E0,3.9356408E-1,4.2122E-2,-1.2530838E0,1.1887661E0,-1.0043327E-1,5.4203194E-2,-1.390121E0,1.3129536E0,1.0596923E-1,-1.3553778E0,-1.2868361E-1,1.3599801E0,2.0061287E-3,-1.1326058E0,4.5580292E-1,-4.6001127E-1,1.2843747E0,6.096021E-2,-1.312396E0,-9.4002956E-1,1.2355947E0,-1.3669447E0,7.223678E-1,-6.983236E-2,-3.9197183E-3,6.864135E-2,1.2545071E-4,-4.5983236E-2,4.834816E-2,-1.370495E0,1.6769505E-3,-6.170549E-2,1.6270643E-1,6.938165E-2,8.2769585E-1,-1.2873873E0,5.5734355E-2,4.9364245E-1,-1.1888247E0,4.797439E-3,-9.031522E-1,-5.511086E-2,1.3355529E0,2.186042E-2,-1.3279761E0,-1.5135284E-2,-5.3637978E-2,-1.769725E-2,1.2515764E0,-1.9956274E-2,-6.942073E-2,8.695629E-1,-6.0449917E-2,-6.903252E-2,-2.5117276E-2,4.3689185E-1,-5.6963284E-2,5.840701E-2,-1.3063074E-3,-6.8851635E-2,3.0526856E-2,3.2690552E-1,8.602228E-1,6.844015E-1,-1.4474738E0,-2.3241455E-2,4.9178775E-2,-5.304521E-2,4.5496237E-2,6.76608E-2,-5.020918E-3,-6.700801E-2,-2.2591317E-2,9.845811E-4,6.332131E-2,-5.782748E-2,5.0377022E-2,-4.0086757E-2,3.388243E-2,2.048717E-2,-2.0845514E-2,2.8312165E-2,-6.879897E-2,4.761784E-2,-8.200493E-2,6.0963612E-2,-1.8902066E-3,-7.7140905E-2,1.0894354E-2],"categories":[],"categories_nodes":[],"categories_segments":[],"categories_sizes":[],"default_left":[0,0,0,0,0,0,0,0,0,0,0,0,0,0,0,0,0,0,0,0,0,0,0,0,0,0,0,0,0,0,0,0,0,0,0,0,0,0,0,0,0,0,0,0,0,0,0,0,0,0,0,0,0,0,0,0,0,0,0,0,0,0,0,0,0,0,0,0,0,0,0,0,0,0,0,0,0,0,0,0,0,0,0,0,0,0,0,0,0,0,0,0,0,0,0,0,0,0,0,0,0,0,0],"id":11,"left_children":[1,3,5,7,9,11,13,15,17,19,21,-1,23,25,27,29,31,33,35,-1,37,39,41,43,45,47,-1,49,51,53,55,-1,57,59,61,63,65,-1,-1,-1,-1,-1,-1,67,-1,-1,69,-1,71,73,-1,75,77,79,81,-1,83,-1,85,-1,-1,-1,87,-1,-1,89,-1,-1,-1,91,-1,-1,93,-1,-1,95,97,99,101,-1,-1,-1,-1,-1,-1,-1,-1,-1,-1,-1,-1,-1,-1,-1,-1,-1,-1,-1,-1,-1,-1,-1,-1],"loss_changes":[3.0107257E2,2.734077E2,1.8129832E2,2.4045674E2,1.5552893E2,1.2671214E2,7.7960236E1,2.8026385E2,8.7506226E1,2.0171997E1,3.7672615E0,0E0,2.783545E1,1.6947784E0,1.0289952E2,3.42241E2,3.6873077E1,1.7822891E1,8.190414E1,0E0,2.3284302E0,1.8376198E0,4.522007E0,2.1313171E0,7.933494E0,2.1586609E-1,0E0,1.6225548E1,6.50806E1,8.049678E1,2.0761444E1,0E0,6.9971313E0,2.7626038E-2,4.6083984E0,8.843613E-2,1.4618584E1,0E0,0E0,0E0,0E0,0E0,0E0,1.7286682E-1,0E0,0E0,7.595216E0,0E0,1.9929533E0,7.6880646E0,0E0,6.168129E1,1.2425682E1,8.858545E1,5.8186172E1,0E0,4.068878E0,0E0,1.8877563E0,0E0,0E0,0E0,2.9487457E0,0E0,0E0,1.37246475E1,0E0,0E0,0E0,5.6563973E0,0E0,0E0,6.923847E-1,0E0,0E0,2.854298E2,7.443198E1,1.414471E0,3.6799545E0,0E0,0E0,0E0,0E0,0E0,0E0,0E0,0E0,0E0,0E0,0E0,0E0,0E0,0E0,0E0,0E0,0E0,0E0,0E0,0E0,0E0,0E0,0E0,0E0],"parents":[2147483647,0,0,1,1,2,2,3,3,4,4,5,5,6,6,7,7,8,8,9,9,10,10,12,12,13,13,14,14,15,15,16,16,17,17,18,18,20,20,21,21,22,22,23,23,24,24,25,25,27,27,28,28,29,29,30,30,32,32,33,33,34,34,35,35,36,36,43,43,46,46,48,48,49,49,51,51,52,52,53,53,54,54,56,56,58,58,62,62,65,65,69,69,72,72,75,75,76,76,77,77,78,78],"right_children":[2,4,6,8,10,12,14,16,18,20,22,-1,24,26,28,30,32,34,36,-1,38,40,42,44,46,48,-1,50,52,54,56,-1,58,60,62,64,66,-1,-1,-1,-1,-1,-1,68,-1,-1,70,-1,72,74,-1,76,78,80,82,-1,84,-1,86,-1,-1,-1,88,-1,-1,90,-1,-1,-1,92,-1,-1,94,-1,-1,96,98,100,102,-1,-1,-1,-1,-1,-1,-1,-1,-1,-1,-1,-1,-1,-1,-1,-1,-1,-1,-1,-1,-1,-1,-1,-1],"split_conditions":[-3.7731925E-1,1.8188405E0,3.4686708E-1,5.8751535E-1,8.5369027E-1,-1.4266541E0,-1.4266541E0,3.0158848E-1,6.903606E-1,-1.4266541E0,1.5135857E0,6.772966E-2,9.964284E0,1.5120611E0,-6.536804E-1,1.8950362E0,-1.4266541E0,-2.1722725E-1,1.845833E0,5.4203194E-2,3.5143957E-1,1.5444069E0,-2.3693642E-1,1.8722988E1,1.2255406E0,9.024493E-1,2.0061287E-3,7.491492E-2,1.4946878E-1,-1.7855576E0,-2.1722725E-1,6.096021E-2,-1.4198107E0,-1.8164858E-1,-1.410595E0,-4.7868703E-2,2.255575E0,-6.983236E-2,-3.9197183E-3,6.864135E-2,1.2545071E-4,-4.5983236E-2,4.834816E-2,2.1202176E0,1.6769505E-3,-6.170549E-2,6.7359626E-1,6.938165E-2,-1.0932716E0,1.5283314E0,5.5734355E-2,6.0050493E-1,-6.8000966E-1,-1.3035597E0,-7.110688E-1,-5.511086E-2,3.825525E0,2.186042E-2,6.926294E0,-1.5135284E-2,-5.3637978E-2,-1.769725E-2,-3.072781E0,-1.9956274E-2,-6.942073E-2,-6.96226E-1,-6.0449917E-2,-6.903252E-2,-2.5117276E-2,-4.028543E-1,-5.6963284E-2,5.840701E-2,2.8738227E0,-6.8851635E-2,3.0526856E-2,1.8188405E0,9.086939E0,1.5582187E0,1.6586106E0,-2.3241455E-2,4.9178775E-2,-5.304521E-2,4.5496237E-2,6.76608E-2,-5.020918E-3,-6.700801E-2,-2.2591317E-2,9.845811E-4,6.332131E-2,-5.782748E-2,5.0377022E-2,-4.0086757E-2,3.388243E-2,2.048717E-2,-2.0845514E-2,2.8312165E-2,-6.879897E-2,4.761784E-2,-8.200493E-2,6.0963612E-2,-1.8902066E-3,-7.7140905E-2,1.0894354E-2],"split_indices":[24,8,30,29,0,2,2,0,29,2,50,0,22,0,40,9,2,39,29,0,0,48,55,37,24,37,0,42,37,31,39,0,29,7,7,39,29,0,0,0,0,0,0,46,0,0,48,0,0,26,0,1,60,0,0,0,54,0,37,0,0,0,44,0,0,0,0,0,0,50,0,0,3,0,0,8,11,3,5,0,0,0,0,0,0,0,0,0,0,0,0,0,0,0,0,0,0,0,0,0,0,0,0],"split_type":[0,0,0,0,0,0,0,0,0,0,0,0,0,0,0,0,0,0,0,0,0,0,0,0,0,0,0,0,0,0,0,0,0,0,0,0,0,0,0,0,0,0,0,0,0,0,0,0,0,0,0,0,0,0,0,0,0,0,0,0,0,0,0,0,0,0,0,0,0,0,0,0,0,0,0,0,0,0,0,0,0,0,0,0,0,0,0,0,0,0,0,0,0,0,0,0,0,0,0,0,0,0,0],"sum_hessian":[2.6558674E3,1.3410483E3,1.3148191E3,1.0290424E3,3.1200607E2,1.4521161E2,1.1696074E3,7.8625916E2,2.4278319E2,2.8642746E2,2.55786E1,2.3885525E1,1.2132609E2,9.274186E1,1.0768656E3,5.467125E2,2.3954662E2,1.6613449E2,7.66487E1,2.64394E0,2.837835E2,2.2464828E1,3.1137707E0,9.831972E1,2.300637E1,9.169627E1,1.045583E0,4.1521114E1,1.0353445E3,3.8978607E2,1.5692645E2,5.1541133E0,2.343925E2,3.1653678E0,1.6296912E2,2.992491E1,4.672379E1,2.8231418E2,1.4693351E0,2.1437748E1,1.0270811E0,1.3899229E0,1.723848E0,9.727424E1,1.0454807E0,4.1244564E0,1.8881914E1,8.564021E1,6.0560665E0,3.924525E1,2.2758644E0,1.01274316E3,2.2601313E1,1.907248E2,1.9906128E2,2.863344E0,1.5406311E2,1.8299549E0,2.3256255E2,1.1110582E0,2.0543096E0,1.4117239E0,1.6155739E2,1.0745912E0,2.8850319E1,4.392584E1,2.7979496E0,9.556599E1,1.7082527E0,1.6146105E1,2.7358086E0,4.0030513E0,2.0530152E0,3.7737247E1,1.5080037E0,6.974183E2,3.153249E2,2.542389E0,2.0058924E1,1.2923958E2,6.1485218E1,1.8350937E2,1.55519E1,1.5224802E2,1.8150942E0,2.2885046E2,3.712085E0,1.9519879E0,1.5960541E2,2.3299432E0,4.1595898E1,2.24844E0,1.3897665E1,1.0392525E0,1.0137628E0,6.1206146E2,8.53568E1,3.0471558E2,1.0609314E1,1.0652184E0,1.4771705E0,1.9042307E1,1.016616E0],"tree_param":{"num_deleted":"0","num_feature":"103","num_nodes":"103","size_leaf_vector":"1"}},{"base_weights":[-8.3050213E-4,-4.0656585E-1,2.620304E-1,-1.6430521E-1,-1.1732374E0,-7.2921515E-1,3.7201974E-1,-4.284592E-1,6.9418204E-1,-1.3539621E0,1.0474596E0,6.669798E-2,-1.1297911E0,1.3132055E0,3.0407572E-1,-5.9669376E-3,-1.2754006E0,1.0745414E0,-4.1783965E-1,-4.9460394E-4,-1.3631467E0,1.2323922E0,-1.849188E-1,-1.3348862E0,-1.2883638E-1,1.3390911E0,-1.0488856E-2,-1.1744637E0,3.5959998E-1,-5.428709E-1,1.2358698E0,4.8855044E-2,-1.3043007E0,1.1293757E0,-5.8870208E-2,8.128856E-1,-1.2188418E0,-6.840777E-2,-1.2264099E-2,6.611305E-2,1.0799826E-3,-4.0607523E-2,2.4894673E-2,-1.3482456E0,1.6341076E-3,4.0168968E-1,-6.944235E-1,6.8284266E-2,8.280756E-1,7.9675835E-1,-1.3314033E0,1.8449582E-1,7.863851E-1,-9.281122E-2,-9.5936656E-1,-7.065455E-1,1.2815815E0,-3.5712382E-1,-1.3173112E0,-5.380577E-2,1.1855025E0,-5.952128E-2,1.1807803E0,8.922895E-3,-6.655139E-2,-6.785877E-2,-2.4482917E-2,7.4229074E-1,-4.919844E-2,4.094637E-1,-1.1083626E0,5.9729572E-2,1.3012618E-1,2.0025861E-3,5.134211E-2,2.2524664E-2,-6.913163E-2,4.4562125E-1,-6.79142E-2,9.2291707E-1,-1.0513315E0,-2.831482E-2,4.4667438E-2,-6.977106E-2,-2.7194414E-2,-5.054314E-2,-2.6074308E-3,6.526999E-2,-1.594372E-2,3.0787503E-2,-4.9748506E-2,-2.3000421E-2,-6.638529E-2,-5.3689122E-2,6.130594E-2,2.9779134E-2,-7.36356E-2,6.498266E-2,4.0810006E-3,-3.9866865E-2,4.1006457E-2,2.5176415E-3,5.2302033E-2,4.9651086E-2,-2.4845203E-2,6.9561834E-3,-6.425002E-2,3.8368464E-2,-2.4114667E-2,1.6160822E-2,6.5812156E-2,-3.0366773E-2,5.4360885E-2,4.856628E-2,-6.1677285E-2],"categories":[],"categories_nodes":[],"categories_segments":[],"categories_sizes":[],"default_left":[0,0,0,0,0,0,0,0,0,0,0,0,0,0,0,0,0,0,0,0,0,0,0,0,0,0,0,0,0,0,0,0,0,0,0,0,0,0,0,0,0,0,0,0,0,0,0,0,0,0,0,0,0,0,0,0,0,0,0,0,0,0,0,0,0,0,0,0,0,0,0,0,0,0,0,0,0,0,0,0,0,0,0,0,0,0,0,0,0,0,0,0,0,0,0,0,0,0,0,0,0,0,0,0,0,0,0,0,0,0,0,0,0,0,0],"id":12,"left_children":[1,3,5,7,9,11,13,15,17,19,21,-1,23,25,27,29,31,33,35,-1,37,39,41,43,45,47,-1,49,51,53,55,-1,57,59,-1,61,63,-1,-1,-1,-1,-1,-1,65,-1,67,69,-1,71,73,75,77,79,81,83,85,87,89,91,-1,93,95,97,99,-1,-1,-1,101,-1,103,105,-1,107,-1,-1,-1,-1,109,-1,111,113,-1,-1,-1,-1,-1,-1,-1,-1,-1,-1,-1,-1,-1,-1,-1,-1,-1,-1,-1,-1,-1,-1,-1,-1,-1,-1,-1,-1,-1,-1,-1,-1,-1,-1],"loss_changes":[2.7833383E2,1.9037576E2,1.7293794E2,1.7736723E2,1.00227905E2,1.3251414E2,9.080307E1,2.1387134E2,7.832048E1,2.8024597E0,4.579178E0,0E0,2.7190186E1,4.0546265E0,1.09729454E2,2.672298E2,1.4224091E1,1.8304321E1,4.795787E1,0E0,9.3289185E-1,1.7920494E0,1.8437016E0,2.0631104E0,7.412121E0,1.5011597E-1,0E0,1.6042015E1,9.581415E1,5.2360825E1,1.1647446E1,0E0,1.9552307E0,1.795079E1,0E0,6.2913294E0,4.0420914E0,0E0,0E0,0E0,0E0,0E0,0E0,1.747284E-1,0E0,6.818652E0,5.878911E0,0E0,1.6871686E0,6.8955255E-1,4.7516403E0,3.679296E2,9.462236E1,6.38188E1,2.5550156E1,6.2959933E-1,4.935547E0,3.1190674E0,1.1162415E0,0E0,1.3414673E1,7.0811343E0,1.681572E0,2.905857E0,0E0,0E0,0E0,2.2434578E0,0E0,2.5922356E0,2.1409025E0,0E0,1.7759719E0,0E0,0E0,0E0,0E0,8.275745E1,0E0,8.814838E1,1.0883991E1,0E0,0E0,0E0,0E0,0E0,0E0,0E0,0E0,0E0,0E0,0E0,0E0,0E0,0E0,0E0,0E0,0E0,0E0,0E0,0E0,0E0,0E0,0E0,0E0,0E0,0E0,0E0,0E0,0E0,0E0,0E0,0E0,0E0,0E0],"parents":[2147483647,0,0,1,1,2,2,3,3,4,4,5,5,6,6,7,7,8,8,9,9,10,10,12,12,13,13,14,14,15,15,16,16,17,17,18,18,20,20,21,21,22,22,23,23,24,24,25,25,27,27,28,28,29,29,30,30,32,32,33,33,35,35,36,36,43,43,45,45,46,46,48,48,49,49,50,50,51,51,52,52,53,53,54,54,55,55,56,56,57,57,58,58,60,60,61,61,62,62,63,63,67,67,69,69,70,70,72,72,77,77,79,79,80,80],"right_children":[2,4,6,8,10,12,14,16,18,20,22,-1,24,26,28,30,32,34,36,-1,38,40,42,44,46,48,-1,50,52,54,56,-1,58,60,-1,62,64,-1,-1,-1,-1,-1,-1,66,-1,68,70,-1,72,74,76,78,80,82,84,86,88,90,92,-1,94,96,98,100,-1,-1,-1,102,-1,104,106,-1,108,-1,-1,-1,-1,110,-1,112,114,-1,-1,-1,-1,-1,-1,-1,-1,-1,-1,-1,-1,-1,-1,-1,-1,-1,-1,-1,-1,-1,-1,-1,-1,-1,-1,-1,-1,-1,-1,-1,-1,-1,-1],"split_conditions":[-5.024566E-1,1.8188405E0,3.4686708E-1,5.8751535E-1,8.5369027E-1,-1.4266541E0,-1.4266541E0,3.0158848E-1,1.4992882E0,-2.2655144E0,1.5135857E0,6.669798E-2,9.964284E0,1.5120611E0,-6.536804E-1,1.8950362E0,-1.4266541E0,2.255575E0,6.903606E-1,-4.9460394E-4,3.5143957E-1,1.287744E0,2.958754E-1,1.8722988E1,-2.9095054E0,9.024493E-1,-1.0488856E-2,-2.0509236E-1,5.865792E-1,-1.7761348E0,-5.886187E-1,4.8855044E-2,-2.4803212E0,-4.7868703E-2,-5.8870208E-2,-6.876599E-1,-1.9250044E0,-6.840777E-2,-1.2264099E-2,6.611305E-2,1.0799826E-3,-4.0607523E-2,2.4894673E-2,5.4274945E0,1.6341076E-3,6.7359626E-1,-3.4638557E0,6.8284266E-2,1.003065E0,2.5157265E-2,-2.336769E-1,1.8188405E0,1.8950362E0,-1.3133576E0,-9.7882116E-1,9.123063E-2,3.825525E0,4.5322505E-1,-2.5316586E0,-5.380577E-2,-6.96226E-1,7.418509E-1,5.270697E-1,-6.4352053E-1,-6.655139E-2,-6.785877E-2,-2.4482917E-2,1.3378552E-1,-4.919844E-2,-2.5109747E-1,-1.0711513E0,5.9729572E-2,-1.4980725E0,2.0025861E-3,5.134211E-2,2.2524664E-2,-6.913163E-2,1.8950362E0,-6.79142E-2,-1.8329895E0,-8.314148E0,-2.831482E-2,4.4667438E-2,-6.977106E-2,-2.7194414E-2,-5.054314E-2,-2.6074308E-3,6.526999E-2,-1.594372E-2,3.0787503E-2,-4.9748506E-2,-2.3000421E-2,-6.638529E-2,-5.3689122E-2,6.130594E-2,2.9779134E-2,-7.36356E-2,6.498266E-2,4.0810006E-3,-3.9866865E-2,4.1006457E-2,2.5176415E-3,5.2302033E-2,4.9651086E-2,-2.4845203E-2,6.9561834E-3,-6.425002E-2,3.8368464E-2,-2.4114667E-2,1.6160822E-2,6.5812156E-2,-3.0366773E-2,5.4360885E-2,4.856628E-2,-6.1677285E-2],"split_indices":[24,8,30,29,0,2,2,0,0,7,50,0,22,0,40,9,2,29,29,0,0,7,2,37,30,37,0,47,1,31,40,0,42,39,0,24,27,0,0,0,0,0,0,26,0,48,19,0,26,46,46,8,9,0,1,19,54,0,43,0,0,53,3,24,0,0,0,39,0,55,5,0,0,0,0,0,0,9,0,31,60,0,0,0,0,0,0,0,0,0,0,0,0,0,0,0,0,0,0,0,0,0,0,0,0,0,0,0,0,0,0,0,0,0,0],"split_type":[0,0,0,0,0,0,0,0,0,0,0,0,0,0,0,0,0,0,0,0,0,0,0,0,0,0,0,0,0,0,0,0,0,0,0,0,0,0,0,0,0,0,0,0,0,0,0,0,0,0,0,0,0,0,0,0,0,0,0,0,0,0,0,0,0,0,0,0,0,0,0,0,0,0,0,0,0,0,0,0,0,0,0,0,0,0,0,0,0,0,0,0,0,0,0,0,0,0,0,0,0,0,0,0,0,0,0,0,0,0,0,0,0,0,0],"sum_hessian":[2.607741E3,1.0250273E3,1.5827136E3,7.798247E2,2.452026E2,1.5751625E2,1.4251974E3,5.9671747E2,1.8310728E2,2.2711023E2,1.8092379E1,2.5231384E1,1.3228487E2,9.472356E1,1.3304738E3,3.9879013E2,1.979273E2,1.364643E2,4.664298E1,1.5554959E0,2.2555473E2,1.5731651E1,2.3607273E0,1.0951225E2,2.277261E1,9.325921E1,1.4643438E0,4.7426086E1,1.2830477E3,2.788103E2,1.1997985E2,2.0916526E0,1.9583565E2,1.3370706E2,2.7572393E0,1.8383E1,2.825998E1,2.2432571E2,1.2290134E0,1.4558977E1,1.1726741E0,1.1317142E0,1.2290131E0,1.084668E2,1.045461E0,1.1900041E1,1.0872568E1,8.705613E1,6.203083E0,3.1967516E0,4.4229336E1,9.107937E2,3.7225403E2,1.3459337E2,1.4421692E2,2.4262307E0,1.1755362E2,3.03906E0,1.9279659E2,2.8672266E0,1.3083983E2,5.7013397E0,1.2681659E1,2.4431021E0,2.5816877E1,1.0677558E2,1.6912133E0,9.924788E0,1.9752527E0,2.9680974E0,7.9044704E0,3.600678E0,2.602405E0,1.0191185E0,2.177633E0,1.0182478E0,4.321109E1,7.795594E2,1.312343E2,3.4697363E2,2.5280388E1,9.122111E1,4.3372257E1,6.921525E1,7.500168E1,1.2842741E0,1.1419564E0,1.1601147E2,1.5421472E0,1.2171881E0,1.821872E0,2.851751E0,1.8994484E2,1.8614075E0,1.2897842E2,4.290824E0,1.4105158E0,1.1279399E1,1.4022597E0,1.2338609E0,1.2092413E0,3.3833456E0,6.5414424E0,1.7474253E0,1.2206722E0,1.0067543E0,6.8977165E0,1.1513618E0,1.4510431E0,6.8466974E2,9.4889694E1,3.3380444E1,3.1359317E2,1.7313178E0,2.354907E1],"tree_param":{"num_deleted":"0","num_feature":"103","num_nodes":"115","size_leaf_vector":"1"}},{"base_weights":[-9.790955E-4,-3.0816686E-1,3.276019E-1,-7.927715E-2,-1.0741087E0,-6.6443664E-1,4.4900766E-1,-3.343404E-1,7.5050294E-1,-1.3066863E0,1.1620253E0,6.508584E-2,-1.0677927E0,1.2919358E0,3.763869E-1,4.0464252E-2,-1.2116144E0,1.1443828E0,-1.1743163E-1,5.4323744E-2,-1.3384694E0,1.2816006E0,9.759735E-2,-1.3000193E0,-1.254436E-1,1.3065703E0,2.222904E-3,-9.0543616E-1,4.3938717E-1,-4.2786017E-1,1.2402095E0,5.8344513E-2,-1.2677162E0,-5.2107394E-2,1.1849712E0,-1.3274083E0,6.5206546E-1,-6.72503E-2,-3.7656394E-3,6.704491E-2,1.0499688E-2,-4.4399124E-2,4.650885E-2,-1.3159448E0,1.5923631E-3,-5.9309687E-2,1.502598E-1,6.675219E-2,7.8485245E-1,-1.3188318E0,1.9429131E-1,4.7685552E-1,-1.1414253E0,-2.3216314E-3,-8.399526E-1,-5.285728E-2,1.2890127E0,1.709118E-2,-1.280883E0,1.2121018E0,4.0880638E-1,-1.8356461E-2,-6.744989E-2,9.432995E-1,-3.6798722E-1,-1.3270366E0,-1.47986105E-2,4.1084617E-1,-5.462108E-2,5.6175E-2,-1.4216284E-2,-1.7043253E-2,-6.695942E-2,9.111243E-1,-8.5641706E-1,3.8150376E-1,1.0105414E0,6.399155E-1,-1.3974673E0,-2.2922425E-2,4.5978457E-2,-5.104835E-2,4.763948E-2,6.531468E-2,-4.411527E-3,4.476596E-2,-3.9826073E-2,-3.253649E-2,-6.507699E-2,6.1272006E-2,-4.470907E-3,-2.2721611E-2,5.4629143E-2,-3.747493E-2,5.2264597E-2,4.3807134E-2,-4.0759E-2,-2.8788552E-2,-6.695231E-2,-3.807343E-2,3.1864922E-2,1.9085875E-2,-2.0326925E-2,6.109807E-2,-1.359763E-2,2.7447134E-2,-7.635881E-2,1.0638417E-2,3.7493292E-2,5.31709E-2,-3.21274E-2,5.7932477E-2,-2.8102824E-3,9.1118105E-3,-7.5105116E-2],"categories":[],"categories_nodes":[],"categories_segments":[],"categories_sizes":[],"default_left":[0,0,0,0,0,0,0,0,0,0,0,0,0,0,0,0,0,0,0,0,0,0,0,0,0,0,0,0,0,0,0,0,0,0,0,0,0,0,0,0,0,0,0,0,0,0,0,0,0,0,0,0,0,0,0,0,0,0,0,0,0,0,0,0,0,0,0,0,0,0,0,0,0,0,0,0,0,0,0,0,0,0,0,0,0,0,0,0,0,0,0,0,0,0,0,0,0,0,0,0,0,0,0,0,0,0,0,0,0,0,0,0,0,0,0],"id":13,"left_children":[1,3,5,7,9,11,13,15,17,19,21,-1,23,25,27,29,31,33,35,-1,37,39,41,43,45,47,-1,49,51,53,55,-1,57,-1,59,61,63,-1,-1,-1,-1,-1,-1,65,-1,-1,67,-1,69,71,73,75,77,79,81,-1,83,85,87,89,91,-1,-1,93,95,97,-1,99,-1,-1,101,-1,-1,103,105,107,109,111,113,-1,-1,-1,-1,-1,-1,-1,-1,-1,-1,-1,-1,-1,-1,-1,-1,-1,-1,-1,-1,-1,-1,-1,-1,-1,-1,-1,-1,-1,-1,-1,-1,-1,-1,-1,-1],"loss_changes":[2.5865076E2,2.3209877E2,1.4941989E2,2.162873E2,1.5994897E2,1.0877519E2,6.707826E1,2.5699203E2,8.2283905E1,2.2477905E1,3.5951118E0,0E0,2.4545029E1,1.5327148E0,8.257474E1,3.0870956E2,3.2697693E1,1.5912262E1,7.155035E1,0E0,2.1546326E0,1.3828926E0,4.136413E0,1.960968E0,7.0302544E0,2.310791E-1,0E0,2.207719E1,5.8033737E1,6.9307625E1,1.8656815E1,0E0,3.8965454E0,0E0,2.9334717E0,1.23420715E-1,1.4332197E1,0E0,0E0,0E0,0E0,0E0,0E0,6.190033E-1,0E0,0E0,6.758141E0,0E0,1.8782358E0,2.4055481E-1,1.1313534E1,4.7898926E1,1.1278379E1,8.260809E1,6.6131256E1,0E0,3.72081E0,3.0784545E0,2.1044006E0,2.8321075E0,4.633403E0,0E0,0E0,7.1545334E0,6.9315276E0,2.4627686E-2,0E0,4.953985E0,0E0,0E0,6.26767E-1,0E0,0E0,3.5676675E0,6.6706805E0,4.997635E1,1.3202286E1,1.3459958E0,3.6159782E0,0E0,0E0,0E0,0E0,0E0,0E0,0E0,0E0,0E0,0E0,0E0,0E0,0E0,0E0,0E0,0E0,0E0,0E0,0E0,0E0,0E0,0E0,0E0,0E0,0E0,0E0,0E0,0E0,0E0,0E0,0E0,0E0,0E0,0E0,0E0,0E0],"parents":[2147483647,0,0,1,1,2,2,3,3,4,4,5,5,6,6,7,7,8,8,9,9,10,10,12,12,13,13,14,14,15,15,16,16,17,17,18,18,20,20,21,21,22,22,23,23,24,24,25,25,27,27,28,28,29,29,30,30,32,32,34,34,35,35,36,36,43,43,46,46,48,48,49,49,50,50,51,51,52,52,53,53,54,54,56,56,57,57,58,58,59,59,60,60,63,63,64,64,65,65,67,67,70,70,73,73,74,74,75,75,76,76,77,77,78,78],"right_children":[2,4,6,8,10,12,14,16,18,20,22,-1,24,26,28,30,32,34,36,-1,38,40,42,44,46,48,-1,50,52,54,56,-1,58,-1,60,62,64,-1,-1,-1,-1,-1,-1,66,-1,-1,68,-1,70,72,74,76,78,80,82,-1,84,86,88,90,92,-1,-1,94,96,98,-1,100,-1,-1,102,-1,-1,104,106,108,110,112,114,-1,-1,-1,-1,-1,-1,-1,-1,-1,-1,-1,-1,-1,-1,-1,-1,-1,-1,-1,-1,-1,-1,-1,-1,-1,-1,-1,-1,-1,-1,-1,-1,-1,-1,-1,-1],"split_conditions":[-3.522918E-1,1.8188405E0,3.4686708E-1,5.8751535E-1,8.5369027E-1,-1.4266541E0,-1.4266541E0,3.177989E-1,6.903606E-1,-1.4266541E0,1.5135857E0,6.508584E-2,9.964284E0,1.5120611E0,-5.2429014E-1,1.8950362E0,-1.4266541E0,-6.536804E-1,1.845833E0,5.4323744E-2,3.5143957E-1,1.7297119E0,-2.3693642E-1,1.8722988E1,1.2255406E0,9.024493E-1,2.222904E-3,5.1610965E-1,1.4946878E-1,-1.7855576E0,-2.1722725E-1,5.8344513E-2,-1.4198107E0,-5.2107394E-2,1.079232E0,-7.8905374E-1,1.6587566E-1,-6.72503E-2,-3.7656394E-3,6.704491E-2,1.0499688E-2,-4.4399124E-2,4.650885E-2,2.1202176E0,1.5923631E-3,-5.9309687E-2,6.7359626E-1,6.675219E-2,-1.0932716E0,-4.021775E-1,7.028687E-2,3.199293E-1,-6.8000966E-1,-1.3035597E0,-7.110688E-1,-5.285728E-2,3.825525E0,-4.257791E-1,-2.1657197E0,1.5586928E0,1.2123905E0,-1.8356461E-2,-6.744989E-2,-2.1722725E-1,-1.2917088E0,-2.0785007E0,-1.47986105E-2,-4.028543E-1,-5.462108E-2,5.6175E-2,2.8738227E0,-1.7043253E-2,-6.695942E-2,1.8950362E0,-4.817238E-1,5.863233E-1,2.009082E0,1.5582187E0,-1.9901935E0,-2.2922425E-2,4.5978457E-2,-5.104835E-2,4.763948E-2,6.531468E-2,-4.411527E-3,4.476596E-2,-3.9826073E-2,-3.253649E-2,-6.507699E-2,6.1272006E-2,-4.470907E-3,-2.2721611E-2,5.4629143E-2,-3.747493E-2,5.2264597E-2,4.3807134E-2,-4.0759E-2,-2.8788552E-2,-6.695231E-2,-3.807343E-2,3.1864922E-2,1.9085875E-2,-2.0326925E-2,6.109807E-2,-1.359763E-2,2.7447134E-2,-7.635881E-2,1.0638417E-2,3.7493292E-2,5.31709E-2,-3.21274E-2,5.7932477E-2,-2.8102824E-3,9.1118105E-3,-7.5105116E-2],"split_indices":[24,8,30,29,0,2,2,0,29,2,50,0,22,0,40,9,2,40,29,0,0,53,55,37,24,37,0,39,37,31,39,0,29,0,4,19,16,0,0,0,0,0,0,46,0,0,48,0,0,54,45,60,60,0,0,0,54,54,47,19,0,0,0,39,46,7,0,50,0,0,3,0,0,9,53,0,7,3,42,0,0,0,0,0,0,0,0,0,0,0,0,0,0,0,0,0,0,0,0,0,0,0,0,0,0,0,0,0,0,0,0,0,0,0,0],"split_type":[0,0,0,0,0,0,0,0,0,0,0,0,0,0,0,0,0,0,0,0,0,0,0,0,0,0,0,0,0,0,0,0,0,0,0,0,0,0,0,0,0,0,0,0,0,0,0,0,0,0,0,0,0,0,0,0,0,0,0,0,0,0,0,0,0,0,0,0,0,0,0,0,0,0,0,0,0,0,0,0,0,0,0,0,0,0,0,0,0,0,0,0,0,0,0,0,0,0,0,0,0,0,0,0,0,0,0,0,0,0,0,0,0,0,0],"sum_hessian":[2.5605203E3,1.3233723E3,1.2371481E3,1.01974194E3,3.0363037E2,1.3440623E2,1.1027418E3,7.804417E2,2.3930023E2,2.754018E2,2.8228554E1,2.2500523E1,1.11905716E2,8.613701E1,1.0166048E3,5.47488E2,2.3295372E2,1.643827E2,7.491751E1,3.174685E0,2.722271E2,2.5194263E1,3.0342903E0,8.9476204E1,2.2429512E1,8.50914E1,1.0456029E0,4.699795E1,9.696068E2,3.9423892E2,1.5324907E2,4.9118123E0,2.2804192E2,2.5460982E0,1.6183661E2,2.8841454E1,4.607606E1,2.707612E2,1.4659103E0,2.3635115E1,1.5591488E0,1.3590037E0,1.6752867E0,8.843076E1,1.0454404E0,3.9458177E0,1.8483694E1,7.920949E1,5.8819118E0,3.4012985E1,1.2984966E1,9.4783954E2,2.1767296E1,1.9444994E2,1.9978899E2,2.7579982E0,1.5049107E2,2.3102727E0,2.2573164E2,1.5582803E2,6.0085764E0,1.0300679E0,2.7811384E1,3.59012E1,1.0174864E1,8.718165E1,1.2491158E0,1.5832959E1,2.6507342E0,3.8459678E0,2.035944E0,1.055379E0,3.2957607E1,7.797836E0,5.187131E0,8.0561755E2,1.4222197E2,2.5471258E0,1.9220171E1,1.304229E2,6.402704E1,1.8185722E2,1.7931751E1,1.4867705E2,1.8140153E0,1.0627244E0,1.2475482E0,8.196376E0,2.1753526E2,1.5430513E2,1.522901E0,2.8040237E0,3.2045524E0,1.6793852E0,3.4221813E1,2.4366584E0,7.738205E0,2.1418269E0,8.503982E1,2.1807728E0,1.3652186E1,1.0267613E0,1.0091827E0,6.14932E0,1.6485159E0,1.7345498E0,3.452581E0,5.536054E2,2.5201219E2,1.3815944E2,4.0625315E0,1.0787952E0,1.4683307E0,1.1479292E0,1.807224E1],"tree_param":{"num_deleted":"0","num_feature":"103","num_nodes":"115","size_leaf_vector":"1"}},{"base_weights":[-1.043108E-3,-3.550426E-1,2.6576945E-1,-1.2076503E-1,-1.129708E0,-6.8986964E-1,3.720155E-1,-3.744114E-1,6.846171E-1,-1.3096787E0,9.3517935E-1,6.407299E-2,-1.0722413E0,1.2770306E0,3.043865E-1,6.8500865E-4,-1.1919281E0,1.00041E0,-4.3230122E-1,5.772112E-3,-6.60512E-2,8.2559E-2,6.2036783E-2,-1.2831162E0,-1.2574637E-1,1.2911112E0,2.1660924E-3,-1.0926983E0,3.5554525E-1,-4.8928717E-1,1.1828461E0,5.1755887E-2,-1.2298465E0,-6.322192E-2,1.0465893E0,7.689737E-1,-1.1762973E0,-5.313473E-1,4.620842E-2,-1.2974613E0,1.551685E-3,-5.801936E-2,1.407172E-1,6.591912E-2,7.863266E-1,-1.2334999E0,5.245539E-2,1.9896469E-1,7.399581E-1,-7.394151E-2,-8.847904E-1,-8.2209283E-1,1.2406143E0,1.4609349E-2,-1.2434853E0,1.0933008E0,-5.7165723E-2,-4.0391594E-1,1.1943355E0,5.899171E-3,-6.440186E-2,9.07975E-3,-5.3320885E-2,-6.594017E-2,-7.059003E-1,3.9244628E-1,-5.337851E-2,5.7473063E-2,1.0748908E-1,-6.572362E-2,2.8006008E-2,4.300928E-1,-6.633698E-2,3.1836402E-1,1.3101009E0,-2.3865504E-2,4.216193E-2,-6.654673E-2,-2.3180734E-2,-4.790911E-2,-1.157613E-2,6.31238E-2,-1.5333491E-2,-6.289195E-2,-1.781856E-2,-5.5256713E-2,5.670547E-2,3.451875E-2,-7.462613E-2,1.2415717E-2,6.289937E-2,-3.8086973E-2,3.9591983E-2,-5.1454045E-2,1.3200762E-2,-3.7065048E-2,3.0553306E-2,3.664041E-2,-2.3814855E-2,9.979347E-3,3.9940137E-2,-2.3049193E-2,3.5223424E-2,1.1350623E-2,6.646496E-2],"categories":[],"categories_nodes":[],"categories_segments":[],"categories_sizes":[],"default_left":[0,0,0,0,0,0,0,0,0,0,0,0,0,0,0,0,0,0,0,0,0,0,0,0,0,0,0,0,0,0,0,0,0,0,0,0,0,0,0,0,0,0,0,0,0,0,0,0,0,0,0,0,0,0,0,0,0,0,0,0,0,0,0,0,0,0,0,0,0,0,0,0,0,0,0,0,0,0,0,0,0,0,0,0,0,0,0,0,0,0,0,0,0,0,0,0,0,0,0,0,0,0,0,0,0],"id":14,"left_children":[1,3,5,7,9,11,13,15,17,19,21,-1,23,25,27,29,31,33,35,-1,-1,37,-1,39,41,43,-1,45,47,49,51,-1,53,-1,55,57,59,61,-1,63,-1,-1,65,-1,67,69,-1,71,73,75,77,79,81,-1,83,85,-1,87,89,91,-1,-1,-1,-1,93,95,-1,-1,97,-1,-1,99,-1,101,103,-1,-1,-1,-1,-1,-1,-1,-1,-1,-1,-1,-1,-1,-1,-1,-1,-1,-1,-1,-1,-1,-1,-1,-1,-1,-1,-1,-1,-1,-1],"loss_changes":[2.3783981E2,1.9627467E2,1.4604584E2,1.7023102E2,9.456662E1,1.099307E2,7.8741486E1,1.9423737E2,7.0847946E1,3.894806E0,5.2956753E0,0E0,2.402214E1,1.5002441E0,8.646247E1,2.5265678E2,1.8096436E1,1.763263E1,4.0856537E1,0E0,0E0,3.8689384E0,0E0,1.906189E0,6.555268E0,1.8209839E-1,0E0,1.4197182E1,6.982535E1,5.059278E1,1.58237E1,0E0,4.439209E0,0E0,1.6938568E1,9.313752E0,3.7064018E0,1.8779562E0,0E0,3.0548096E-1,0E0,0E0,6.2979856E0,0E0,1.6059337E0,6.6337585E0,0E0,2.9234003E2,8.036984E1,5.6455124E1,2.9048164E1,1.1419153E-1,4.603058E0,0E0,2.0320435E0,1.4771225E1,0E0,7.5327306E0,4.85075E-1,2.6625733E0,0E0,0E0,0E0,0E0,2.0151238E0,4.5990057E0,0E0,0E0,1.6443337E0,0E0,0E0,6.0974136E1,0E0,5.8863777E1,2.6624756E0,0E0,0E0,0E0,0E0,0E0,0E0,0E0,0E0,0E0,0E0,0E0,0E0,0E0,0E0,0E0,0E0,0E0,0E0,0E0,0E0,0E0,0E0,0E0,0E0,0E0,0E0,0E0,0E0,0E0,0E0],"parents":[2147483647,0,0,1,1,2,2,3,3,4,4,5,5,6,6,7,7,8,8,9,9,10,10,12,12,13,13,14,14,15,15,16,16,17,17,18,18,21,21,23,23,24,24,25,25,27,27,28,28,29,29,30,30,32,32,34,34,35,35,36,36,37,37,39,39,42,42,44,44,45,45,47,47,48,48,49,49,50,50,51,51,52,52,54,54,55,55,57,57,58,58,59,59,64,64,65,65,68,68,71,71,73,73,74,74],"right_children":[2,4,6,8,10,12,14,16,18,20,22,-1,24,26,28,30,32,34,36,-1,-1,38,-1,40,42,44,-1,46,48,50,52,-1,54,-1,56,58,60,62,-1,64,-1,-1,