{"learner":{"attributes":{"scikit_learn":"{\"_estimator_type\": \"classifier\"}"},"feature_names":[],"feature_types":[],"gradient_booster":{"model":{"cats":{"enc":[],"feature_segments":[],"sorted_idx":[]},"gbtree_model_param":{"num_parallel_tree":"1","num_trees":"400"},"iteration_indptr":[0,1,2,3,4,5,6,7,8,9,10,11,12,13,14,15,16,17,18,19,20,21,22,23,24,25,26,27,28,29,30,31,32,33,34,35,36,37,38,39,40,41,42,43,44,45,46,47,48,49,50,51,52,53,54,55,56,57,58,59,60,61,62,63,64,65,66,67,68,69,70,71,72,73,74,75,76,77,78,79,80,81,82,83,84,85,86,87,88,89,90,91,92,93,94,95,96,97,98,99,100,101,102,103,104,105,106,107,108,109,110,111,112,113,114,115,116,117,118,119,120,121,122,123,124,125,126,127,128,129,130,131,132,133,134,135,136,137,138,139,140,141,142,143,144,145,146,147,148,149,150,151,152,153,154,155,156,157,158,159,160,161,162,163,164,165,166,167,168,169,170,171,172,173,174,175,176,177,178,179,180,181,182,183,184,185,186,187,188,189,190,191,192,193,194,195,196,197,198,199,200,201,202,203,204,205,206,207,208,209,210,211,212,213,214,215,216,217,218,219,220,221,222,223,224,225,226,227,228,229,230,231,232,233,234,235,236,237,238,239,240,241,242,243,244,245,246,247,248,249,250,251,252,253,254,255,256,257,258,259,260,261,262,263,264,265,266,267,268,269,270,271,272,273,274,275,276,277,278,279,280,281,282,283,284,285,286,287,288,289,290,291,292,293,294,295,296,297,298,299,300,301,302,303,304,305,306,307,308,309,310,311,312,313,314,315,316,317,318,319,320,321,322,323,324,325,326,327,328,329,330,331,332,333,334,335,336,337,338,339,340,341,342,343,344,345,346,347,348,349,350,351,352,353,354,355,356,357,358,359,360,361,362,363,364,365,366,367,368,369,370,371,372,373,374,375,376,377,378,379,380,381,382,383,384,385,386,387,388,389,390,391,392,393,394,395,396,397,398,399,400],"tree_info":[0,0,0,0,0,0,0,0,0,0,0,0,0,0,0,0,0,0,0,0,0,0,0,0,0,0,0,0,0,0,0,0,0,0,0,0,0,0,0,0,0,0,0,0,0,0,0,0,0,0,0,0,0,0,0,0,0,0,0,0,0,0,0,0,0,0,0,0,0,0,0,0,0,0,0,0,0,0,0,0,0,0,0,0,0,0,0,0,0,0,0,0,0,0,0,0,0,0,0,0,0,0,0,0,0,0,0,0,0,0,0,0,0,0,0,0,0,0,0,0,0,0,0,0,0,0,0,0,0,0,0,0,0,0,0,0,0,0,0,0,0,0,0,0,0,0,0,0,0,0,0,0,0,0,0,0,0,0,0,0,0,0,0,0,0,0,0,0,0,0,0,0,0,0,0,0,0,0,0,0,0,0,0,0,0,0,0,0,0,0,0,0,0,0,0,0,0,0,0,0,0,0,0,0,0,0,0,0,0,0,0,0,0,0,0,0,0,0,0,0,0,0,0,0,0,0,0,0,0,0,0,0,0,0,0,0,0,0,0,0,0,0,0,0,0,0,0,0,0,0,0,0,0,0,0,0,0,0,0,0,0,0,0,0,0,0,0,0,0,0,0,0,0,0,0,0,0,0,0,0,0,0,0,0,0,0,0,0,0,0,0,0,0,0,0,0,0,0,0,0,0,0,0,0,0,0,0,0,0,0,0,0,0,0,0,0,0,0,0,0,0,0,0,0,0,0,0,0,0,0,0,0,0,0,0,0,0,0,0,0,0,0,0,0,0,0,0,0,0,0,0,0,0,0,0,0,0,0,0,0,0,0,0,0,0,0,0,0,0,0,0,0,0,0,0,0,0,0,0,0,0,0,0,0,0,0,0,0,0,0,0,0,0,0,0,0,0,0,0,0],"trees":[{"base_weights":[1.5695695E-8,-4.659623E-1,5.117412E-1,-1.2553768E-1,-1.6152853E0,-9.807091E-1,7.0838946E-1,-5.2078736E-1,1.1032994E0,-1.9531722E0,1.628966E0,9.710499E-2,-1.712882E0,1.905856E0,5.884521E-1,3.9470486E-2,-1.7746353E0,1.7554939E0,-3.63127E-1,7.7181466E-2,-9.9695355E-2,1.8419117E0,-2.6791614E-1,-1.9075952E0,-3.5015437E-1,1.939573E0,-5E-2,-1.7812765E0,7.056492E-1,-7.5128996E-1,1.8576025E0,8.799309E-2,-1.872832E0,-7.5E-2,1.8102963E0,-9.7765364E-2,1.0757513E0,1.9018458E0,3.0882687E-3,5.8494758E-2,-6.666667E-2,-1.9637303E0,4.9000423E-2,7.613956E-1,-1.1185769E0,9.909852E-2,8.164217E-1,-1.9410267E0,5.72032E-2,8.3942205E-1,-3.042544E-1,5.753867E-3,-1.4026328E0,-6.923077E-2,1.9022547E0,-1.8952878E0,-3.1160384E-1,9.12392E-2,1.8369505E0,-8.0000006E-2,1.3445511E0,2.842147E-2,9.660655E-2,-3.14713E-2,-9.8652326E-2,1.151776E0,-5E-2,-2.6478915E-2,-1.5981084E0,7.172587E-2,-7.255894E-2,-9.8076925E-2,-2.303956E-2,6.20269E-1,1.4021335E0,-1.8227227E0,6.0333E-1,-4.0343743E-2,7.510011E-2,-8.371729E-2,8.736702E-2,9.586244E-2,-2.303956E-2,-9.535546E-2,2.842147E-2,-6.923077E-2,4.9000423E-2,6.284187E-2,-6.0000002E-2,2.0869402E-2,9.250873E-2,7.688939E-2,-7.1428575E-2,-5E-2,8.3535306E-2,-6.0000002E-2,4.9000423E-2,-8.518519E-2,-2.303956E-2,-5.555556E-2,5.2995753E-2,4.2352363E-2,-9.82684E-2,7.866256E-2,-8.9239284E-2,-9.674438E-2,5.8494758E-2,-9.428572E-2,6.243691E-2],"categories":[],"categories_nodes":[],"categories_segments":[],"categories_sizes":[],"default_left":[0,0,0,0,0,0,0,0,0,0,0,0,0,0,0,0,0,0,0,0,0,0,0,0,0,0,0,0,0,0,0,0,0,0,0,0,0,0,0,0,0,0,0,0,0,0,0,0,0,0,0,0,0,0,0,0,0,0,0,0,0,0,0,0,0,0,0,0,0,0,0,0,0,0,0,0,0,0,0,0,0,0,0,0,0,0,0,0,0,0,0,0,0,0,0,0,0,0,0,0,0,0,0,0,0,0,0,0,0],"id":0,"left_children":[1,3,5,7,9,11,13,15,17,19,21,-1,23,25,27,29,31,33,35,-1,-1,37,39,41,43,45,-1,47,49,51,53,-1,55,-1,57,-1,59,61,-1,-1,-1,63,-1,65,67,-1,69,71,-1,73,75,77,79,-1,81,83,85,87,89,-1,91,-1,-1,-1,-1,93,-1,95,97,-1,99,-1,-1,101,103,105,107,-1,-1,-1,-1,-1,-1,-1,-1,-1,-1,-1,-1,-1,-1,-1,-1,-1,-1,-1,-1,-1,-1,-1,-1,-1,-1,-1,-1,-1,-1,-1,-1],"loss_changes":[7.291866E2,6.2604144E2,4.284261E2,6.008591E2,4.0402496E2,3.6732745E2,1.8390741E2,6.574623E2,2.886117E2,5.0316284E1,1.4646156E1,0E0,3.556476E1,1.338739E1,3.26882E2,9.3271936E2,1.0361279E2,3.992859E1,2.1635376E2,0E0,0E0,3.2569656E0,8.314382E0,2.1255249E1,1.6479599E1,3.8980713E0,0E0,2.8174316E1,1.5128577E2,2.2296179E2,3.110083E1,0E0,9.285522E0,0E0,9.25238E0,0E0,3.7948036E1,1.3598633E-1,0E0,0E0,0E0,2.1636963E-1,0E0,6.7033005E0,5.8351507E0,0E0,3.35383E0,7.063141E-1,0E0,1.20901245E2,1.8231923E2,2.5667673E2,2.109469E2,0E0,7.770691E0,9.166687E0,8.551497E0,7.816239E0,3.0271606E0,0E0,2.6723633E1,0E0,0E0,0E0,0E0,9.569243E0,0E0,6.421664E0,1.4951515E-1,0E0,5.1500354E0,0E0,0E0,4.1942596E2,1.5331104E2,1.8859375E1,1.3577795E2,0E0,0E0,0E0,0E0,0E0,0E0,0E0,0E0,0E0,0E0,0E0,0E0,0E0,0E0,0E0,0E0,0E0,0E0,0E0,0E0,0E0,0E0,0E0,0E0,0E0,0E0,0E0,0E0,0E0,0E0,0E0,0E0],"parents":[2147483647,0,0,1,1,2,2,3,3,4,4,5,5,6,6,7,7,8,8,9,9,10,10,12,12,13,13,14,14,15,15,16,16,17,17,18,18,21,21,22,22,23,23,24,24,25,25,27,27,28,28,29,29,30,30,32,32,34,34,36,36,37,37,41,41,43,43,44,44,46,46,47,47,49,49,50,50,51,51,52,52,54,54,55,55,56,56,57,57,58,58,60,60,65,65,67,67,68,68,70,70,73,73,74,74,75,75,76,76],"right_children":[2,4,6,8,10,12,14,16,18,20,22,-1,24,26,28,30,32,34,36,-1,-1,38,40,42,44,46,-1,48,50,52,54,-1,56,-1,58,-1,60,62,-1,-1,-1,64,-1,66,68,-1,70,72,-1,74,76,78,80,-1,82,84,86,88,90,-1,92,-1,-1,-1,-1,94,-1,96,98,-1,100,-1,-1,102,104,106,108,-1,-1,-1,-1,-1,-1,-1,-1,-1,-1,-1,-1,-1,-1,-1,-1,-1,-1,-1,-1,-1,-1,-1,-1,-1,-1,-1,-1,-1,-1,-1,-1],"split_conditions":[-3.6412296E-1,1.8188405E0,3.4686708E-1,4.5352972E-1,3.5744682E-1,-1.4266541E0,-1.4266541E0,3.065011E-1,6.903606E-1,-1.4266541E0,1.1180521E0,9.710499E-2,9.964284E0,1.5613011E0,-6.6988385E-1,1.8950362E0,-1.4266541E0,-2.1722725E-1,1.845833E0,7.7181466E-2,-9.9695355E-2,1.2553954E0,-2.4129477E-1,1.9224976E1,-2.1658225E0,9.024493E-1,-5E-2,6.8465546E-2,6.903606E-1,-1.783722E0,-2.1722725E-1,8.799309E-2,6.6753E0,-7.5E-2,-3.178243E0,-9.7765364E-2,-6.9043577E-1,-9.647618E-1,3.0882687E-3,5.8494758E-2,-6.666667E-2,-2.3988907E0,4.9000423E-2,7.5944537E-1,-2.3053877E0,9.909852E-2,-1.1122671E0,1.2521528E0,5.72032E-2,6.0443413E-1,3.5744682E-1,-1.3107684E0,-7.061562E-1,-6.923077E-2,4.490507E0,1.5613011E0,1.0889319E0,4.5537263E-1,-1.410595E0,-8.0000006E-2,2.255575E0,2.842147E-2,9.660655E-2,-3.14713E-2,-9.8652326E-2,-2.269025E0,-5E-2,-1.5208323E-1,1.2556217E0,7.172587E-2,5.809535E-1,-9.8076925E-2,-2.303956E-2,1.8188405E0,1.8950362E0,1.8950362E0,1.845833E0,-4.0343743E-2,7.510011E-2,-8.371729E-2,8.736702E-2,9.586244E-2,-2.303956E-2,-9.535546E-2,2.842147E-2,-6.923077E-2,4.9000423E-2,6.284187E-2,-6.0000002E-2,2.0869402E-2,9.250873E-2,7.688939E-2,-7.1428575E-2,-5E-2,8.3535306E-2,-6.0000002E-2,4.9000423E-2,-8.518519E-2,-2.303956E-2,-5.555556E-2,5.2995753E-2,4.2352363E-2,-9.82684E-2,7.866256E-2,-8.9239284E-2,-9.674438E-2,5.8494758E-2,-9.428572E-2,6.243691E-2],"split_indices":[24,8,30,29,0,2,2,0,29,2,50,0,22,0,40,9,2,39,29,0,0,55,16,37,23,37,0,42,29,31,39,0,37,0,54,0,0,4,0,0,0,42,0,6,27,0,0,16,0,1,0,0,0,0,54,0,16,39,7,0,29,0,0,0,0,45,0,46,0,0,0,0,0,8,9,9,29,0,0,0,0,0,0,0,0,0,0,0,0,0,0,0,0,0,0,0,0,0,0,0,0,0,0,0,0,0,0,0,0],"split_type":[0,0,0,0,0,0,0,0,0,0,0,0,0,0,0,0,0,0,0,0,0,0,0,0,0,0,0,0,0,0,0,0,0,0,0,0,0,0,0,0,0,0,0,0,0,0,0,0,0,0,0,0,0,0,0,0,0,0,0,0,0,0,0,0,0,0,0,0,0,0,0,0,0,0,0,0,0,0,0,0,0,0,0,0,0,0,0,0,0,0,0,0,0,0,0,0,0,0,0,0,0,0,0,0,0,0,0,0,0],"sum_hessian":[3.056E3,1.5995922E3,1.4564078E3,1.2349226E3,3.6466962E2,1.6909375E2,1.2873141E3,9.348187E2,3.0010385E2,3.3063242E2,3.4037216E1,3.3542152E1,1.355516E2,1.1584233E2,1.1714718E3,6.467842E2,2.8803455E2,2.0758371E2,9.252016E1,3.382402E0,3.2725E2,3.0627882E1,3.4093342E0,1.1825494E2,1.729667E1,1.1484233E2,1E0,5.45368E1,1.1169349E3,4.5115155E2,1.9563263E2,7.3285375E0,2.80706E2,3E0,2.0458371E2,4.375E1,4.8770153E1,2.956415E1,1.0637336E0,1.4093341E0,2E0,1.16313736E2,1.941201E0,7.0736027E0,1.0223067E1,1.0992806E2,4.9142685E0,5.2031868E1,2.5049345E0,9.86439E2,1.304959E2,2.0910446E2,2.4204709E2,2.25E0,1.9338263E2,2.765148E2,4.1912007E0,3.191201E0,2.013925E2,4E0,4.4770153E1,1.0956005E0,2.8468548E1,1.2818668E0,1.1503187E2,6.0736027E0,1E0,3.441201E0,6.781867E0,2.5368013E0,2.3774672E0,5.1E1,1.0318668E0,7.114577E2,2.7498132E2,4.84412E1,8.2054695E1,1.3580696E2,7.32975E1,2.2325761E2,1.8789476E1,1.9235077E2,1.0318668E0,2.754192E2,1.0956005E0,2.25E0,1.941201E0,1.691201E0,1.5E0,2.1593342E0,1.9923317E2,4.2270153E1,2.5E0,1E0,5.0736027E0,1.5E0,1.941201E0,5.75E0,1.0318668E0,1.25E0,1.1274673E0,6.547077E2,5.675E1,2.6144946E2,1.3531867E1,4.7031868E1,1.4093341E0,1.65E1,6.5554695E1],"tree_param":{"num_deleted":"0","num_feature":"103","num_nodes":"109","size_leaf_vector":"1"}},{"base_weights":[-7.061232E-5,-4.4355354E-1,4.866382E-1,-1.1955492E-1,-1.5380522E0,-9.3452114E-1,6.736848E-1,-4.9560234E-1,1.0498607E0,-1.8602444E0,1.554105E0,9.260566E-2,-1.6325289E0,1.8159274E0,5.594317E-1,3.7630852E-2,-1.6897292E0,1.67145E0,-3.4749037E-1,7.4289754E-2,-9.496474E-2,1.7576326E0,-2.5657886E-1,-1.8172534E0,-3.40498E-1,1.8483646E0,-3.1005371E-2,-1.6972438E0,6.708938E-1,-7.1458286E-1,1.7688066E0,8.426754E-2,-1.783554E0,-7.226496E-2,1.7240075E0,-9.320753E-2,1.0219715E0,1.8165146E0,1.7335272E-3,5.6812834E-2,-6.449301E-2,-1.8711935E0,4.7402505E-2,7.222171E-1,-1.0745498E0,9.441943E-2,7.8797615E-1,5.575196E-2,-1.8513318E0,7.9808927E-1,-2.900668E-1,5.6447918E-3,-1.3348696E0,-6.689073E-2,1.8117027E0,-1.804903E0,-3.0015212E-1,8.742026E-2,1.7494093E0,-7.690003E-2,1.2793095E0,9.229816E-2,2.6780594E-2,-3.0591656E-2,-9.399254E-2,6.657987E-2,-1.712097E-1,-2.7648998E-2,-1.5342296E0,6.950405E-2,-7.599071E-2,-9.357918E-2,-2.109019E-2,8.4658366E-1,-1.5963064E0,-1.7363325E0,5.734759E-1,-3.8357053E-2,7.149675E-2,-7.969138E-2,8.337291E-2,9.130611E-2,-2.2456082E-2,-9.08139E-2,2.7681494E-2,-6.73426E-2,4.7907453E-2,6.0905732E-2,-5.823196E-2,8.81337E-2,1.7736172E-2,7.324125E-2,-6.894139E-2,5.0830472E-2,-4.7393553E-2,-5.823196E-2,4.7402505E-2,-8.201539E-2,-2.1323195E-2,5.113081E-2,-5.40359E-2,3.2530837E-2,6.685257E-2,-8.7579995E-2,2.8110815E-2,-9.2222534E-2,5.6812834E-2,-9.003249E-2,5.941998E-2],"categories":[],"categories_nodes":[],"categories_segments":[],"categories_sizes":[],"default_left":[0,0,0,0,0,0,0,0,0,0,0,0,0,0,0,0,0,0,0,0,0,0,0,0,0,0,0,0,0,0,0,0,0,0,0,0,0,0,0,0,0,0,0,0,0,0,0,0,0,0,0,0,0,0,0,0,0,0,0,0,0,0,0,0,0,0,0,0,0,0,0,0,0,0,0,0,0,0,0,0,0,0,0,0,0,0,0,0,0,0,0,0,0,0,0,0,0,0,0,0,0,0,0,0,0,0,0,0,0],"id":1,"left_children":[1,3,5,7,9,11,13,15,17,19,21,-1,23,25,27,29,31,33,35,-1,-1,37,39,41,43,45,-1,47,49,51,53,-1,55,-1,57,-1,59,61,-1,-1,-1,63,-1,65,67,-1,69,-1,71,73,75,77,79,-1,81,83,85,87,89,-1,91,-1,-1,-1,-1,-1,93,95,97,-1,99,-1,-1,101,103,105,107,-1,-1,-1,-1,-1,-1,-1,-1,-1,-1,-1,-1,-1,-1,-1,-1,-1,-1,-1,-1,-1,-1,-1,-1,-1,-1,-1,-1,-1,-1,-1,-1],"loss_changes":[6.5897577E2,5.662881E2,3.8754895E2,5.430209E2,3.6631274E2,3.3312665E2,1.6692316E2,5.948795E2,2.6158383E2,4.604773E1,1.333725E1,0E0,3.1899384E1,1.0357086E1,2.9575378E2,8.434776E2,9.432947E1,3.65885E1,1.957809E2,0E0,0E0,3.1389542E0,7.8065553E0,1.9520264E1,1.5031002E1,3.4048767E0,0E0,2.6076569E1,1.3674536E2,2.0174382E2,2.8568237E1,0E0,8.359863E0,0E0,8.375732E0,0E0,3.470764E1,1.617279E-1,0E0,0E0,0E0,1.2579346E-1,0E0,4.618055E0,5.352271E0,0E0,3.17962E0,0E0,7.423096E-1,1.1590765E2,1.6495839E2,2.3217847E2,1.9128943E2,0E0,7.1427E0,8.433838E0,8.122544E0,7.3478613E0,3.111206E0,0E0,2.455783E1,0E0,0E0,0E0,0E0,0E0,4.7974644E0,6.02824E0,2.1367264E-1,0E0,4.8305445E0,0E0,0E0,9.2135925E1,7.6658516E0,1.7416656E1,1.23245255E2,0E0,0E0,0E0,0E0,0E0,0E0,0E0,0E0,0E0,0E0,0E0,0E0,0E0,0E0,0E0,0E0,0E0,0E0,0E0,0E0,0E0,0E0,0E0,0E0,0E0,0E0,0E0,0E0,0E0,0E0,0E0,0E0],"parents":[2147483647,0,0,1,1,2,2,3,3,4,4,5,5,6,6,7,7,8,8,9,9,10,10,12,12,13,13,14,14,15,15,16,16,17,17,18,18,21,21,22,22,23,23,24,24,25,25,27,27,28,28,29,29,30,30,32,32,34,34,36,36,37,37,41,41,43,43,44,44,46,46,48,48,49,49,50,50,51,51,52,52,54,54,55,55,56,56,57,57,58,58,60,60,66,66,67,67,68,68,70,70,73,73,74,74,75,75,76,76],"right_children":[2,4,6,8,10,12,14,16,18,20,22,-1,24,26,28,30,32,34,36,-1,-1,38,40,42,44,46,-1,48,50,52,54,-1,56,-1,58,-1,60,62,-1,-1,-1,64,-1,66,68,-1,70,-1,72,74,76,78,80,-1,82,84,86,88,90,-1,92,-1,-1,-1,-1,-1,94,96,98,-1,100,-1,-1,102,104,106,108,-1,-1,-1,-1,-1,-1,-1,-1,-1,-1,-1,-1,-1,-1,-1,-1,-1,-1,-1,-1,-1,-1,-1,-1,-1,-1,-1,-1,-1,-1,-1,-1],"split_conditions":[-3.6412296E-1,1.8188405E0,3.4686708E-1,4.5352972E-1,3.5744682E-1,-1.4266541E0,-1.4266541E0,3.065011E-1,6.903606E-1,-1.4266541E0,1.1180521E0,9.260566E-2,9.964284E0,1.5281832E0,-6.6988385E-1,1.8950362E0,-1.4266541E0,-2.1722725E-1,1.845833E0,7.4289754E-2,-9.496474E-2,3.7002325E0,-2.4129477E-1,1.9224976E1,-2.1658225E0,9.024493E-1,-3.1005371E-2,-1.2923773E-2,6.903606E-1,-1.783722E0,-2.1722725E-1,8.426754E-2,6.6753E0,-7.226496E-2,-3.178243E0,-9.320753E-2,-6.9043577E-1,4.9286575E0,1.7335272E-3,5.6812834E-2,-6.449301E-2,-2.3988907E0,4.7402505E-2,-2.599853E-1,-2.3053877E0,9.441943E-2,1.0692775E0,5.575196E-2,1.5947187E-1,1.4946878E-1,3.5744682E-1,-1.3107684E0,-7.061562E-1,-6.689073E-2,4.490507E0,1.5613011E0,-4.2912234E-2,4.5537263E-1,2.325233E0,-7.690003E-2,2.255575E0,9.229816E-2,2.6780594E-2,-3.0591656E-2,-9.399254E-2,6.657987E-2,3.7169564E-1,-1.5208323E-1,1.11012004E-1,6.950405E-2,-1.1122671E0,-9.357918E-2,-2.109019E-2,6.0443413E-1,1.8950362E0,1.8950362E0,1.845833E0,-3.8357053E-2,7.149675E-2,-7.969138E-2,8.337291E-2,9.130611E-2,-2.2456082E-2,-9.08139E-2,2.7681494E-2,-6.73426E-2,4.7907453E-2,6.0905732E-2,-5.823196E-2,8.81337E-2,1.7736172E-2,7.324125E-2,-6.894139E-2,5.0830472E-2,-4.7393553E-2,-5.823196E-2,4.7402505E-2,-8.201539E-2,-2.1323195E-2,5.113081E-2,-5.40359E-2,3.2530837E-2,6.685257E-2,-8.7579995E-2,2.8110815E-2,-9.2222534E-2,5.6812834E-2,-9.003249E-2,5.941998E-2],"split_indices":[24,8,30,29,0,2,2,0,29,2,50,0,22,0,40,9,2,39,29,0,0,99,16,37,23,37,0,58,29,31,39,0,37,0,54,0,0,85,0,0,0,42,0,55,27,0,26,0,52,37,0,0,0,0,54,0,42,39,52,0,29,0,0,0,0,0,4,46,60,0,0,0,0,1,9,9,29,0,0,0,0,0,0,0,0,0,0,0,0,0,0,0,0,0,0,0,0,0,0,0,0,0,0,0,0,0,0,0,0],"split_type":[0,0,0,0,0,0,0,0,0,0,0,0,0,0,0,0,0,0,0,0,0,0,0,0,0,0,0,0,0,0,0,0,0,0,0,0,0,0,0,0,0,0,0,0,0,0,0,0,0,0,0,0,0,0,0,0,0,0,0,0,0,0,0,0,0,0,0,0,0,0,0,0,0,0,0,0,0,0,0,0,0,0,0,0,0,0,0,0,0,0,0,0,0,0,0,0,0,0,0,0,0,0,0,0,0,0,0,0,0],"sum_hessian":[3.0509758E3,1.5964235E3,1.4545524E3,1.2326406E3,3.637828E2,1.6871074E2,1.2858416E3,9.331463E2,2.994944E2,3.2981555E2,3.3967247E1,3.3463203E1,1.3524753E2,1.15567245E2,1.1702743E3,6.457551E2,2.8739117E2,2.0715059E2,9.234379E1,3.3773696E0,3.264382E2,3.0561338E1,3.4059086E0,1.1797402E2,1.727351E1,1.142867E2,1.2805512E0,5.441217E1,1.1158622E3,4.5056653E2,1.9518858E2,7.3143697E0,2.800768E2,2.9957852E0,2.041548E2,4.3645626E1,4.8698162E1,2.949892E1,1.0624192E0,1.4081292E0,1.9977794E0,1.1603398E2,1.9400362E0,7.063513E0,1.0209998E1,1.0937744E2,4.9092536E0,2.5024905E0,5.190968E1,9.855778E2,1.3028436E2,2.0894597E2,2.4162054E2,2.2473059E0,1.9294127E2,2.7588947E2,4.187342E0,3.1881833E0,2.0096663E2,3.9936068E0,4.4704556E1,2.840474E1,1.0941797E0,1.2815495E0,1.1475243E2,3.9077277E0,3.155785E0,3.438687E0,6.771311E0,2.534199E0,2.3750544E0,5.087965E1,1.0300287E0,9.666465E2,1.8931343E1,4.833012E1,8.195424E1,1.3575171E2,7.319425E1,2.2286688E2,1.8753668E1,1.9190955E2,1.0317299E0,2.747941E2,1.0953792E0,2.2474554E0,1.9398868E0,1.6895324E0,1.4986508E0,1.988119E2,2.1547208E0,4.220774E1,2.4968143E0,1.1255027E0,2.0302825E0,1.4986508E0,1.9400362E0,5.7408404E0,1.0304704E0,1.1260184E0,1.249036E0,6.923456E2,2.7430087E2,1.783662E1,1.0947243E0,4.692199E1,1.4081292E0,1.6463385E1,6.549085E1],"tree_param":{"num_deleted":"0","num_feature":"103","num_nodes":"109","size_leaf_vector":"1"}},{"base_weights":[-8.706491E-5,-4.237837E-1,4.6368432E-1,-1.1424744E-1,-1.4711243E0,-8.9370036E-1,6.416588E-1,-4.7319943E-1,1.002742E0,-1.7798679E0,1.4880598E0,8.8691875E-2,-1.5616785E0,1.7379451E0,5.32498E-1,3.6002878E-2,-1.6155485E0,1.5975356E0,-3.337378E-1,7.166327E-2,-9.087538E-2,1.6835871E0,-2.4606332E-1,-1.738795E0,-3.269167E-1,1.7693707E0,-3.0143647E-2,-1.6237913E0,6.385361E-1,-6.81306E-1,1.6913362E0,8.0958776E-2,-1.7055888E0,-6.977021E-2,1.6481618E0,-8.92491E-2,9.7346747E-1,1.7402878E0,1.6889162E-3,5.52332E-2,-6.2479563E-2,-1.7909484E0,4.5891833E-2,6.9655424E-1,-1.0344009E0,9.0370804E-2,7.617222E-1,5.3836394E-2,-1.7725768E0,6.905277E-1,-1.5235687E0,5.5633993E-3,-1.2745254E0,-6.473309E-2,1.7327572E0,-1.7163604E0,2.6966384E-2,8.3868116E-2,1.6725159E0,-7.410019E-2,1.2204698E0,8.840004E-2,2.6095314E-2,-2.9744713E-2,-8.995484E-2,6.411692E-2,-1.620423E-1,-2.8760126E-2,-1.4763706E0,6.7179784E-2,-7.317337E-2,-8.960025E-2,-2.0206396E-2,8.05628E-1,-2.1092325E-1,5.562343E-2,-1.7156221E0,-3.6495518E-2,6.824225E-2,-7.610487E-2,7.983079E-2,8.733602E-2,-2.189028E-2,-8.685289E-2,-1.4472321E-2,5.910038E-2,-5.6575518E-2,8.426008E-2,1.7141243E-2,6.9953695E-2,-6.6657335E-2,-4.6321172E-2,5.0181985E-2,-5.6575518E-2,4.5891833E-2,-2.0076295E-2,-7.90525E-2,4.984383E-2,-5.2601963E-2,3.0930895E-2,6.37473E-2,-8.29195E-2,3.505271E-2,4.2548007E-3,-8.9943364E-2],"categories":[],"categories_nodes":[],"categories_segments":[],"categories_sizes":[],"default_left":[0,0,0,0,0,0,0,0,0,0,0,0,0,0,0,0,0,0,0,0,0,0,0,0,0,0,0,0,0,0,0,0,0,0,0,0,0,0,0,0,0,0,0,0,0,0,0,0,0,0,0,0,0,0,0,0,0,0,0,0,0,0,0,0,0,0,0,0,0,0,0,0,0,0,0,0,0,0,0,0,0,0,0,0,0,0,0,0,0,0,0,0,0,0,0,0,0,0,0,0,0,0,0,0,0],"id":2,"left_children":[1,3,5,7,9,11,13,15,17,19,21,-1,23,25,27,29,31,33,35,-1,-1,37,39,41,43,45,-1,47,49,51,53,-1,55,-1,57,-1,59,61,-1,-1,-1,63,-1,65,67,-1,69,-1,71,73,75,77,79,-1,81,83,-1,85,87,-1,89,-1,-1,-1,-1,-1,91,93,95,-1,97,-1,-1,99,101,-1,103,-1,-1,-1,-1,-1,-1,-1,-1,-1,-1,-1,-1,-1,-1,-1,-1,-1,-1,-1,-1,-1,-1,-1,-1,-1,-1,-1,-1],"loss_changes":[5.973296E2,5.148301E2,3.5117847E2,4.9254013E2,3.3366248E2,3.0327783E2,1.5269104E2,5.407183E2,2.3805286E2,4.2338135E1,1.2205116E1,0E0,2.9044495E1,9.585205E0,2.6829318E2,7.656811E2,8.623352E1,3.365631E1,1.7788017E2,0E0,0E0,2.8764954E0,7.339236E0,1.8019073E1,1.3911932E1,3.0135803E0,0E0,2.4034698E1,1.2636633E2,1.8333708E2,2.635498E1,0E0,7.6801147E0,0E0,7.629944E0,0E0,3.1828445E1,1.0089111E-1,0E0,0E0,0E0,6.271362E-2,0E0,4.2533946E0,4.9240665E0,0E0,2.9621544E0,0E0,6.7344666E-1,1.1319208E2,1.5319054E1,2.104387E2,1.7404001E2,0E0,6.6052246E0,7.7140503E0,0E0,6.915662E0,2.809021E0,0E0,2.2626495E1,0E0,0E0,0E0,0E0,0E0,4.6275725E0,5.6643734E0,2.3633766E-1,0E0,4.578064E0,0E0,0E0,8.400891E1,1.6502022E2,0E0,3.9131622E0,0E0,0E0,0E0,0E0,0E0,0E0,0E0,0E0,0E0,0E0,0E0,0E0,0E0,0E0,0E0,0E0,0E0,0E0,0E0,0E0,0E0,0E0,0E0,0E0,0E0,0E0,0E0,0E0],"parents":[2147483647,0,0,1,1,2,2,3,3,4,4,5,5,6,6,7,7,8,8,9,9,10,10,12,12,13,13,14,14,15,15,16,16,17,17,18,18,21,21,22,22,23,23,24,24,25,25,27,27,28,28,29,29,30,30,32,32,34,34,36,36,37,37,41,41,43,43,44,44,46,46,48,48,49,49,50,50,51,51,52,52,54,54,55,55,57,57,58,58,60,60,66,66,67,67,68,68,70,70,73,73,74,74,76,76],"right_children":[2,4,6,8,10,12,14,16,18,20,22,-1,24,26,28,30,32,34,36,-1,-1,38,40,42,44,46,-1,48,50,52,54,-1,56,-1,58,-1,60,62,-1,-1,-1,64,-1,66,68,-1,70,-1,72,74,76,78,80,-1,82,84,-1,86,88,-1,90,-1,-1,-1,-1,-1,92,94,96,-1,98,-1,-1,100,102,-1,104,-1,-1,-1,-1,-1,-1,-1,-1,-1,-1,-1,-1,-1,-1,-1,-1,-1,-1,-1,-1,-1,-1,-1,-1,-1,-1,-1,-1],"split_conditions":[-3.6412296E-1,1.8188405E0,3.4686708E-1,4.5352972E-1,3.5744682E-1,-1.4266541E0,-1.4266541E0,3.065011E-1,6.903606E-1,-1.4266541E0,1.1180521E0,8.8691875E-2,9.964284E0,1.5281832E0,-6.6988385E-1,1.8950362E0,-1.4266541E0,-2.1722725E-1,1.845833E0,7.166327E-2,-9.087538E-2,3.7002325E0,-2.4129477E-1,1.9224976E1,-2.1658225E0,9.024493E-1,-3.0143647E-2,-1.2923773E-2,1.4946878E-1,-1.783722E0,-2.1722725E-1,8.0958776E-2,1.5613011E0,-6.977021E-2,-3.178243E0,-8.92491E-2,-6.9043577E-1,4.9286575E0,1.6889162E-3,5.52332E-2,-6.2479563E-2,-2.3988907E0,4.5891833E-2,-2.599853E-1,-2.3053877E0,9.0370804E-2,1.0692775E0,5.3836394E-2,7.0449494E-2,6.903606E-1,-7.089151E-1,-1.3107684E0,-7.061562E-1,-6.473309E-2,4.490507E0,6.6753E0,2.6966384E-2,4.5537263E-1,2.325233E0,-7.410019E-2,2.255575E0,8.840004E-2,2.6095314E-2,-2.9744713E-2,-8.995484E-2,6.411692E-2,2.8346074E-1,-1.5208323E-1,-1.0831801E0,6.7179784E-2,-1.1122671E0,-8.960025E-2,-2.0206396E-2,6.0443413E-1,3.5744682E-1,5.562343E-2,-1.0729892E0,-3.6495518E-2,6.824225E-2,-7.610487E-2,7.983079E-2,8.733602E-2,-2.189028E-2,-8.685289E-2,-1.4472321E-2,5.910038E-2,-5.6575518E-2,8.426008E-2,1.7141243E-2,6.9953695E-2,-6.6657335E-2,-4.6321172E-2,5.0181985E-2,-5.6575518E-2,4.5891833E-2,-2.0076295E-2,-7.90525E-2,4.984383E-2,-5.2601963E-2,3.0930895E-2,6.37473E-2,-8.29195E-2,3.505271E-2,4.2548007E-3,-8.9943364E-2],"split_indices":[24,8,30,29,0,2,2,0,29,2,50,0,22,0,40,9,2,39,29,0,0,99,16,37,23,37,0,58,37,31,39,0,0,0,54,0,0,85,0,0,0,42,0,55,27,0,26,0,48,29,60,0,0,0,54,37,0,39,52,0,29,0,0,0,0,0,39,46,46,0,0,0,0,1,0,0,3,0,0,0,0,0,0,0,0,0,0,0,0,0,0,0,0,0,0,0,0,0,0,0,0,0,0,0,0],"split_type":[0,0,0,0,0,0,0,0,0,0,0,0,0,0,0,0,0,0,0,0,0,0,0,0,0,0,0,0,0,0,0,0,0,0,0,0,0,0,0,0,0,0,0,0,0,0,0,0,0,0,0,0,0,0,0,0,0,0,0,0,0,0,0,0,0,0,0,0,0,0,0,0,0,0,0,0,0,0,0,0,0,0,0,0,0,0,0,0,0,0,0,0,0,0,0,0,0,0,0,0,0,0,0,0,0],"sum_hessian":[3.03787E3,1.5875696E3,1.4503007E3,1.226263E3,3.6130673E2,1.6764859E2,1.282652E3,9.284695E2,2.9779343E2,3.2753247E2,3.3774254E1,3.3242153E1,1.3440643E2,1.1480098E2,1.1678511E3,6.428759E2,2.8559354E2,2.0594385E2,9.184959E1,3.3630745E0,3.241694E2,3.037817E1,3.3960829E0,1.171885E2,1.7217936E1,1.1352108E2,1.2799017E0,5.4067734E1,1.1137833E3,4.4892902E2,1.9394688E2,7.274439E0,2.7831912E2,2.9837933E0,2.0296005E2,4.3353516E1,4.849607E1,2.9315802E1,1.06237E0,1.4046599E0,1.991423E0,1.152518E2,1.9366976E0,7.0437107E0,1.0174225E1,1.0862602E2,4.895056E0,2.4976454E0,5.157009E1,1.088294E3,2.5489313E1,2.0850198E2,2.4042703E2,2.2396095E0,1.9170728E2,2.7722437E2,1.0947388E0,3.179513E0,1.9978055E2,3.9754832E0,4.4520588E1,2.8222746E1,1.0930552E0,1.2806332E0,1.1397117E2,3.8936856E0,3.1500251E0,3.4314678E0,6.742757E0,2.525578E0,2.3694777E0,5.0543007E1,1.0270834E0,9.651648E2,1.2312918E2,1.4055035E0,2.4083809E1,1.3559688E2,7.2905106E1,2.2177383E2,1.86532E1,1.9067595E2,1.0313331E0,2.7304648E2,4.17789E0,1.6847429E0,1.4947702E0,1.9762776E2,2.1527863E0,4.203286E1,2.4877255E0,2.0264552E0,1.1235701E0,1.4947702E0,1.9366976E0,1.0275614E0,5.715195E0,1.1232235E0,1.2462543E0,6.918143E2,2.7335052E2,4.7275806E1,7.585338E1,1.0631897E0,2.302062E1],"tree_param":{"num_deleted":"0","num_feature":"103","num_nodes":"105","size_leaf_vector":"1"}},{"base_weights":[-1.02167374E-4,-4.0617833E-1,4.424749E-1,-1.09491676E-1,-1.4126062E0,-8.577382E-1,6.1190623E-1,-4.5308644E-1,9.6084714E-1,-1.7097164E0,1.429502E0,8.525822E-2,-1.4992045E0,1.6696166E0,5.0735444E-1,3.4549385E-2,-1.5500561E0,1.5319906E0,-3.215453E-1,6.926604E-2,-8.730831E-2,1.6182112E0,-2.3628029E-1,-1.6700433E0,-3.1440023E-1,1.7002401E0,-2.9313577E-2,-1.5591576E0,6.082534E-1,-6.509201E-1,1.623128E0,7.8000024E-2,-1.6367838E0,-6.748436E-2,1.5809423E0,-8.578133E-2,9.293946E-1,1.6745739E0,5.074311E-4,5.3746432E-2,-6.0608532E-2,-1.7207383E0,4.4460624E-2,6.7272353E-1,-9.9766994E-1,8.683451E-2,7.374655E-1,-1.703838E0,5.2287847E-2,6.5779805E-1,-1.4530548E0,5.5034054E-3,-1.2203267E0,-6.273652E-2,1.6633006E0,-1.6472744E0,2.6274918E-2,8.0555506E-2,1.6044123E0,-7.15578E-2,1.1670053E0,2.4670193E-2,8.509754E-2,-2.8928602E-2,-8.642476E-2,1.0041283E0,-3.0162409E-2,1.2868817E-1,-1.3629194E0,6.527745E-2,-7.620427E-2,-8.615395E-2,-1.8832304E-2,7.6733685E-1,-2.0174937E-1,5.4114252E-2,-1.6383138E0,-3.4746528E-2,6.528076E-2,-7.288241E-2,7.666413E-2,8.3845094E-2,-2.1341434E-2,-8.3366506E-2,-1.3891398E-2,5.7412457E-2,-5.5020005E-2,1.4376513E-2,8.086329E-2,6.696852E-2,-6.455158E-2,-2.8932367E-2,7.3998645E-2,-4.945975E-2,5.5685993E-2,-1.6116792E-2,-7.7456914E-2,-5.1246453E-2,4.8213106E-2,2.9423272E-2,6.0905077E-2,-7.95854E-2,3.3368446E-2,-8.591786E-2,4.274979E-3],"categories":[],"categories_nodes":[],"categories_segments":[],"categories_sizes":[],"default_left":[0,0,0,0,0,0,0,0,0,0,0,0,0,0,0,0,0,0,0,0,0,0,0,0,0,0,0,0,0,0,0,0,0,0,0,0,0,0,0,0,0,0,0,0,0,0,0,0,0,0,0,0,0,0,0,0,0,0,0,0,0,0,0,0,0,0,0,0,0,0,0,0,0,0,0,0,0,0,0,0,0,0,0,0,0,0,0,0,0,0,0,0,0,0,0,0,0,0,0,0,0,0,0,0,0],"id":3,"left_children":[1,3,5,7,9,11,13,15,17,19,21,-1,23,25,27,29,31,33,35,-1,-1,37,39,41,43,45,-1,47,49,51,53,-1,55,-1,57,-1,59,61,-1,-1,-1,63,-1,65,67,-1,69,71,-1,73,75,77,79,-1,81,83,-1,85,87,-1,89,-1,-1,-1,-1,91,-1,93,95,-1,97,-1,-1,99,101,-1,103,-1,-1,-1,-1,-1,-1,-1,-1,-1,-1,-1,-1,-1,-1,-1,-1,-1,-1,-1,-1,-1,-1,-1,-1,-1,-1,-1,-1],"loss_changes":[5.427414E2,4.7010294E2,3.188582E2,4.4815884E2,3.0515424E2,2.7712152E2,1.4059299E2,4.9339166E2,2.174108E2,3.908435E1,1.1218941E1,0E0,2.6619873E1,8.9149475E0,2.4394339E2,6.9734576E2,7.9111206E1,3.106247E1,1.6218289E2,0E0,0E0,2.8010788E0,6.9082737E0,1.6706726E1,1.290089E1,2.6966248E0,0E0,2.2334152E1,1.1450647E2,1.6723201E2,2.4403381E1,0E0,7.140259E0,0E0,6.9880066E0,0E0,2.9256462E1,1.3144684E-1,0E0,0E0,0E0,1.9195557E-2,0E0,3.9946647E0,4.7493896E0,0E0,2.8139226E0,6.8003845E-1,0E0,1.0244849E2,1.4177055E1,1.9106363E2,1.5880066E2,0E0,6.1398926E0,7.104126E0,0E0,6.5161133E0,2.9024048E0,0E0,2.0894665E1,0E0,0E0,0E0,0E0,5.9305243E0,0E0,5.1056957E0,1.1442404E0,0E0,4.3042226E0,0E0,0E0,7.69978E1,1.5037204E2,0E0,3.5975266E0,0E0,0E0,0E0,0E0,0E0,0E0,0E0,0E0,0E0,0E0,0E0,0E0,0E0,0E0,0E0,0E0,0E0,0E0,0E0,0E0,0E0,0E0,0E0,0E0,0E0,0E0,0E0,0E0],"parents":[2147483647,0,0,1,1,2,2,3,3,4,4,5,5,6,6,7,7,8,8,9,9,10,10,12,12,13,13,14,14,15,15,16,16,17,17,18,18,21,21,22,22,23,23,24,24,25,25,27,27,28,28,29,29,30,30,32,32,34,34,36,36,37,37,41,41,43,43,44,44,46,46,47,47,49,49,50,50,51,51,52,52,54,54,55,55,57,57,58,58,60,60,65,65,67,67,68,68,70,70,73,73,74,74,76,76],"right_children":[2,4,6,8,10,12,14,16,18,20,22,-1,24,26,28,30,32,34,36,-1,-1,38,40,42,44,46,-1,48,50,52,54,-1,56,-1,58,-1,60,62,-1,-1,-1,64,-1,66,68,-1,70,72,-1,74,76,78,80,-1,82,84,-1,86,88,-1,90,-1,-1,-1,-1,92,-1,94,96,-1,98,-1,-1,100,102,-1,104,-1,-1,-1,-1,-1,-1,-1,-1,-1,-1,-1,-1,-1,-1,-1,-1,-1,-1,-1,-1,-1,-1,-1,-1,-1,-1,-1,-1],"split_conditions":[-3.6412296E-1,1.8188405E0,3.4686708E-1,4.5352972E-1,3.5744682E-1,-1.4266541E0,-1.4266541E0,3.065011E-1,6.903606E-1,-1.4266541E0,1.1180521E0,8.525822E-2,9.964284E0,1.5281832E0,-6.6988385E-1,1.8950362E0,-1.4266541E0,-2.1722725E-1,1.845833E0,6.926604E-2,-8.730831E-2,1.2553954E0,-2.4129477E-1,1.9224976E1,-2.1658225E0,9.024493E-1,-2.9313577E-2,6.8465546E-2,1.4946878E-1,-1.783722E0,-2.1722725E-1,7.8000024E-2,1.5613011E0,-6.748436E-2,-3.178243E0,-8.578133E-2,-6.9043577E-1,-9.647618E-1,5.074311E-4,5.3746432E-2,-6.0608532E-2,-2.3988907E0,4.4460624E-2,4.673878E-1,-1.3565795E0,8.683451E-2,-1.1122671E0,1.5947187E-1,5.2287847E-2,6.903606E-1,-7.089151E-1,-1.3107684E0,-7.061562E-1,-6.273652E-2,4.490507E0,6.6753E0,2.6274918E-2,4.5537263E-1,-1.410595E0,-7.15578E-2,2.255575E0,2.4670193E-2,8.509754E-2,-2.8928602E-2,-8.642476E-2,-2.1214252E0,-3.0162409E-2,9.1730505E-1,-2.9350958E0,6.527745E-2,5.809535E-1,-8.615395E-2,-1.8832304E-2,6.0443413E-1,3.5744682E-1,5.4114252E-2,2.092014E0,-3.4746528E-2,6.528076E-2,-7.288241E-2,7.666413E-2,8.3845094E-2,-2.1341434E-2,-8.3366506E-2,-1.3891398E-2,5.7412457E-2,-5.5020005E-2,1.4376513E-2,8.086329E-2,6.696852E-2,-6.455158E-2,-2.8932367E-2,7.3998645E-2,-4.945975E-2,5.5685993E-2,-1.6116792E-2,-7.7456914E-2,-5.1246453E-2,4.8213106E-2,2.9423272E-2,6.0905077E-2,-7.95854E-2,3.3368446E-2,-8.591786E-2,4.274979E-3],"split_indices":[24,8,30,29,0,2,2,0,29,2,50,0,22,0,40,9,2,39,29,0,0,55,16,37,23,37,0,42,37,31,39,0,0,0,54,0,0,4,0,0,0,42,0,57,44,0,0,52,0,29,60,0,0,0,54,37,0,39,7,0,29,0,0,0,0,45,0,0,30,0,0,0,0,1,0,0,59,0,0,0,0,0,0,0,0,0,0,0,0,0,0,0,0,0,0,0,0,0,0,0,0,0,0,0,0],"split_type":[0,0,0,0,0,0,0,0,0,0,0,0,0,0,0,0,0,0,0,0,0,0,0,0,0,0,0,0,0,0,0,0,0,0,0,0,0,0,0,0,0,0,0,0,0,0,0,0,0,0,0,0,0,0,0,0,0,0,0,0,0,0,0,0,0,0,0,0,0,0,0,0,0,0,0,0,0,0,0,0,0,0,0,0,0,0,0,0,0,0,0,0,0,0,0,0,0,0,0,0,0,0,0,0,0],"sum_hessian":[3.0179277E3,1.5739078E3,1.4440198E3,1.2164247E3,3.574832E2,1.660088E2,1.278011E3,9.212623E2,2.951623E2,3.2401004E2,3.3473152E1,3.290051E1,1.3310829E2,1.1361748E2,1.1643936E3,6.384297E2,2.828326E2,2.0407713E2,9.108517E1,3.3406472E0,3.206694E2,3.0092648E1,3.3805046E0,1.1597598E2,1.7132315E1,1.123388E2,1.2786832E0,5.3532932E1,1.1108606E3,4.463993E2,1.9203041E2,7.212305E0,2.756203E2,2.9649472E0,2.0111218E2,4.290226E1,4.8182907E1,2.9033653E1,1.0589947E0,1.3991362E0,1.9813685E0,1.1404457E2,1.9314077E0,7.0142384E0,1.0118077E1,1.07466354E2,4.8724446E0,5.1043808E1,2.489124E0,1.0854521E3,2.5408524E1,2.0781558E2,2.385837E2,2.227459E0,1.8980296E2,2.745266E2,1.0937126E0,3.1657426E0,1.9794644E2,3.94711E0,4.4235798E1,1.0886041E0,2.7945047E1,1.2791696E0,1.127654E2,5.737183E0,1.2770553E0,2.6362057E0,7.481871E0,2.5132427E0,2.359202E0,5.0020344E1,1.0234623E0,9.628552E2,1.2259688E2,1.4004753E0,2.4008049E1,1.3535739E2,7.245819E1,2.2008609E2,1.8497608E1,1.8877226E2,1.0306963E0,2.703498E2,4.1768193E0,1.6771436E0,1.488599E0,2.1392958E0,1.9580714E2,4.1762398E1,2.4734025E0,1.2761965E0,4.4609866E0,1.232852E0,1.4033537E0,1.5502241E0,5.931647E0,1.2418151E0,1.1173867E0,6.9097107E2,2.7188412E2,4.6845943E1,7.575093E1,2.2945755E1,1.062295E0],"tree_param":{"num_deleted":"0","num_feature":"103","num_nodes":"105","size_leaf_vector":"1"}},{"base_weights":[-1.414193E-4,-3.9037928E-1,4.227987E-1,-1.0520228E-1,-1.3610308E0,-8.2600874E-1,5.8422434E-1,-4.3489522E-1,9.2327553E-1,-1.6480068E0,1.3770461E0,8.222308E-2,-1.4439433E0,1.6092772E0,4.8386514E-1,3.3241715E-2,-1.4918164E0,1.4733568E0,-3.1065884E-1,6.7068085E-2,-8.417238E-2,1.5598699E0,-2.2715248E-1,-1.6093206E0,-3.0462456E-1,1.6392704E0,-2.8513387E-2,-1.5017837E0,5.799143E-1,-6.2299156E-1,1.5625881E0,7.533779E-2,-1.5756248E0,-6.538106E-2,1.5208435E0,-8.272024E-2,8.890745E-1,1.6148821E0,4.8309608E-4,5.2344162E-2,-5.8864523E-2,-8.294129E-2,4.3101933E-2,6.4460504E-1,-9.6190006E-1,8.372165E-2,7.1493715E-1,5.084441E-2,-1.6430867E0,6.271342E-1,-1.3903236E0,5.4599615E-3,-1.1712685E0,-6.0882676E-2,1.601698E0,-1.5858907E0,2.5605936E-2,7.7457815E-2,1.5435601E0,-6.9237694E-2,1.1180927E0,8.205841E-2,2.4042448E-2,9.6686316E-1,-2.9332746E-2,1.2438866E-1,-1.3149306E0,6.328186E-2,-7.358486E-2,-8.3121225E-2,-1.724336E-2,7.314195E-1,-1.932777E-1,5.269155E-2,-1.5697905E0,-3.3099305E-2,6.2567465E-2,-6.996449E-2,7.38124E-2,8.075073E-2,-2.0808833E-2,-8.027294E-2,-1.3334784E-2,5.583025E-2,-5.355599E-2,7.825702E-2,3.2295678E-2,6.4239115E-2,-6.260299E-2,-2.814634E-2,7.151502E-2,-4.8267543E-2,5.4175634E-2,-1.563003E-2,-7.477027E-2,4.7069304E-2,-4.9962826E-2,2.8000126E-2,5.828717E-2,-7.660152E-2,3.1781167E-2,5.129987E-3,-8.243651E-2],"categories":[],"categories_nodes":[],"categories_segments":[],"categories_sizes":[],"default_left":[0,0,0,0,0,0,0,0,0,0,0,0,0,0,0,0,0,0,0,0,0,0,0,0,0,0,0,0,0,0,0,0,0,0,0,0,0,0,0,0,0,0,0,0,0,0,0,0,0,0,0,0,0,0,0,0,0,0,0,0,0,0,0,0,0,0,0,0,0,0,0,0,0,0,0,0,0,0,0,0,0,0,0,0,0,0,0,0,0,0,0,0,0,0,0,0,0,0,0,0,0,0,0],"id":4,"left_children":[1,3,5,7,9,11,13,15,17,19,21,-1,23,25,27,29,31,33,35,-1,-1,37,39,41,43,45,-1,47,49,51,53,-1,55,-1,57,-1,59,61,-1,-1,-1,-1,-1,63,65,-1,67,-1,69,71,73,75,77,-1,79,81,-1,83,85,-1,87,-1,-1,89,-1,91,93,-1,95,-1,-1,97,99,-1,101,-1,-1,-1,-1,-1,-1,-1,-1,-1,-1,-1,-1,-1,-1,-1,-1,-1,-1,-1,-1,-1,-1,-1,-1,-1,-1,-1,-1],"loss_changes":[4.941507E2,4.3090143E2,2.9012558E2,4.0888342E2,2.800595E2,2.5407918E2,1.301705E2,4.5174713E2,1.991668E2,3.6208008E1,1.0350342E1,0E0,2.4460632E1,8.32724E0,2.2226459E2,6.3692444E2,7.280371E1,2.8751648E1,1.4832439E2,0E0,0E0,2.604477E0,6.5100436E0,1.5549164E1,1.1862116E1,2.4368286E0,0E0,2.0831955E1,1.0395358E2,1.5303415E2,2.2669403E1,0E0,6.6658936E0,0E0,6.429016E0,0E0,2.694802E1,9.511566E-2,0E0,0E0,0E0,0E0,0E0,3.7299294E0,4.4003897E0,0E0,2.6301553E0,0E0,7.16095E-1,9.2777954E1,1.3166176E1,1.7373106E2,1.452569E2,0E0,5.73291E0,6.594116E0,0E0,6.1461024E0,2.7969055E0,0E0,1.9334164E1,0E0,0E0,5.5516906E0,0E0,4.833114E0,1.0565081E0,0E0,4.085785E0,0E0,0E0,7.088281E1,1.3735619E2,0E0,3.4498825E0,0E0,0E0,0E0,0E0,0E0,0E0,0E0,0E0,0E0,0E0,0E0,0E0,0E0,0E0,0E0,0E0,0E0,0E0,0E0,0E0,0E0,0E0,0E0,0E0,0E0,0E0,0E0,0E0],"parents":[2147483647,0,0,1,1,2,2,3,3,4,4,5,5,6,6,7,7,8,8,9,9,10,10,12,12,13,13,14,14,15,15,16,16,17,17,18,18,21,21,22,22,23,23,24,24,25,25,27,27,28,28,29,29,30,30,32,32,34,34,36,36,37,37,43,43,44,44,46,46,48,48,49,49,50,50,51,51,52,52,54,54,55,55,57,57,58,58,60,60,63,63,65,65,66,66,68,68,71,71,72,72,74,74],"right_children":[2,4,6,8,10,12,14,16,18,20,22,-1,24,26,28,30,32,34,36,-1,-1,38,40,42,44,46,-1,48,50,52,54,-1,56,-1,58,-1,60,62,-1,-1,-1,-1,-1,64,66,-1,68,-1,70,72,74,76,78,-1,80,82,-1,84,86,-1,88,-1,-1,90,-1,92,94,-1,96,-1,-1,98,100,-1,102,-1,-1,-1,-1,-1,-1,-1,-1,-1,-1,-1,-1,-1,-1,-1,-1,-1,-1,-1,-1,-1,-1,-1,-1,-1,-1,-1,-1],"split_conditions":[-3.6412296E-1,1.8188405E0,3.4686708E-1,4.5352972E-1,3.5744682E-1,-1.4266541E0,-1.4266541E0,3.065011E-1,6.903606E-1,-1.4266541E0,1.1180521E0,8.222308E-2,9.964284E0,1.5281832E0,-6.6988385E-1,1.8950362E0,-1.4266541E0,-2.1722725E-1,1.845833E0,6.7068085E-2,-8.417238E-2,3.7002325E0,-2.4129477E-1,1.9224976E1,-2.1658225E0,9.024493E-1,-2.8513387E-2,-1.2923773E-2,1.4946878E-1,-1.783722E0,-2.1722725E-1,7.533779E-2,1.5613011E0,-6.538106E-2,-3.178243E0,-8.272024E-2,-6.9043577E-1,4.9286575E0,4.8309608E-4,5.2344162E-2,-5.8864523E-2,-8.294129E-2,4.3101933E-2,4.673878E-1,-1.3565795E0,8.372165E-2,1.0692775E0,5.084441E-2,1.2521528E0,6.903606E-1,-7.089151E-1,-1.3107684E0,-7.061562E-1,-6.0882676E-2,4.490507E0,6.6753E0,2.5605936E-2,4.5537263E-1,2.114215E0,-6.9237694E-2,2.255575E0,8.205841E-2,2.4042448E-2,-2.1214252E0,-2.9332746E-2,9.1730505E-1,-2.9350958E0,6.328186E-2,-1.1122671E0,-8.3121225E-2,-1.724336E-2,6.0443413E-1,3.5744682E-1,5.269155E-2,-1.0729892E0,-3.3099305E-2,6.2567465E-2,-6.996449E-2,7.38124E-2,8.075073E-2,-2.0808833E-2,-8.027294E-2,-1.3334784E-2,5.583025E-2,-5.355599E-2,7.825702E-2,3.2295678E-2,6.4239115E-2,-6.260299E-2,-2.814634E-2,7.151502E-2,-4.8267543E-2,5.4175634E-2,-1.563003E-2,-7.477027E-2,4.7069304E-2,-4.9962826E-2,2.8000126E-2,5.828717E-2,-7.660152E-2,3.1781167E-2,5.129987E-3,-8.243651E-2],"split_indices":[24,8,30,29,0,2,2,0,29,2,50,0,22,0,40,9,2,39,29,0,0,99,16,37,23,37,0,58,37,31,39,0,0,0,54,0,0,85,0,0,0,0,0,57,44,0,26,0,16,29,60,0,0,0,54,37,0,39,45,0,29,0,0,45,0,0,30,0,0,0,0,1,0,0,3,0,0,0,0,0,0,0,0,0,0,0,0,0,0,0,0,0,0,0,0,0,0,0,0,0,0,0,0],"split_type":[0,0,0,0,0,0,0,0,0,0,0,0,0,0,0,0,0,0,0,0,0,0,0,0,0,0,0,0,0,0,0,0,0,0,0,0,0,0,0,0,0,0,0,0,0,0,0,0,0,0,0,0,0,0,0,0,0,0,0,0,0,0,0,0,0,0,0,0,0,0,0,0,0,0,0,0,0,0,0,0,0,0,0,0,0,0,0,0,0,0,0,0,0,0,0,0,0,0,0,0,0,0,0],"sum_hessian":[2.9919954E3,1.5561998E3,1.4357955E3,1.2036704E3,3.5252942E2,1.6388046E2,1.271915E3,9.119191E2,2.9175125E2,3.1944656E2,3.3082867E1,3.2457165E1,1.314233E2,1.1208291E2,1.1598322E3,6.326646E2,2.7925452E2,2.0165881E2,9.0092445E1,3.3111227E0,3.1613544E2,2.9723085E1,3.3597815E0,1.1440443E2,1.7018871E1,1.1080596E2,1.2769454E0,5.2839127E1,1.106993E3,4.43118E2,1.8954662E2,7.1311593E0,2.7212335E2,2.9400964E0,1.9871872E2,4.2316933E1,4.7775517E1,2.866416E1,1.0589249E0,1.3917576E0,1.968024E0,1.1248005E2,1.9243727E0,6.970882E0,1.004799E1,1.059635E2,4.8424582E0,2.4777448E0,5.036138E1,1.0817489E3,2.5244186E1,2.0692471E2,2.361933E2,2.2113655E0,1.8733525E2,2.71031E2,1.0923321E0,3.147393E0,1.9557132E2,3.9098372E0,4.386568E1,2.7577734E1,1.0864254E0,5.695051E0,1.275831E0,2.623385E0,7.424605E0,2.4949336E0,2.3475246E0,4.9345802E1,1.0155778E0,9.598479E2,1.2190097E2,1.3935442E0,2.3850641E1,1.3504646E2,7.187824E1,2.17898E2,1.8295311E1,1.863054E2,1.0298386E0,2.6685562E2,4.175385E0,1.6670276E0,1.4803653E0,1.9025385E2,5.317481E0,4.1411217E1,2.4544637E0,1.2742199E0,4.420831E0,1.2250326E0,1.3983524E0,1.549732E0,5.8748727E0,1.1116537E0,1.2358708E0,6.898646E2,2.6998328E2,4.6290012E1,7.561096E1,1.0615366E0,2.2789104E1],"tree_param":{"num_deleted":"0","num_feature":"103","num_nodes":"103","size_leaf_vector":"1"}},{"base_weights":[-1.7281371E-4,-3.7608117E-1,4.0449622E-1,-1.0128793E-1,-1.3152611E0,-7.9748195E-1,5.5835825E-1,-4.183241E-1,8.893782E-1,-1.5933487E0,1.3298839E0,7.952228E-2,-1.3943027E0,1.5556295E0,4.618421E-1,3.205647E-2,-1.4396461E0,1.4205612E0,-3.0087537E-1,6.504424E-2,-8.139657E-2,1.5076222E0,-2.186125E-1,-1.5550197E0,-2.9566532E-1,1.5851358E0,-2.7741453E-2,-1.4504856E0,5.5330604E-1,-5.9716904E-1,1.5084634E0,7.292871E-2,-1.5208633E0,-6.3438036E-2,1.4667559E0,-7.999995E-2,8.5195845E-1,1.5628574E0,-6.220927E-4,5.101896E-2,-5.7234157E-2,-1.6035525E0,4.1809622E-2,6.185173E-1,-9.2900395E-1,8.096283E-2,6.9399613E-1,-1.5889769E0,4.94636E-2,6.618806E-1,-2.7322474E-1,5.4285824E-3,-1.1265477E0,-5.9155803E-2,1.5466651E0,-1.2943935E-1,-1.5388566E0,7.4554294E-2,1.4888252E0,-6.711059E-2,1.0730656E0,2.2734977E-2,7.94602E-2,-2.5920054E-2,-1.6113302E0,9.3249816E-1,-2.853289E-2,-7.666236E-3,-1.3397411E0,6.1640143E-2,-7.6474056E-2,-8.0390975E-2,-1.6807964E-2,7.018269E-1,-1.3307492E0,-1.1009319E0,2.658228E-1,-3.1544648E-2,6.0066093E-2,-6.7303576E-2,7.1227126E-2,7.7988066E-2,-2.0291835E-2,-4.387777E-2,5.7681024E-2,-7.791849E-2,-1.2801312E-2,5.4343488E-2,-5.2175112E-2,7.507934E-2,1.1301159E-2,6.17278E-2,-6.0793508E-2,-3.0520251E-2,-8.1065804E-2,-2.7387766E-2,6.9248624E-2,-5.1599484E-2,4.2960417E-2,-7.198067E-2,-1.7355552E-2,-4.874517E-2,4.561505E-2,2.6044393E-2,5.559791E-2,-7.4090496E-2,3.2028876E-2,-7.443414E-2,3.7329958E-3,-4.2765122E-2,2.3011314E-2],"categories":[],"categories_nodes":[],"categories_segments":[],"categories_sizes":[],"default_left":[0,0,0,0,0,0,0,0,0,0,0,0,0,0,0,0,0,0,0,0,0,0,0,0,0,0,0,0,0,0,0,0,0,0,0,0,0,0,0,0,0,0,0,0,0,0,0,0,0,0,0,0,0,0,0,0,0,0,0,0,0,0,0,0,0,0,0,0,0,0,0,0,0,0,0,0,0,0,0,0,0,0,0,0,0,0,0,0,0,0,0,0,0,0,0,0,0,0,0,0,0,0,0,0,0,0,0,0,0,0,0],"id":5,"left_children":[1,3,5,7,9,11,13,15,17,19,21,-1,23,25,27,29,31,33,35,-1,-1,37,39,41,43,45,-1,47,49,51,53,-1,55,-1,57,-1,59,61,-1,-1,-1,63,-1,65,67,-1,69,71,-1,73,75,77,79,-1,81,83,85,87,89,-1,91,-1,-1,-1,93,95,-1,97,99,-1,101,-1,-1,103,105,107,109,-1,-1,-1,-1,-1,-1,-1,-1,-1,-1,-1,-1,-1,-1,-1,-1,-1,-1,-1,-1,-1,-1,-1,-1,-1,-1,-1,-1,-1,-1,-1,-1,-1,-1],"loss_changes":[4.507372E2,3.9630933E2,2.6434296E2,3.739636E2,2.578299E2,2.3358305E2,1.21099396E2,4.1485632E2,1.8295392E2,3.3647705E1,9.581409E0,0E0,2.2567444E1,7.8075256E0,2.0288336E2,5.8319214E2,6.718329E1,2.6681183E1,1.3601651E2,0E0,0E0,2.5618515E0,6.141369E0,1.4516998E1,1.0925771E1,2.220337E0,0E0,1.9484062E1,9.919443E1,1.4043376E2,2.1118439E1,0E0,6.534607E0,0E0,5.9380493E0,0E0,2.4867432E1,1.3071442E-1,0E0,0E0,0E0,1.0675049E-1,0E0,3.4882085E0,4.137662E0,0E0,2.5044627E0,6.5276337E-1,0E0,7.858359E1,5.77667E1,1.5817479E2,1.3315717E2,0E0,5.373657E0,5.356311E0,6.2453613E0,5.80288E0,2.7829895E0,0E0,1.792197E1,0E0,0E0,0E0,1.1331177E-1,5.2079535E0,0E0,4.7808447E0,2.51297E-1,0E0,3.8483467E0,0E0,0E0,7.043878E1,6.7612534E0,2.335849E1,1.7571676E1,0E0,0E0,0E0,0E0,0E0,0E0,0E0,0E0,0E0,0E0,0E0,0E0,0E0,0E0,0E0,0E0,0E0,0E0,0E0,0E0,0E0,0E0,0E0,0E0,0E0,0E0,0E0,0E0,0E0,0E0,0E0,0E0,0E0,0E0],"parents":[2147483647,0,0,1,1,2,2,3,3,4,4,5,5,6,6,7,7,8,8,9,9,10,10,12,12,13,13,14,14,15,15,16,16,17,17,18,18,21,21,22,22,23,23,24,24,25,25,27,27,28,28,29,29,30,30,32,32,34,34,36,36,37,37,41,41,43,43,44,44,46,46,47,47,49,49,50,50,51,51,52,52,54,54,55,55,56,56,57,57,58,58,60,60,64,64,65,65,67,67,68,68,70,70,73,73,74,74,75,75,76,76],"right_children":[2,4,6,8,10,12,14,16,18,20,22,-1,24,26,28,30,32,34,36,-1,-1,38,40,42,44,46,-1,48,50,52,54,-1,56,-1,58,-1,60,62,-1,-1,-1,64,-1,66,68,-1,70,72,-1,74,76,78,80,-1,82,84,86,88,90,-1,92,-1,-1,-1,94,96,-1,98,100,-1,102,-1,-1,104,106,108,110,-1,-1,-1,-1,-1,-1,-1,-1,-1,-1,-1,-1,-1,-1,-1,-1,-1,-1,-1,-1,-1,-1,-1,-1,-1,-1,-1,-1,-1,-1,-1,-1,-1,-1],"split_conditions":[-3.6412296E-1,1.8188405E0,3.4686708E-1,4.5352972E-1,3.5744682E-1,-1.4266541E0,-1.4266541E0,3.065011E-1,6.903606E-1,-1.4266541E0,1.1180521E0,7.952228E-2,9.964284E0,1.5281832E0,-6.6988385E-1,1.8950362E0,-1.4266541E0,-2.1722725E-1,1.845833E0,6.504424E-2,-8.139657E-2,1.2553954E0,-2.4129477E-1,1.9224976E1,-2.1658225E0,9.024493E-1,-2.7741453E-2,6.8465546E-2,1.7510597E0,-1.783722E0,-2.1722725E-1,7.292871E-2,-1.8545761E0,-6.3438036E-2,-3.178243E0,-7.999995E-2,-6.9043577E-1,-9.647618E-1,-6.220927E-4,5.101896E-2,-5.7234157E-2,-2.3988907E0,4.1809622E-2,4.673878E-1,-2.3053877E0,8.096283E-2,-1.1122671E0,1.5947187E-1,4.94636E-2,1.4946878E-1,1.3481872E0,-1.3107684E0,-7.061562E-1,-5.9155803E-2,4.490507E0,8.940629E-3,6.6753E0,4.5537263E-1,2.325233E0,-6.711059E-2,2.255575E0,2.2734977E-2,7.94602E-2,-2.5920054E-2,-2.0785007E0,-2.1214252E0,-2.853289E-2,-1.5208323E-1,3.7807164E-1,6.1640143E-2,5.809535E-1,-8.0390975E-2,-1.6807964E-2,6.0443413E-1,1.6203281E0,4.6912053E-1,-6.7605007E-1,-3.1544648E-2,6.0066093E-2,-6.7303576E-2,7.1227126E-2,7.7988066E-2,-2.0291835E-2,-4.387777E-2,5.7681024E-2,-7.791849E-2,-1.2801312E-2,5.4343488E-2,-5.2175112E-2,7.507934E-2,1.1301159E-2,6.17278E-2,-6.0793508E-2,-3.0520251E-2,-8.1065804E-2,-2.7387766E-2,6.9248624E-2,-5.1599484E-2,4.2960417E-2,-7.198067E-2,-1.7355552E-2,-4.874517E-2,4.561505E-2,2.6044393E-2,5.559791E-2,-7.4090496E-2,3.2028876E-2,-7.443414E-2,3.7329958E-3,-4.2765122E-2,2.3011314E-2],"split_indices":[24,8,30,29,0,2,2,0,29,2,50,0,22,0,40,9,2,39,29,0,0,55,16,37,23,37,0,42,16,31,39,0,31,0,54,0,0,4,0,0,0,42,0,57,27,0,0,52,0,37,24,0,0,0,54,42,37,39,52,0,29,0,0,0,7,45,0,46,58,0,0,0,0,1,24,56,50,0,0,0,0,0,0,0,0,0,0,0,0,0,0,0,0,0,0,0,0,0,0,0,0,0,0,0,0,0,0,0,0,0,0],"split_type":[0,0,0,0,0,0,0,0,0,0,0,0,0,0,0,0,0,0,0,0,0,0,0,0,0,0,0,0,0,0,0,0,0,0,0,0,0,0,0,0,0,0,0,0,0,0,0,0,0,0,0,0,0,0,0,0,0,0,0,0,0,0,0,0,0,0,0,0,0,0,0,0,0,0,0,0,0,0,0,0,0,0,0,0,0,0,0,0,0,0,0,0,0,0,0,0,0,0,0,0,0,0,0,0,0,0,0,0,0,0,0],"sum_hessian":[2.961067E3,1.535121E3,1.425946E3,1.1884902E3,3.466307E2,1.6134299E2,1.264603E3,9.007932E2,2.8769702E2,3.1401547E2,3.2615227E1,3.1928728E1,1.2941426E2,1.1025498E2,1.154348E3,6.2579846E2,2.7499475E2,1.9878868E2,8.890835E1,3.275446E0,3.1074002E2,2.9280743E1,3.3344824E0,1.125362E2,1.687806E1,1.0898025E2,1.2747345E0,5.20125E1,1.1023356E3,4.3920886E2,1.865896E2,7.0338573E0,2.679609E2,2.910019E0,1.9587866E2,4.1619556E1,4.728879E1,2.8226898E1,1.0538454E0,1.382712E0,1.9517704E0,1.10620415E2,1.9157844E0,6.9170933E0,9.960967E0,1.0417445E2,4.805793E0,4.9548622E1,2.4638782E0,9.7452E2,1.27815475E2,2.0586276E2,2.3334612E2,2.191802E0,1.843978E2,3.5255198E0,2.644354E2,3.124953E0,1.9275371E2,3.8648915E0,4.34239E1,1.0795304E0,2.7147367E1,1.2686636E0,1.0935175E2,5.6430016E0,1.2740916E0,3.3855028E0,6.5754642E0,2.474944E0,2.3308487E0,4.8535282E1,1.0133421E0,9.560028E2,1.8517225E1,4.9999268E1,7.781621E1,1.3467574E2,7.118701E1,2.1529236E2,1.8053757E1,1.8336902E2,1.028778E0,2.4266522E0,1.0988677E0,2.6026175E2,4.173633E0,1.6546693E0,1.4702837E0,1.9063809E2,2.1156206E0,4.099242E1,2.4314804E0,1.6938807E0,1.0765787E2,1.2717943E0,4.371207E0,1.4645166E0,1.9209862E0,5.5652246E0,1.0102394E0,1.2285668E0,1.1022818E0,6.649254E2,2.9107742E2,1.7429907E1,1.0873177E0,3.739784E1,1.2601428E1,1.0996979E1,6.681923E1],"tree_param":{"num_deleted":"0","num_feature":"103","num_nodes":"111","size_leaf_vector":"1"}},{"base_weights":[-2.634755E-4,-3.6308947E-1,3.8697755E-1,-9.773461E-2,-1.2743886E0,-7.722719E-1,5.335705E-1,-4.0313956E-1,8.585244E-1,-1.5446407E0,1.2870954E0,7.710469E-2,-1.3501639E0,1.5076361E0,4.4064587E-1,3.0975204E-2,-1.3926058E0,1.3726603E0,-2.9203156E-1,6.317323E-2,-7.892462E-2,1.4603901E0,-2.1060234E-1,-1.5068604E0,-2.8831175E-1,1.5367765E0,-2.699626E-2,-1.404384E0,5.2765524E-1,-5.7316387E-1,1.4597552E0,7.073729E-2,-1.4715058E0,-6.1636355E-2,1.4177122E0,-7.756804E-2,8.175965E-1,1.5148352E0,-6.061189E-4,4.9764153E-2,-5.5705823E-2,-1.5546153E0,4.057824E-2,5.942225E-1,-9.000407E-1,7.850301E-2,6.7443615E-1,4.8173286E-2,-1.5405862E0,6.31574E-1,-2.6417264E-1,5.4062414E-3,-1.0855141E0,-5.7542283E-2,1.4971786E0,-1.2048659E-1,-1.4892236E0,7.182603E-2,1.439223E0,-6.515197E-2,1.0313783E0,2.2176273E-2,7.702553E-2,-2.5235716E-2,-1.5622227E0,9.006717E-1,-2.776122E-2,1.3342673E-1,-1.239057E0,5.9902456E-2,-7.39649E-2,-7.79866E-2,-1.5336575E-2,6.698567E-1,-1.2860162E0,-1.4843515E0,4.4496113E-1,-3.007457E-2,5.7746943E-2,-6.486117E-2,6.886895E-2,7.550542E-2,-1.9789813E-2,-4.2584326E-2,5.607126E-2,-7.5424105E-2,-1.228991E-2,5.29431E-2,-5.0869968E-2,8.858711E-3,7.26141E-2,-7.866994E-2,5.860259E-2,-2.9694324E-2,-7.859668E-2,-2.6655221E-2,6.717076E-2,-4.5496024E-2,5.199858E-2,-1.4699127E-2,-7.055348E-2,-4.7588192E-2,4.45941E-2,2.969944E-2,7.8589685E-2,-7.15003E-2,2.9864524E-2,-7.970484E-2,6.1437268E-2,-9.0043746E-2,5.1762868E-2],"categories":[],"categories_nodes":[],"categories_segments":[],"categories_sizes":[],"default_left":[0,0,0,0,0,0,0,0,0,0,0,0,0,0,0,0,0,0,0,0,0,0,0,0,0,0,0,0,0,0,0,0,0,0,0,0,0,0,0,0,0,0,0,0,0,0,0,0,0,0,0,0,0,0,0,0,0,0,0,0,0,0,0,0,0,0,0,0,0,0,0,0,0,0,0,0,0,0,0,0,0,0,0,0,0,0,0,0,0,0,0,0,0,0,0,0,0,0,0,0,0,0,0,0,0,0,0,0,0,0,0],"id":6,"left_children":[1,3,5,7,9,11,13,15,17,19,21,-1,23,25,27,29,31,33,35,-1,-1,37,39,41,43,45,-1,47,49,51,53,-1,55,-1,57,-1,59,61,-1,-1,-1,63,-1,65,67,-1,69,-1,71,73,75,77,79,-1,81,83,85,87,89,-1,91,-1,-1,-1,93,95,-1,97,99,-1,101,-1,-1,103,105,107,109,-1,-1,-1,-1,-1,-1,-1,-1,-1,-1,-1,-1,-1,-1,-1,-1,-1,-1,-1,-1,-1,-1,-1,-1,-1,-1,-1,-1,-1,-1,-1,-1,-1,-1],"loss_changes":[4.115487E2,3.6556348E2,2.4119731E2,3.427099E2,2.3801196E2,2.153646E2,1.132424E2,3.819928E2,1.684526E2,3.1355103E1,8.894554E0,0E0,2.0886444E1,7.3444366E0,1.8539612E2,5.3516534E2,6.2148193E1,2.48154E1,1.2502843E2,0E0,0E0,2.405857E0,5.7994547E0,1.3598206E1,1.0098318E1,2.0383759E0,0E0,1.8278687E1,9.061319E1,1.291845E2,1.9722961E1,0E0,6.145996E0,0E0,5.5030212E0,0E0,2.2985153E1,1.0688019E-1,0E0,0E0,0E0,8.6242676E-2,0E0,3.2667408E0,3.970275E0,0E0,2.3471055E0,0E0,6.939163E-1,7.221298E1,1.11608986E2,1.4417249E2,1.2229736E2,0E0,5.054138E0,5.049421E0,5.873291E0,5.4840097E0,2.8832397E0,0E0,1.7938316E1,0E0,0E0,0E0,8.441162E-2,4.8946857E0,0E0,4.337432E0,9.3034935E-1,0E0,3.6587682E0,0E0,0E0,6.43183E1,6.105938E0,1.6060287E1,1.103918E2,0E0,0E0,0E0,0E0,0E0,0E0,0E0,0E0,0E0,0E0,0E0,0E0,0E0,0E0,0E0,0E0,0E0,0E0,0E0,0E0,0E0,0E0,0E0,0E0,0E0,0E0,0E0,0E0,0E0,0E0,0E0,0E0,0E0,0E0],"parents":[2147483647,0,0,1,1,2,2,3,3,4,4,5,5,6,6,7,7,8,8,9,9,10,10,12,12,13,13,14,14,15,15,16,16,17,17,18,18,21,21,22,22,23,23,24,24,25,25,27,27,28,28,29,29,30,30,32,32,34,34,36,36,37,37,41,41,43,43,44,44,46,46,48,48,49,49,50,50,51,51,52,52,54,54,55,55,56,56,57,57,58,58,60,60,64,64,65,65,67,67,68,68,70,70,73,73,74,74,75,75,76,76],"right_children":[2,4,6,8,10,12,14,16,18,20,22,-1,24,26,28,30,32,34,36,-1,-1,38,40,42,44,46,-1,48,50,52,54,-1,56,-1,58,-1,60,62,-1,-1,-1,64,-1,66,68,-1,70,-1,72,74,76,78,80,-1,82,84,86,88,90,-1,92,-1,-1,-1,94,96,-1,98,100,-1,102,-1,-1,104,106,108,110,-1,-1,-1,-1,-1,-1,-1,-1,-1,-1,-1,-1,-1,-1,-1,-1,-1,-1,-1,-1,-1,-1,-1,-1,-1,-1,-1,-1,-1,-1,-1,-1,-1,-1],"split_conditions":[-3.6412296E-1,1.8188405E0,3.4686708E-1,4.5352972E-1,3.5744682E-1,-1.4266541E0,-1.4266541E0,3.065011E-1,6.903606E-1,-1.4266541E0,1.1180521E0,7.710469E-2,9.964284E0,1.5281832E0,-6.6988385E-1,1.8950362E0,-1.4266541E0,-2.1722725E-1,1.845833E0,6.317323E-2,-7.892462E-2,1.2553954E0,-2.4129477E-1,1.9224976E1,-2.1658225E0,9.024493E-1,-2.699626E-2,-1.2923773E-2,6.903606E-1,-1.783722E0,-2.1722725E-1,7.073729E-2,-1.8545761E0,-6.1636355E-2,-3.178243E0,-7.756804E-2,-6.9043577E-1,-9.647618E-1,-6.061189E-4,4.9764153E-2,-5.5705823E-2,-2.3988907E0,4.057824E-2,4.673878E-1,-1.3565795E0,7.850301E-2,-1.1122671E0,4.8173286E-2,1.2521528E0,1.4946878E-1,3.5744682E-1,-1.3107684E0,-7.061562E-1,-5.7542283E-2,4.490507E0,8.940629E-3,6.6753E0,4.5537263E-1,-1.410595E0,-6.515197E-2,-2.1722725E-1,2.2176273E-2,7.702553E-2,-2.5235716E-2,-2.0785007E0,-2.1214252E0,-2.776122E-2,9.1730505E-1,-3.0661545E0,5.9902456E-2,5.809535E-1,-7.79866E-2,-1.5336575E-2,3.0446367E0,1.8950362E0,1.8950362E0,1.845833E0,-3.007457E-2,5.7746943E-2,-6.486117E-2,6.886895E-2,7.550542E-2,-1.9789813E-2,-4.2584326E-2,5.607126E-2,-7.5424105E-2,-1.228991E-2,5.29431E-2,-5.0869968E-2,8.858711E-3,7.26141E-2,-7.866994E-2,5.860259E-2,-2.9694324E-2,-7.859668E-2,-2.6655221E-2,6.717076E-2,-4.5496024E-2,5.199858E-2,-1.4699127E-2,-7.055348E-2,-4.7588192E-2,4.45941E-2,2.969944E-2,7.8589685E-2,-7.15003E-2,2.9864524E-2,-7.970484E-2,6.1437268E-2,-9.0043746E-2,5.1762868E-2],"split_indices":[24,8,30,29,0,2,2,0,29,2,50,0,22,0,40,9,2,39,29,0,0,55,16,37,23,37,0,58,29,31,39,0,31,0,54,0,0,4,0,0,0,42,0,57,44,0,0,0,16,37,0,0,0,0,54,42,37,39,7,0,39,0,0,0,7,45,0,0,27,0,0,0,0,10,9,9,29,0,0,0,0,0,0,0,0,0,0,0,0,0,0,0,0,0,0,0,0,0,0,0,0,0,0,0,0,0,0,0,0,0,0],"split_type":[0,0,0,0,0,0,0,0,0,0,0,0,0,0,0,0,0,0,0,0,0,0,0,0,0,0,0,0,0,0,0,0,0,0,0,0,0,0,0,0,0,0,0,0,0,0,0,0,0,0,0,0,0,0,0,0,0,0,0,0,0,0,0,0,0,0,0,0,0,0,0,0,0,0,0,0,0,0,0,0,0,0,0,0,0,0,0,0,0,0,0,0,0,0,0,0,0,0,0,0,0,0,0,0,0,0,0,0,0,0,0],"sum_hessian":[2.9271492E3,1.5112468E3,1.4159023E3,1.1712932E3,3.3995352E2,1.5846909E2,1.2574333E3,8.8820233E2,2.8309094E2,3.078685E2,3.208502E1,3.1329792E1,1.271393E2,1.0818451E2,1.1492488E3,6.180222E2,2.7018008E2,1.955256E2,8.756534E1,3.234478E0,3.0463403E2,2.8779882E1,3.3051355E0,1.1042492E2,1.6714382E1,1.06912415E2,1.2720946E0,5.1074562E1,1.0981742E3,4.3478043E2,1.832418E2,6.922947E0,2.6325714E2,2.8754256E0,1.9265018E2,4.0829453E1,4.6735886E1,2.772599E1,1.053892E0,1.3721759E0,1.9329594E0,1.085191E2,1.9058203E0,6.854333E0,9.860048E0,1.02149086E2,4.7633343E0,2.4477158E0,4.8626846E1,9.709501E2,1.2722413E2,2.0465913E2,2.3012129E2,2.169205E0,1.810726E2,3.5087347E0,2.597484E2,3.098879E0,1.895513E2,3.8133814E0,4.2922504E1,1.0766575E0,2.6649334E1,1.2651206E0,1.07253975E2,5.5824494E0,1.2718832E0,2.5853179E0,7.2747307E0,2.4490583E0,2.3142762E0,4.7623756E1,1.0030887E0,9.525834E2,1.8366713E1,4.63604E1,8.086373E1,1.3425548E2,7.040365E1,2.1234178E2,1.7779512E1,1.8004506E2,1.0275308E0,2.4062319E0,1.102503E0,2.555768E2,4.1716065E0,1.6403239E0,1.4585552E0,2.0904918E0,1.874608E2,1.6774406E0,4.1245064E1,1.6820602E0,1.05571915E2,1.268962E0,4.3134875E0,1.2002361E0,1.3850818E0,1.5373384E0,5.7373924E0,1.2200389E0,1.0942372E0,8.802022E2,7.2381134E1,1.7285805E1,1.0809075E0,4.495443E1,1.4059725E0,1.640367E1,6.446006E1],"tree_param":{"num_deleted":"0","num_feature":"103","num_nodes":"111","size_leaf_vector":"1"}},{"base_weights":[-3.5268712E-4,-3.453533E-1,3.7728897E-1,-8.8398114E-2,-1.227833E0,-7.4356335E-1,5.1883256E-1,-3.8246602E-1,8.395422E-1,-1.5065023E0,1.2749411E0,7.492896E-2,-1.307983E0,1.4633441E0,4.2964646E-1,3.7168596E-2,-1.3553168E0,1.3346059E0,-2.7759075E-1,6.143698E-2,-7.696299E-2,1.4354403E0,-2.030707E-1,-1.4626967E0,-2.8057095E-1,1.4926369E0,-2.6276425E-2,-1.3593694E0,5.128623E-1,-5.288854E-1,1.417443E0,6.873413E-2,-1.4315826E0,-5.9959825E-2,1.3780966E0,-7.53822E-2,7.887891E-1,1.48718E0,-1.6278205E-3,4.8573818E-2,-5.4269325E-2,-1.5103266E0,3.9402913E-2,5.715192E-1,-8.7156093E-1,7.628616E-2,6.561556E-1,-1.4960862E0,4.6932384E-2,6.189208E-1,-2.7524903E-1,2.291369E-2,-1.0204376E0,-8.6479485E-1,1.4592367E0,-1.1207799E-1,-1.4489936E0,6.925694E-2,1.3989006E0,-6.334111E-2,9.9421394E-1,7.558929E-2,2.097962E-2,-2.4573712E-2,-1.5178978E0,8.7107867E-1,-2.7016228E-2,-1.0794939E0,2.6465043E-2,5.8466155E-2,-7.6654226E-2,-7.576581E-2,-1.496836E-2,4.4577804E-1,1.0169656E0,-1.0536993E0,2.3121332E-1,-2.9415367E-2,5.7273757E-2,-6.1580908E-2,6.473361E-2,-1.4037718E-2,-5.136261E-2,7.360398E-2,-1.930218E-2,-4.135039E-2,5.4550584E-2,-7.339952E-2,-1.1799523E-2,5.1621098E-2,-4.9633943E-2,7.6447524E-2,6.0158223E-2,5.767628E-2,-6.0731556E-2,-2.8897166E-2,-7.6375626E-2,-2.594736E-2,6.525739E-2,-6.21058E-2,7.036466E-3,4.329064E-2,-4.6487123E-2,3.819709E-2,-9.342368E-2,5.8434766E-2,-9.676661E-2,-7.107394E-2,2.9381893E-3,-4.1985977E-2,2.0916356E-2],"categories":[],"categories_nodes":[],"categories_segments":[],"categories_sizes":[],"default_left":[0,0,0,0,0,0,0,0,0,0,0,0,0,0,0,0,0,0,0,0,0,0,0,0,0,0,0,0,0,0,0,0,0,0,0,0,0,0,0,0,0,0,0,0,0,0,0,0,0,0,0,0,0,0,0,0,0,0,0,0,0,0,0,0,0,0,0,0,0,0,0,0,0,0,0,0,0,0,0,0,0,0,0,0,0,0,0,0,0,0,0,0,0,0,0,0,0,0,0,0,0,0,0,0,0,0,0,0,0,0,0],"id":7,"left_children":[1,3,5,7,9,11,13,15,17,19,21,-1,23,25,27,29,31,33,35,-1,-1,37,39,41,43,45,-1,47,49,51,53,-1,55,-1,57,-1,59,61,-1,-1,-1,63,-1,65,67,-1,69,71,-1,73,75,77,79,81,83,85,87,89,91,-1,93,-1,-1,-1,95,97,-1,99,-1,-1,101,-1,-1,103,105,107,109,-1,-1,-1,-1,-1,-1,-1,-1,-1,-1,-1,-1,-1,-1,-1,-1,-1,-1,-1,-1,-1,-1,-1,-1,-1,-1,-1,-1,-1,-1,-1,-1,-1,-1],"loss_changes":[3.7668906E2,3.425028E2,2.1937291E2,3.1993246E2,2.3950592E2,1.9833759E2,1.02658295E2,3.6342395E2,1.5642487E2,2.9396606E1,8.516125E0,0E0,1.937999E1,6.923523E0,1.6769997E2,4.8737415E2,5.7821655E1,2.321753E1,1.1593018E2,0E0,0E0,2.4332657E0,5.4818325E0,1.2765152E1,9.326841E0,1.8800964E0,0E0,1.7155174E1,8.982761E1,1.200247E2,1.856546E1,0E0,5.8444214E0,0E0,5.1544495E0,0E0,2.1322205E1,1.6295624E-1,0E0,0E0,0E0,7.2265625E-2,0E0,3.0632043E0,3.7021456E0,0E0,2.2390444E0,6.4416504E-1,0E0,6.472415E1,5.0676315E1,1.4436037E2,1.1600142E2,8.0708265E-2,4.7989197E0,4.7633076E0,5.5981445E0,5.1873255E0,2.9915771E0,0E0,1.6798225E1,0E0,0E0,0E0,6.4437866E-2,4.608042E0,0E0,2.0972338E0,0E0,0E0,3.4522107E0,0E0,0E0,4.879995E2,1.303277E2,2.078627E1,1.6045177E1,0E0,0E0,0E0,0E0,0E0,0E0,0E0,0E0,0E0,0E0,0E0,0E0,0E0,0E0,0E0,0E0,0E0,0E0,0E0,0E0,0E0,0E0,0E0,0E0,0E0,0E0,0E0,0E0,0E0,0E0,0E0,0E0,0E0,0E0],"parents":[2147483647,0,0,1,1,2,2,3,3,4,4,5,5,6,6,7,7,8,8,9,9,10,10,12,12,13,13,14,14,15,15,16,16,17,17,18,18,21,21,22,22,23,23,24,24,25,25,27,27,28,28,29,29,30,30,32,32,34,34,36,36,37,37,41,41,43,43,44,44,46,46,47,47,49,49,50,50,51,51,52,52,53,53,54,54,55,55,56,56,57,57,58,58,60,60,64,64,65,65,67,67,70,70,73,73,74,74,75,75,76,76],"right_children":[2,4,6,8,10,12,14,16,18,20,22,-1,24,26,28,30,32,34,36,-1,-1,38,40,42,44,46,-1,48,50,52,54,-1,56,-1,58,-1,60,62,-1,-1,-1,64,-1,66,68,-1,70,72,-1,74,76,78,80,82,84,86,88,90,92,-1,94,-1,-1,-1,96,98,-1,100,-1,-1,102,-1,-1,104,106,108,110,-1,-1,-1,-1,-1,-1,-1,-1,-1,-1,-1,-1,-1,-1,-1,-1,-1,-1,-1,-1,-1,-1,-1,-1,-1,-1,-1,-1,-1,-1,-1,-1,-1,-1],"split_conditions":[-3.513817E-1,1.8188405E0,3.4686708E-1,4.5352972E-1,3.5744682E-1,-1.4266541E0,-1.4266541E0,3.177989E-1,6.903606E-1,-1.4266541E0,1.1180521E0,7.492896E-2,9.964284E0,1.5281832E0,-6.6988385E-1,1.8950362E0,-1.4266541E0,-2.1722725E-1,1.845833E0,6.143698E-2,-7.696299E-2,3.7002325E0,-2.4129477E-1,1.9224976E1,-2.1658225E0,9.024493E-1,-2.6276425E-2,6.8465546E-2,1.7510597E0,-1.783722E0,-6.0311824E-1,6.873413E-2,-1.8545761E0,-5.9959825E-2,-3.178243E0,-7.53822E-2,-6.9043577E-1,4.9286575E0,-1.6278205E-3,4.8573818E-2,-5.4269325E-2,-2.3988907E0,3.9402913E-2,4.673878E-1,1.6476538E0,7.628616E-2,1.0692775E0,1.5947187E-1,4.6932384E-2,6.0443413E-1,1.3481872E0,-1.3107684E0,-7.061562E-1,-6.399768E-1,4.490507E0,8.940629E-3,6.6753E0,4.5537263E-1,9.837893E-1,-6.334111E-2,2.255575E0,7.558929E-2,2.097962E-2,-2.4573712E-2,-2.0785007E0,-2.1214252E0,-2.7016228E-2,2.7841654E-1,2.6465043E-2,5.8466155E-2,-1.1122671E0,-7.576581E-2,-1.496836E-2,1.8188405E0,1.8950362E0,4.6912053E-1,-6.7605007E-1,-2.9415367E-2,5.7273757E-2,-6.1580908E-2,6.473361E-2,-1.4037718E-2,-5.136261E-2,7.360398E-2,-1.930218E-2,-4.135039E-2,5.4550584E-2,-7.339952E-2,-1.1799523E-2,5.1621098E-2,-4.9633943E-2,7.6447524E-2,6.0158223E-2,5.767628E-2,-6.0731556E-2,-2.8897166E-2,-7.6375626E-2,-2.594736E-2,6.525739E-2,-6.21058E-2,7.036466E-3,4.329064E-2,-4.6487123E-2,3.819709E-2,-9.342368E-2,5.8434766E-2,-9.676661E-2,-7.107394E-2,2.9381893E-3,-4.1985977E-2,2.0916356E-2],"split_indices":[24,8,30,29,0,2,2,0,29,2,50,0,22,0,40,9,2,39,29,0,0,99,16,37,23,37,0,42,16,31,40,0,31,0,54,0,0,85,0,0,0,42,0,57,47,0,26,52,0,1,24,0,0,16,54,42,37,39,0,0,29,0,0,0,7,45,0,60,0,0,0,0,0,8,9,56,50,0,0,0,0,0,0,0,0,0,0,0,0,0,0,0,0,0,0,0,0,0,0,0,0,0,0,0,0,0,0,0,0,0,0],"split_type":[0,0,0,0,0,0,0,0,0,0,0,0,0,0,0,0,0,0,0,0,0,0,0,0,0,0,0,0,0,0,0,0,0,0,0,0,0,0,0,0,0,0,0,0,0,0,0,0,0,0,0,0,0,0,0,0,0,0,0,0,0,0,0,0,0,0,0,0,0,0,0,0,0,0,0,0,0,0,0,0,0,0,0,0,0,0,0,0,0,0,0,0,0,0,0,0,0,0,0,0,0,0,0,0,0,0,0,0,0,0,0],"sum_hessian":[2.889234E3,1.5099136E3,1.3793203E3,1.1702634E3,3.3965018E2,1.5417664E2,1.2251437E3,8.890939E2,2.8116946E2,3.0597922E2,3.3670937E1,3.0673176E1,1.2350346E2,1.0437447E2,1.1207693E3,6.2183154E2,2.6726233E2,1.9469473E2,8.647474E1,3.1889977E0,3.0279022E2,3.0398705E1,3.2722316E0,1.0697143E2,1.653204E1,1.0310541E2,1.2690666E0,4.913367E1,1.0716356E3,4.4142065E2,1.8041089E2,6.8007E0,2.6046164E2,2.8369634E0,1.9185777E2,3.9963566E1,4.6511173E1,2.9351152E1,1.0475519E0,1.360315E0,1.9119166E0,1.0507678E2,1.8946439E0,6.7839203E0,9.748119E0,9.838972E1,4.7156925E0,4.6704056E1,2.429618E0,9.4471686E2,1.2691871E2,2.0841487E2,2.330058E2,2.8902519E0,1.7752065E2,3.488922E0,2.5697272E2,3.0695963E0,1.8878818E2,3.7563095E0,4.2754864E1,2.8283203E1,1.0679486E0,1.261279E0,1.03815506E2,5.514671E0,1.2692493E0,8.687955E0,1.0601646E0,2.4231517E0,2.2925408E0,4.570343E1,1.0006249E0,6.598243E2,2.8489258E2,4.9600506E1,7.731821E1,1.3524924E2,7.3165634E1,2.13957E2,1.9048803E1,1.2227156E0,1.6675361E0,1.7649452E2,1.0261135E0,2.3845265E0,1.1043956E0,2.5280338E2,4.169344E0,1.6242292E0,1.4453671E0,1.0933389E2,7.9454285E1,4.032427E1,2.4305959E0,1.6699338E0,1.0214557E2,1.2657621E0,4.248909E0,7.6504226E0,1.0375323E0,1.0821248E0,1.2104158E0,5.8066437E2,7.915995E1,2.715412E2,1.3351381E1,3.7068058E1,1.2532448E1,1.09810705E1,6.6337135E1],"tree_param":{"num_deleted":"0","num_feature":"103","num_nodes":"111","size_leaf_vector":"1"}},{"base_weights":[-4.435916E-4,-3.4029257E-1,3.556831E-1,-9.158585E-2,-1.2045066E0,-7.281982E-1,4.891448E-1,-3.7632236E-1,8.038858E-1,-1.4615828E0,1.2121649E0,7.2961316E-2,-1.2730769E0,1.4266049E0,4.0243834E-1,2.8704057E-2,-1.3109251E0,1.2888175E0,-2.766238E-1,5.9820067E-2,-7.471424E-2,1.3781554E0,-1.9597268E-1,-1.4243661E0,-2.7022174E-1,1.4553094E0,-2.558066E-2,-1.3255554E0,4.814893E-1,-5.3011805E-1,1.3753337E0,6.689478E-2,-1.3858694E0,-5.8394518E-2,1.3319364E0,-7.3408E-2,7.531939E-1,1.4328543E0,-1.5893625E-3,4.744263E-2,-5.291576E-2,-1.4710273E0,3.827932E-2,5.5023587E-1,-8.3861214E-1,7.437159E-2,6.3899297E-1,4.5770314E-2,-1.4583611E0,5.2322537E-1,-1.2709119E0,5.290451E-3,-1.0129547E0,-5.4936644E-2,1.4117221E0,-1.395939E0,2.5031501E-2,6.6832714E-2,1.3525354E0,-6.1660457E-2,9.530196E-1,2.0469239E-2,7.2924905E-2,-2.393297E-2,-1.4784566E0,-1.2487196E-1,5.3987898E-2,1.5549265E-1,-1.1707617E0,5.693645E-2,-7.426294E-2,-1.980523E-2,-7.387908E-2,5.9078246E-1,-5.032121E-1,5.0031316E-2,-1.4410224E0,-2.7327744E-2,5.350077E-2,-6.0545236E-2,6.47681E-2,7.122258E-2,-1.8828386E-2,-7.0732445E-2,-1.1329214E-2,5.037039E-2,-4.846113E-2,6.8746015E-2,2.3283647E-2,-7.780728E-2,5.466652E-2,-2.8127152E-2,-7.439201E-2,-4.830189E-2,2.6399365E-2,-4.3157574E-2,5.1010657E-2,-1.3059298E-2,-6.710103E-2,4.2370856E-2,-4.5437634E-2,2.0979414E-2,4.878311E-2,-7.134078E-2,-5.335415E-3,-7.5912155E-2,6.487834E-3],"categories":[],"categories_nodes":[],"categories_segments":[],"categories_sizes":[],"default_left":[0,0,0,0,0,0,0,0,0,0,0,0,0,0,0,0,0,0,0,0,0,0,0,0,0,0,0,0,0,0,0,0,0,0,0,0,0,0,0,0,0,0,0,0,0,0,0,0,0,0,0,0,0,0,0,0,0,0,0,0,0,0,0,0,0,0,0,0,0,0,0,0,0,0,0,0,0,0,0,0,0,0,0,0,0,0,0,0,0,0,0,0,0,0,0,0,0,0,0,0,0,0,0,0,0,0,0],"id":8,"left_children":[1,3,5,7,9,11,13,15,17,19,21,-1,23,25,27,29,31,33,35,-1,-1,37,39,41,43,45,-1,47,49,51,53,-1,55,-1,57,-1,59,61,-1,-1,-1,63,-1,65,67,-1,69,-1,71,73,75,77,79,-1,81,83,-1,85,87,-1,89,-1,-1,-1,91,93,-1,95,97,-1,99,-1,-1,101,103,-1,105,-1,-1,-1,-1,-1,-1,-1,-1,-1,-1,-1,-1,-1,-1,-1,-1,-1,-1,-1,-1,-1,-1,-1,-1,-1,-1,-1,-1,-1,-1],"loss_changes":[3.4490594E2,3.1331158E2,2.016548E2,2.892956E2,2.0417303E2,1.8417224E2,1.0018515E2,3.2582922E2,1.438038E2,2.7422424E1,7.71941E0,0E0,1.8275833E1,6.561386E0,1.5582153E2,4.5331488E2,5.351422E1,2.1591125E1,1.06178604E2,0E0,0E0,2.253891E0,5.186318E0,1.202298E1,8.555496E0,1.757904E0,0E0,1.620488E1,8.017232E1,1.1007099E2,1.7455353E1,0E0,5.515625E0,0E0,4.7656555E0,0E0,1.9669474E1,1.2693787E-1,0E0,0E0,0E0,6.463623E-2,0E0,2.8899803E0,3.6984234E0,0E0,2.1033015E0,0E0,3.8562775E-1,7.397452E1,1.1326298E1,1.1979236E2,1.038649E2,0E0,4.509613E0,5.2033997E0,0E0,4.9108963E0,2.9988098E0,0E0,1.6804173E1,0E0,0E0,0E0,5.2581787E-2,2.8627484E0,0E0,4.00745E0,9.1119385E-1,0E0,3.2867777E0,0E0,0E0,6.5305176E1,2.4073565E1,0E0,3.1332893E0,0E0,0E0,0E0,0E0,0E0,0E0,0E0,0E0,0E0,0E0,0E0,0E0,0E0,0E0,0E0,0E0,0E0,0E0,0E0,0E0,0E0,0E0,0E0,0E0,0E0,0E0,0E0,0E0,0E0,0E0],"parents":[2147483647,0,0,1,1,2,2,3,3,4,4,5,5,6,6,7,7,8,8,9,9,10,10,12,12,13,13,14,14,15,15,16,16,17,17,18,18,21,21,22,22,23,23,24,24,25,25,27,27,28,28,29,29,30,30,32,32,34,34,36,36,37,37,41,41,43,43,44,44,46,46,48,48,49,49,50,50,51,51,52,52,54,54,55,55,57,57,58,58,60,60,64,64,65,65,67,67,68,68,70,70,73,73,74,74,76,76],"right_children":[2,4,6,8,10,12,14,16,18,20,22,-1,24,26,28,30,32,34,36,-1,-1,38,40,42,44,46,-1,48,50,52,54,-1,56,-1,58,-1,60,62,-1,-1,-1,64,-1,66,68,-1,70,-1,72,74,76,78,80,-1,82,84,-1,86,88,-1,90,-1,-1,-1,92,94,-1,96,98,-1,100,-1,-1,102,104,-1,106,-1,-1,-1,-1,-1,-1,-1,-1,-1,-1,-1,-1,-1,-1,-1,-1,-1,-1,-1,-1,-1,-1,-1,-1,-1,-1,-1,-1,-1,-1],"split_conditions":[-3.6412296E-1,1.8188405E0,3.4686708E-1,4.5352972E-1,3.5744682E-1,-1.4266541E0,-1.4266541E0,3.065011E-1,6.903606E-1,-1.4266541E0,1.1180521E0,7.2961316E-2,9.964284E0,1.5281832E0,-6.6988385E-1,1.8950362E0,-1.4266541E0,-2.1722725E-1,1.845833E0,5.9820067E-2,-7.471424E-2,1.2553954E0,-2.4129477E-1,1.9224976E1,-2.1658225E0,9.024493E-1,-2.558066E-2,-1.2923773E-2,1.4946878E-1,-1.783722E0,-2.1722725E-1,6.689478E-2,1.5613011E0,-5.8394518E-2,-3.178243E0,-7.3408E-2,-6.9043577E-1,-9.647618E-1,-1.5893625E-3,4.744263E-2,-5.291576E-2,-2.3988907E0,3.827932E-2,1.418409E0,-1.3565795E0,7.437159E-2,1.0692775E0,4.5770314E-2,-8.191081E-1,2.0527587E0,-7.089151E-1,-1.3107684E0,-7.061562E-1,-5.4936644E-2,4.490507E0,6.6753E0,2.5031501E-2,4.5537263E-1,2.114215E0,-6.1660457E-2,-2.1722725E-1,2.0469239E-2,7.2924905E-2,-2.393297E-2,-2.0785007E0,2.2700047E-1,5.3987898E-2,9.1730505E-1,-2.9350958E0,5.693645E-2,-1.1122671E0,-1.980523E-2,-7.387908E-2,6.0443413E-1,-8.3524597E-1,5.0031316E-2,2.092014E0,-2.7327744E-2,5.350077E-2,-6.0545236E-2,6.47681E-2,7.122258E-2,-1.8828386E-2,-7.0732445E-2,-1.1329214E-2,5.037039E-2,-4.846113E-2,6.8746015E-2,2.3283647E-2,-7.780728E-2,5.466652E-2,-2.8127152E-2,-7.439201E-2,-4.830189E-2,2.6399365E-2,-4.3157574E-2,5.1010657E-2,-1.3059298E-2,-6.710103E-2,4.2370856E-2,-4.5437634E-2,2.0979414E-2,4.878311E-2,-7.134078E-2,-5.335415E-3,-7.5912155E-2,6.487834E-3],"split_indices":[24,8,30,29,0,2,2,0,29,2,50,0,22,0,40,9,2,39,29,0,0,55,16,37,23,37,0,58,37,31,39,0,0,0,54,0,0,4,0,0,0,42,0,20,44,0,26,0,19,16,60,0,0,0,54,37,0,39,45,0,39,0,0,0,7,39,0,0,30,0,0,0,0,1,5,0,59,0,0,0,0,0,0,0,0,0,0,0,0,0,0,0,0,0,0,0,0,0,0,0,0,0,0,0,0,0,0],"split_type":[0,0,0,0,0,0,0,0,0,0,0,0,0,0,0,0,0,0,0,0,0,0,0,0,0,0,0,0,0,0,0,0,0,0,0,0,0,0,0,0,0,0,0,0,0,0,0,0,0,0,0,0,0,0,0,0,0,0,0,0,0,0,0,0,0,0,0,0,0,0,0,0,0,0,0,0,0,0,0,0,0,0,0,0,0,0,0,0,0,0,0,0,0,0,0,0,0,0,0,0,0,0,0,0,0,0,0],"sum_hessian":[2.8477725E3,1.4572113E3,1.3905613E3,1.1324241E3,3.2478723E2,1.5196371E2,1.2385975E3,8.5965576E2,2.7276825E2,2.9391672E2,3.0870523E1,2.9970116E1,1.219936E2,1.0355203E2,1.1350455E3,6.004218E2,2.5923398E2,1.881389E2,8.462936E1,3.1397102E0,2.90777E2,2.76343E1,3.236223E0,1.0563704E2,1.635656E1,1.0228634E2,1.2656883E0,4.8963882E1,1.0860817E3,4.2476138E2,1.7566042E2,6.6691327E0,2.5256485E2,2.7952194E0,1.8534367E2,3.9036762E1,4.5592594E1,2.6586618E1,1.0476819E0,1.3472826E0,1.8889403E0,1.0375463E2,1.8824059E0,6.7070446E0,9.649515E0,9.762273E1,4.663614E0,2.4097075E0,4.6554176E1,1.0615018E3,2.457984E1,2.0188452E2,2.2287686E2,2.122982E0,1.7353745E2,2.5148254E2,1.0823065E0,3.0374992E0,1.8230618E2,3.694576E0,4.1898018E1,1.0645255E0,2.5522093E1,1.2571706E0,1.0249746E2,3.2841437E0,3.422901E0,2.5498424E0,7.099673E0,2.391506E0,2.272108E0,1.211407E0,4.534277E1,9.963494E2,6.515238E1,1.3723397E0,2.3207499E1,1.3328815E2,6.859637E1,2.0571147E2,1.7165396E1,1.725129E2,1.0245409E0,2.4731567E2,4.1668797E0,1.6066053E0,1.4308939E0,1.7728117E2,5.025005E0,1.6844485E0,4.021357E1,1.6575592E0,1.008399E2,1.2254848E0,2.058659E0,1.1715574E0,1.3782849E0,1.5250499E0,5.574623E0,1.0722901E0,1.1998179E0,6.910576E2,3.0529178E2,1.8788515E1,4.6363865E1,2.215194E1,1.0555604E0],"tree_param":{"num_deleted":"0","num_feature":"103","num_nodes":"107","size_leaf_vector":"1"}},{"base_weights":[-5.191716E-4,-3.2468906E-1,3.4723008E-1,-8.287365E-2,-1.1657461E0,-7.0341355E-1,4.7602555E-1,-3.578036E-1,7.890739E-1,-1.4322394E0,1.2058393E0,7.117393E-2,-1.2372823E0,1.3888762E0,3.9282307E-1,3.4897078E-2,-1.2808825E0,1.2576575E0,-2.636714E-1,5.8309186E-2,-7.3201284E-2,1.3602141E0,-1.892691E-1,-1.3879284E0,-2.6198533E-1,1.4179028E0,-2.4907773E-2,-1.2869385E0,4.6831343E-1,-4.894353E-1,1.3404619E0,6.519864E-2,-1.3535917E0,-5.6928433E-2,1.2994257E0,-7.161702E-2,7.282882E-1,1.4124417E0,-2.5447223E-3,4.6365816E-2,-5.1637262E-2,-1.4347166E0,3.7203547E-2,5.3098696E-1,-8.1362605E-1,7.250213E-2,6.2287444E-1,-1.4208965E0,4.4647437E-2,5.6728685E-1,-2.616241E-1,2.2090869E-2,-9.538242E-1,-8.3576363E-1,1.3814448E0,-6.826464E-2,-1.3711146E0,6.4540416E-2,1.3194393E0,-6.009495E-2,9.206704E-1,7.185954E-2,1.936448E-2,-1.4447432E0,-2.8245091E-2,8.277752E-1,-2.6950998E-2,1.5093148E-1,-1.1372902E0,5.566762E-2,-7.680987E-2,-1.9309979E-2,-7.201695E-2,6.0152936E-1,-1.1927541E0,-8.630399E-1,3.3088875E-1,-2.681551E-2,5.3364724E-2,-5.759268E-2,6.099194E-2,-1.438784E-2,-4.8857324E-2,6.9708206E-2,-1.8367907E-2,-3.859755E-2,5.3916063E-2,-6.950132E-2,-1.0878078E-2,4.9184684E-2,-4.7346283E-2,7.258805E-2,5.6100097E-2,6.4996265E-2,-5.031224E-3,-2.7382812E-2,-7.27124E-2,-2.4631891E-2,6.235553E-2,-4.225444E-2,4.9759258E-2,-1.2437978E-2,-6.5377705E-2,-4.443584E-2,4.119095E-2,3.5740804E-2,4.3407036E-3,-6.736231E-2,3.2284673E-2,-6.341619E-2,8.495795E-3,-1.3278633E-3,5.0609868E-2],"categories":[],"categories_nodes":[],"categories_segments":[],"categories_sizes":[],"default_left":[0,0,0,0,0,0,0,0,0,0,0,0,0,0,0,0,0,0,0,0,0,0,0,0,0,0,0,0,0,0,0,0,0,0,0,0,0,0,0,0,0,0,0,0,0,0,0,0,0,0,0,0,0,0,0,0,0,0,0,0,0,0,0,0,0,0,0,0,0,0,0,0,0,0,0,0,0,0,0,0,0,0,0,0,0,0,0,0,0,0,0,0,0,0,0,0,0,0,0,0,0,0,0,0,0,0,0,0,0,0,0,0,0],"id":9,"left_children":[1,3,5,7,9,11,13,15,17,19,21,-1,23,25,27,29,31,33,35,-1,-1,37,39,41,43,45,-1,47,49,51,53,-1,55,-1,57,-1,59,61,-1,-1,-1,63,-1,65,67,-1,69,71,-1,73,75,77,79,81,83,85,87,89,91,-1,93,-1,-1,95,-1,97,-1,99,101,-1,103,-1,-1,105,107,109,111,-1,-1,-1,-1,-1,-1,-1,-1,-1,-1,-1,-1,-1,-1,-1,-1,-1,-1,-1,-1,-1,-1,-1,-1,-1,-1,-1,-1,-1,-1,-1,-1,-1,-1,-1,-1],"loss_changes":[3.1656186E2,2.9548544E2,1.8366402E2,2.7114127E2,2.067951E2,1.7020844E2,9.116217E1,3.1168408E2,1.3409775E2,2.5837097E1,7.4335785E0,0E0,1.7137802E1,6.2093506E0,1.4110176E2,4.1419174E2,4.9993164E1,2.0277435E1,9.8826004E1,0E0,0E0,2.2918816E0,4.910968E0,1.1336853E1,7.942873E0,1.6316528E0,0E0,1.5261879E1,7.6804504E1,1.02578445E2,1.6616608E1,0E0,5.5388794E0,0E0,4.488678E0,0E0,1.8294266E1,1.8125153E-1,0E0,0E0,0E0,6.541443E-2,0E0,2.8753512E0,3.456183E0,0E0,2.0099397E0,3.5970306E-1,0E0,5.70495E1,4.5676125E1,1.2104696E2,9.8822815E1,1.5371323E-2,4.3054504E0,4.395334E0,5.078766E0,4.652998E0,3.127594E0,0E0,1.6653347E1,0E0,0E0,5.014038E-2,0E0,4.148455E0,0E0,3.8061671E0,8.84202E-1,0E0,3.106012E0,0E0,0E0,5.343869E1,6.031519E0,2.6795399E1,1.582877E1,0E0,0E0,0E0,0E0,0E0,0E0,0E0,0E0,0E0,0E0,0E0,0E0,0E0,0E0,0E0,0E0,0E0,0E0,0E0,0E0,0E0,0E0,0E0,0E0,0E0,0E0,0E0,0E0,0E0,0E0,0E0,0E0,0E0,0E0,0E0,0E0],"parents":[2147483647,0,0,1,1,2,2,3,3,4,4,5,5,6,6,7,7,8,8,9,9,10,10,12,12,13,13,14,14,15,15,16,16,17,17,18,18,21,21,22,22,23,23,24,24,25,25,27,27,28,28,29,29,30,30,32,32,34,34,36,36,37,37,41,41,43,43,44,44,46,46,47,47,49,49,50,50,51,51,52,52,53,53,54,54,55,55,56,56,57,57,58,58,60,60,63,63,65,65,67,67,68,68,70,70,73,73,74,74,75,75,76,76],"right_children":[2,4,6,8,10,12,14,16,18,20,22,-1,24,26,28,30,32,34,36,-1,-1,38,40,42,44,46,-1,48,50,52,54,-1,56,-1,58,-1,60,62,-1,-1,-1,64,-1,66,68,-1,70,72,-1,74,76,78,80,82,84,86,88,90,92,-1,94,-1,-1,96,-1,98,-1,100,102,-1,104,-1,-1,106,108,110,112,-1,-1,-1,-1,-1,-1,-1,-1,-1,-1,-1,-1,-1,-1,-1,-1,-1,-1,-1,-1,-1,-1,-1,-1,-1,-1,-1,-1,-1,-1,-1,-1,-1,-1,-1,-1],"split_conditions":[-3.513817E-1,1.8188405E0,3.4686708E-1,4.5352972E-1,3.5744682E-1,-1.4266541E0,-1.4266541E0,3.177989E-1,6.903606E-1,-1.4266541E0,1.1180521E0,7.117393E-2,9.964284E0,1.5281832E0,-6.6988385E-1,1.8950362E0,-1.4266541E0,-2.1722725E-1,1.845833E0,5.8309186E-2,-7.3201284E-2,3.7002325E0,-2.4129477E-1,1.9224976E1,-2.1658225E0,9.024493E-1,-2.4907773E-2,6.8465546E-2,1.7510597E0,-1.783722E0,-6.0311824E-1,6.519864E-2,-1.8545761E0,-5.6928433E-2,-3.178243E0,-7.161702E-2,-6.9043577E-1,4.9286575E0,-2.5447223E-3,4.6365816E-2,-5.1637262E-2,1.5827451E0,3.7203547E-2,4.673878E-1,-1.3565795E0,7.250213E-2,-1.1122671E0,-8.191081E-1,4.4647437E-2,1.4946878E-1,1.7905148E0,-1.3107684E0,-7.061562E-1,-6.399768E-1,4.490507E0,8.940629E-3,6.6753E0,4.5537263E-1,9.837893E-1,-6.009495E-2,3.5671404E-1,7.185954E-2,1.936448E-2,-2.0785007E0,-2.8245091E-2,-2.1214252E0,-2.6950998E-2,9.1730505E-1,-3.0661545E0,5.566762E-2,5.809535E-1,-1.9309979E-2,-7.201695E-2,1.283086E0,1.6203281E0,4.6912053E-1,1.0602958E0,-2.681551E-2,5.3364724E-2,-5.759268E-2,6.099194E-2,-1.438784E-2,-4.8857324E-2,6.9708206E-2,-1.8367907E-2,-3.859755E-2,5.3916063E-2,-6.950132E-2,-1.0878078E-2,4.9184684E-2,-4.7346283E-2,7.258805E-2,5.6100097E-2,6.4996265E-2,-5.031224E-3,-2.7382812E-2,-7.27124E-2,-2.4631891E-2,6.235553E-2,-4.225444E-2,4.9759258E-2,-1.2437978E-2,-6.5377705E-2,-4.443584E-2,4.119095E-2,3.5740804E-2,4.3407036E-3,-6.736231E-2,3.2284673E-2,-6.341619E-2,8.495795E-3,-1.3278633E-3,5.0609868E-2],"split_indices":[24,8,30,29,0,2,2,0,29,2,50,0,22,0,40,9,2,39,29,0,0,99,16,37,23,37,0,42,16,31,40,0,31,0,54,0,0,85,0,0,0,51,0,57,44,0,0,19,0,37,24,0,0,16,54,42,37,39,0,0,19,0,0,7,0,45,0,0,27,0,0,0,0,53,24,56,0,0,0,0,0,0,0,0,0,0,0,0,0,0,0,0,0,0,0,0,0,0,0,0,0,0,0,0,0,0,0,0,0,0,0,0,0],"split_type":[0,0,0,0,0,0,0,0,0,0,0,0,0,0,0,0,0,0,0,0,0,0,0,0,0,0,0,0,0,0,0,0,0,0,0,0,0,0,0,0,0,0,0,0,0,0,0,0,0,0,0,0,0,0,0,0,0,0,0,0,0,0,0,0,0,0,0,0,0,0,0,0,0,0,0,0,0,0,0,0,0,0,0,0,0,0,0,0,0,0,0,0,0,0,0,0,0,0,0,0,0,0,0,0,0,0,0,0,0,0,0,0,0],"sum_hessian":[2.806146E3,1.4523447E3,1.3538013E3,1.128876E3,3.2346875E2,1.4734874E2,1.2064525E3,8.5870966E2,2.7016632E2,2.9114868E2,3.2320087E1,2.9230465E1,1.1811827E2,9.9466774E1,1.1069857E3,6.030987E2,2.5561098E2,1.8681786E2,8.334846E1,3.0872507E0,2.8806143E2,2.9122562E1,3.197527E0,1.01948105E2,1.6170172E1,9.820477E1,1.2619956E0,4.6919373E1,1.0600664E3,4.3073486E2,1.7236382E2,6.5300384E0,2.4908093E2,2.7507234E0,1.8406714E2,3.8062035E1,4.5286423E1,2.8082245E1,1.0403177E0,1.3332223E0,1.8643048E0,1.0007886E2,1.8692446E0,6.649333E0,9.52084E0,9.359715E1,4.607625E0,4.453104E1,2.3883333E0,9.3368884E2,1.2637754E2,2.0541829E2,2.2531659E2,2.8275259E0,1.6953629E2,3.4159143E0,2.4566502E2,3.0029516E0,1.8106418E2,3.6289914E0,4.1657433E1,2.7027815E1,1.0544295E0,9.828492E1,1.7939348E0,5.3827114E0,1.2666216E0,2.5261858E0,6.9946537E0,2.3612032E0,2.2464218E0,1.2061341E0,4.3324905E1,9.1651575E2,1.7173056E1,6.2490997E1,6.3886547E1,1.3420566E2,7.121262E1,2.0693416E2,1.8382439E1,1.2023726E0,1.6251533E0,1.6851346E2,1.0228268E0,2.319266E0,1.0966482E0,2.4150078E2,4.1642456E0,1.5876542E0,1.4152973E0,1.0460527E2,7.6458916E1,3.0178074E1,1.1479358E1,1.6449885E0,9.663993E1,1.2552731E0,4.1274385E0,1.1584723E0,1.3677135E0,1.52056E0,5.474094E0,1.1883572E0,1.0580645E0,7.508647E2,1.6565105E2,1.6088276E1,1.0847793E0,4.471791E1,1.7773088E1,4.253286E1,2.1353685E1],"tree_param":{"num_deleted":"0","num_feature":"103","num_nodes":"113","size_leaf_vector":"1"}},{"base_weights":[-5.6026207E-4,-3.7119624E-1,2.840421E-1,-1.3232501E-1,-1.216736E0,-7.437678E-1,4.0087676E-1,-4.2277965E-1,7.44815E-1,-1.4157686E0,1.1524485E0,6.961002E-2,-1.2263613E0,1.3831844E0,3.2092363E-1,-3.6498766E-2,-1.2900155E0,1.1402559E0,-5.6631947E-1,-7.12436E-2,1.2503507E-2,1.3318484E0,-2.7939114E-1,-1.3586518E0,-2.5572124E-1,1.4240171E0,-4.811029E-2,-1.0947891E0,4.0477556E-1,-6.0979277E-1,1.3042924E0,6.114439E-2,-1.3539127E0,-7.302156E-2,1.1931913E0,9.7633713E-1,-1.3023022E0,1.8899309E-2,6.8343475E-2,-4.1627068E-2,2.2355283E-2,-1.407648E0,4.19244E-2,5.118302E-1,-7.9020685E-1,7.2761334E-2,6.076714E-1,-1.4001311E0,2.89122E-1,2.3037066E-1,8.2336086E-1,-7.457075E-2,-1.081033E0,-8.149725E-1,1.3512988E0,-1.3712317E0,-3.367254E-1,1.2256162E0,-5.678892E-2,1.2168952E0,-2.937572E-2,1.3494445E-1,-6.983837E-2,-2.169841E-2,-1.4145688E0,8.029648E-1,-2.623417E-2,2.446613E-2,-1.1701435E0,5.430677E-2,-7.451819E-2,6.129958E-1,-1.5213834E0,1.2162263E0,-2.869103E-1,5.7142675E-1,-1.7025918E0,1.0212382E0,-1.496051E0,-3.199789E-2,5.388344E-2,-5.905818E-2,5.383944E-2,-1.3984779E-2,-4.7754504E-2,6.830124E-2,-1.7920263E-2,8.193386E-3,-6.904311E-2,5.8608618E-2,-6.436428E-2,-5.008882E-2,6.2861316E-2,1.6352294E-3,6.6416234E-2,-2.611675E-2,3.9063014E-2,-2.6662797E-2,-7.113964E-2,-2.3990856E-2,6.07916E-2,-4.6235207E-2,4.015525E-2,-1.82082E-2,-6.327529E-2,-4.3478213E-2,4.035676E-2,5.3489156E-2,-1.2205674E-2,-7.77848E-2,-1.5967716E-4,1.8675052E-2,6.618811E-2,2.0689009E-2,-5.0505366E-2,2.2928638E-2,6.914031E-2,-6.953939E-2,-8.9666866E-2,5.689862E-2,-7.9527184E-2,5.838985E-2,-8.7934256E-2],"categories":[],"categories_nodes":[],"categories_segments":[],"categories_sizes":[],"default_left":[0,0,0,0,0,0,0,0,0,0,0,0,0,0,0,0,0,0,0,0,0,0,0,0,0,0,0,0,0,0,0,0,0,0,0,0,0,0,0,0,0,0,0,0,0,0,0,0,0,0,0,0,0,0,0,0,0,0,0,0,0,0,0,0,0,0,0,0,0,0,0,0,0,0,0,0,0,0,0,0,0,0,0,0,0,0,0,0,0,0,0,0,0,0,0,0,0,0,0,0,0,0,0,0,0,0,0,0,0,0,0,0,0,0,0,0,0,0,0,0,0,0,0],"id":10,"left_children":[1,3,5,7,9,11,13,15,17,19,21,-1,23,25,27,29,31,33,35,-1,-1,37,39,41,43,45,-1,47,49,51,53,-1,55,-1,57,59,61,-1,-1,-1,-1,63,-1,65,67,-1,69,71,73,75,77,79,81,83,85,87,89,91,-1,93,-1,95,-1,-1,97,99,-1,101,103,-1,105,107,109,111,113,115,117,119,121,-1,-1,-1,-1,-1,-1,-1,-1,-1,-1,-1,-1,-1,-1,-1,-1,-1,-1,-1,-1,-1,-1,-1,-1,-1,-1,-1,-1,-1,-1,-1,-1,-1,-1,-1,-1,-1,-1,-1,-1,-1,-1,-1,-1],"loss_changes":[2.9165997E2,2.4240367E2,1.8811038E2,2.3917143E2,1.2631906E2,1.6662549E2,1.0990436E2,2.3610968E2,1.2175537E2,4.062256E0,5.777624E0,0E0,1.6478378E1,1.1468933E1,1.5483415E2,3.764779E2,3.6532104E1,2.6494446E1,6.348307E1,0E0,0E0,1.1383438E-1,1.6459973E0,1.3569565E1,7.357644E0,1.7666321E0,0E0,3.1249847E1,8.950043E1,8.6440506E1,1.5715759E1,0E0,3.2782593E0,0E0,1.4740143E1,7.587921E0,5.283169E0,0E0,0E0,0E0,0E0,1.4726257E-1,0E0,2.7039742E0,3.2428708E0,0E0,1.8919356E0,1.5571449E1,7.8378315E0,5.736138E2,1.6718869E2,1.0602495E2,4.0671112E1,1.8408537E-2,4.1125183E0,3.307434E0,8.507727E0,1.3567535E1,0E0,2.088873E0,0E0,1.7785782E0,0E0,0E0,5.0949097E-2,3.920415E0,0E0,3.9074566E0,8.502674E-2,0E0,2.961054E0,1.8740928E0,2.9566193E0,9.871483E-3,5.210807E0,6.704326E1,1.1990967E0,1.0338818E2,2.2188026E1,0E0,0E0,0E0,0E0,0E0,0E0,0E0,0E0,0E0,0E0,0E0,0E0,0E0,0E0,0E0,0E0,0E0,0E0,0E0,0E0,0E0,0E0,0E0,0E0,0E0,0E0,0E0,0E0,0E0,0E0,0E0,0E0,0E0,0E0,0E0,0E0,0E0,0E0,0E0,0E0,0E0,0E0,0E0,0E0],"parents":[2147483647,0,0,1,1,2,2,3,3,4,4,5,5,6,6,7,7,8,8,9,9,10,10,12,12,13,13,14,14,15,15,16,16,17,17,18,18,21,21,22,22,23,23,24,24,25,25,27,27,28,28,29,29,30,30,32,32,34,34,35,35,36,36,41,41,43,43,44,44,46,46,47,47,48,48,49,49,50,50,51,51,52,52,53,53,54,54,55,55,56,56,57,57,59,59,61,61,64,64,65,65,67,67,68,68,70,70,71,71,72,72,73,73,74,74,75,75,76,76,77,77,78,78],"right_children":[2,4,6,8,10,12,14,16,18,20,22,-1,24,26,28,30,32,34,36,-1,-1,38,40,42,44,46,-1,48,50,52,54,-1,56,-1,58,60,62,-1,-1,-1,-1,64,-1,66,68,-1,70,72,74,76,78,80,82,84,86,88,90,92,-1,94,-1,96,-1,-1,98,100,-1,102,104,-1,106,108,110,112,114,116,118,120,122,-1,-1,-1,-1,-1,-1,-1,-1,-1,-1,-1,-1,-1,-1,-1,-1,-1,-1,-1,-1,-1,-1,-1,-1,-1,-1,-1,-1,-1,-1,-1,-1,-1,-1,-1,-1,-1,-1,-1,-1,-1,-1,-1,-1],"split_conditions":[-4.6241266E-1,1.8188405E0,3.4686708E-1,4.5352972E-1,3.5744682E-1,-1.4266541E0,-1.4266541E0,3.065011E-1,1.5510888E0,2.3370743E0,1.1180521E0,6.961002E-2,9.964284E0,1.5613011E0,-4.9607578E-1,1.8950362E0,-1.4266541E0,-2.1722725E-1,6.903606E-1,-7.12436E-2,1.2503507E-2,-9.647618E-1,-6.3851506E-1,1.9224976E1,-2.1658225E0,9.024493E-1,-4.811029E-2,7.6494818E-3,6.0443413E-1,-1.7855576E0,-6.0311824E-1,6.114439E-2,6.6753E0,-7.302156E-2,2.255575E0,7.677666E-1,-1.9250044E0,1.8899309E-2,6.8343475E-2,-4.1627068E-2,2.2355283E-2,-2.3988907E0,4.19244E-2,4.673878E-1,-2.3053877E0,7.2761334E-2,-1.1122671E0,-6.837542E-1,-2.3811737E-1,1.8188405E0,1.8950362E0,-1.3107684E0,-7.061562E-1,-6.399768E-1,4.490507E0,-1.4198107E0,6.037034E-1,-6.9043577E-1,-5.678892E-2,-5.5743074E-1,-2.937572E-2,-6.439756E-1,-6.983837E-2,-2.169841E-2,-2.0785007E0,-2.1214252E0,-2.623417E-2,-1.5208323E-1,1.793873E0,5.430677E-2,5.809535E-1,-1.4169424E0,2.256432E0,5.32849E-1,1.98147E-1,1.8950362E0,-3.5911745E-1,9.086939E0,-8.379794E0,-3.199789E-2,5.388344E-2,-5.905818E-2,5.383944E-2,-1.3984779E-2,-4.7754504E-2,6.830124E-2,-1.7920263E-2,8.193386E-3,-6.904311E-2,5.8608618E-2,-6.436428E-2,-5.008882E-2,6.2861316E-2,1.6352294E-3,6.6416234E-2,-2.611675E-2,3.9063014E-2,-2.6662797E-2,-7.113964E-2,-2.3990856E-2,6.07916E-2,-4.6235207E-2,4.015525E-2,-1.82082E-2,-6.327529E-2,-4.3478213E-2,4.035676E-2,5.3489156E-2,-1.2205674E-2,-7.77848E-2,-1.5967716E-4,1.8675052E-2,6.618811E-2,2.0689009E-2,-5.0505366E-2,2.2928638E-2,6.914031E-2,-6.953939E-2,-8.9666866E-2,5.689862E-2,-7.9527184E-2,5.838985E-2,-8.7934256E-2],"split_indices":[24,8,30,29,0,2,2,0,0,4,50,0,22,0,40,9,2,39,29,0,0,4,24,37,23,37,0,51,1,31,40,0,37,0,29,19,27,0,0,0,0,42,0,57,27,0,0,43,19,8,9,0,0,16,54,29,0,0,0,57,0,24,0,0,7,45,0,46,16,0,0,29,26,39,56,9,24,11,60,0,0,0,0,0,0,0,0,0,0,0,0,0,0,0,0,0,0,0,0,0,0,0,0,0,0,0,0,0,0,0,0,0,0,0,0,0,0,0,0,0,0,0,0],"split_type":[0,0,0,0,0,0,0,0,0,0,0,0,0,0,0,0,0,0,0,0,0,0,0,0,0,0,0,0,0,0,0,0,0,0,0,0,0,0,0,0,0,0,0,0,0,0,0,0,0,0,0,0,0,0,0,0,0,0,0,0,0,0,0,0,0,0,0,0,0,0,0,0,0,0,0,0,0,0,0,0,0,0,0,0,0,0,0,0,0,0,0,0,0,0,0,0,0,0,0,0,0,0,0,0,0,0,0,0,0,0,0,0,0,0,0,0,0,0,0,0,0,0,0],"sum_hessian":[2.762973E3,1.1999634E3,1.5630095E3,9.365403E2,2.6342307E2,1.5898975E2,1.4040198E3,7.0395264E2,2.3258765E2,2.4337944E2,2.004363E1,2.895399E1,1.3003575E2,1.0444943E2,1.2995703E3,4.8774512E2,2.1620747E2,1.7879349E2,5.3794163E1,2.4220053E2,1.1789E0,1.7873976E1,2.1696546E0,1.1408688E2,1.5948868E1,1.0304823E2,1.4012005E0,7.199458E1,1.2275757E3,3.4204086E2,1.4570425E2,4.911538E0,2.1129594E2,3.0362296E0,1.7575726E2,1.7269615E1,3.6524548E1,1.0506532E0,1.6823322E1,1.1489125E0,1.020742E0,1.1194974E2,2.1371524E0,6.5644026E0,9.384465E0,9.8499886E1,4.548349E0,5.8971558E1,1.3023025E1,8.6762665E2,3.5994904E2,1.606908E2,1.8135008E2,2.8071537E0,1.4289711E2,2.0741634E2,3.879604E0,1.7381114E2,1.9461205E0,1.5159568E1,2.1100476E0,2.2261438E0,3.4298405E1,1.239722E0,1.10710014E2,5.300833E0,1.2635696E0,3.282221E0,6.1022444E0,2.3253193E0,2.2230294E0,3.119734E0,5.585182E1,4.56478E0,8.458244E0,7.3809924E2,1.2952745E2,3.321701E2,2.7778927E1,1.0809484E2,5.2595955E1,1.7374052E2,7.609559E0,1.203955E0,1.6031985E0,1.4187611E2,1.0209845E0,1.1932667E0,2.0622307E2,1.4093287E0,2.4702754E0,2.0026565E0,1.7180849E2,1.4150418E0,1.3744526E1,1.1988175E0,1.0273263E0,1.6322696E0,1.0907774E2,1.2511965E0,4.049637E0,1.3945982E0,1.8876228E0,1.1554441E0,4.9468E0,1.1761383E0,1.0468911E0,1.8732672E0,1.246467E0,5.4593258E1,1.2585628E0,1.0227866E0,3.5419936E0,4.5132737E0,3.9449704E0,6.4934735E2,8.875188E1,3.287936E1,9.664809E1,3.1849902E2,1.3671086E1,2.1836913E0,2.5595236E1],"tree_param":{"num_deleted":"0","num_feature":"103","num_nodes":"123","size_leaf_vector":"1"}},{"base_weights":[-7.015826E-4,-3.0760628E-1,3.2153437E-1,-7.967899E-2,-1.1132175E0,-6.7031145E-1,4.3907675E-1,-3.3819455E-1,7.4504215E-1,-1.3699771E0,1.1437839E0,6.80495E-2,-1.1786386E0,1.3262115E0,3.6143932E-1,3.0562224E-2,-1.2194631E0,1.1923181E0,-2.5515613E-1,5.5551667E-2,-7.0052646E-2,1.2960804E0,-1.9129957E-1,-1.3256263E0,-2.5087157E-1,1.3552877E0,-2.3738425E-2,-1.0075656E0,4.4094107E-1,-4.5611903E-1,1.2748576E0,6.2170144E-2,-1.2891979E0,-5.4102656E-2,1.2324691E0,-6.863614E-2,6.729389E-1,1.3501536E0,-3.9391005E-3,4.4557508E-2,-5.023983E-2,-1.3718636E0,3.502551E-2,4.9374282E-1,-7.6955074E-1,6.9344886E-2,5.9332985E-1,-1.2135639E0,8.971595E-1,5.314262E-1,-2.5906342E-1,2.1042483E-2,-8.977045E-1,-7.950476E-1,1.3153896E0,-6.372466E-2,-1.3065813E0,1.5422563E-2,1.2530876E0,-5.8219876E-2,8.5801196E-1,6.877007E-2,1.7888308E-2,-2.1146314E-2,-1.3797896E0,-1.5082847E-1,5.0479252E-2,1.5762399E-1,-1.08421E0,5.3174086E-2,-7.691165E-2,-1.2872276E0,3.935322E-2,6.482404E-2,-1.3697333E-2,4.5816904E-1,1.4185226E0,-1.3462677E0,3.385669E-1,-2.4615267E-2,5.007655E-2,-5.4329455E-2,5.836326E-2,-1.3593643E-2,-4.670421E-2,6.640558E-2,-1.7484978E-2,-3.716318E-2,5.1817443E-2,-6.628256E-2,-9.864445E-3,4.666186E-2,-4.7700036E-2,6.9439776E-2,5.2636184E-2,6.1462726E-2,-5.770581E-3,-2.5965853E-2,-6.9460236E-2,-4.6627376E-2,2.397388E-2,-4.012383E-2,4.795083E-2,-1.1751692E-2,-6.250976E-2,3.928252E-2,-4.256156E-2,-6.949257E-2,-4.53373E-3,-3.1137154E-2,2.9590765E-2,7.4321166E-2,-5.067646E-2,-7.2849624E-2,5.506661E-2,-8.630239E-2,4.5475554E-2],"categories":[],"categories_nodes":[],"categories_segments":[],"categories_sizes":[],"default_left":[0,0,0,0,0,0,0,0,0,0,0,0,0,0,0,0,0,0,0,0,0,0,0,0,0,0,0,0,0,0,0,0,0,0,0,0,0,0,0,0,0,0,0,0,0,0,0,0,0,0,0,0,0,0,0,0,0,0,0,0,0,0,0,0,0,0,0,0,0,0,0,0,0,0,0,0,0,0,0,0,0,0,0,0,0,0,0,0,0,0,0,0,0,0,0,0,0,0,0,0,0,0,0,0,0,0,0,0,0,0,0,0,0,0,0,0,0],"id":11,"left_children":[1,3,5,7,9,11,13,15,17,19,21,-1,23,25,27,29,31,33,35,-1,-1,37,39,41,43,45,-1,47,49,51,53,-1,55,-1,57,-1,59,61,-1,-1,-1,63,-1,65,67,-1,69,71,73,75,77,79,81,83,85,87,89,91,93,-1,95,-1,-1,-1,97,99,-1,101,103,-1,105,107,-1,-1,-1,109,111,113,115,-1,-1,-1,-1,-1,-1,-1,-1,-1,-1,-1,-1,-1,-1,-1,-1,-1,-1,-1,-1,-1,-1,-1,-1,-1,-1,-1,-1,-1,-1,-1,-1,-1,-1,-1,-1,-1,-1],"loss_changes":[2.6891632E2,2.5564462E2,1.5493881E2,2.319321E2,1.7951163E2,1.4713185E2,8.124254E1,2.6912128E2,1.16460464E2,2.284784E1,6.7359085E0,0E0,1.5113281E1,5.6238403E0,1.1934129E2,3.5467862E2,4.3559082E1,1.7733475E1,8.499502E1,0E0,0E0,2.2452393E0,4.5397534E0,1.0098877E1,6.8389773E0,1.4376831E0,0E0,2.4733845E1,6.557782E1,8.874001E1,1.4860809E1,0E0,4.987976E0,0E0,4.4208374E0,0E0,1.6284763E1,2.028923E-1,0E0,0E0,0E0,1.3626099E-1,0E0,2.6378853E0,3.1607676E0,0E0,1.8105894E0,9.09008E0,3.3744416E0,5.8826843E1,7.773326E1,1.0284869E2,8.657286E1,2.1425724E-2,3.8935547E0,4.045156E0,4.7027893E0,4.4138885E0,3.2687073E0,0E0,1.5108101E1,0E0,0E0,0E0,4.3884277E-2,2.513203E0,0E0,3.4393158E0,8.025408E-1,0E0,2.8022885E0,6.4114456E0,0E0,0E0,0E0,1.227094E2,1.2956757E1,1.3092354E1,9.297989E1,0E0,0E0,0E0,0E0,0E0,0E0,0E0,0E0,0E0,0E0,0E0,0E0,0E0,0E0,0E0,0E0,0E0,0E0,0E0,0E0,0E0,0E0,0E0,0E0,0E0,0E0,0E0,0E0,0E0,0E0,0E0,0E0,0E0,0E0,0E0,0E0,0E0,0E0],"parents":[2147483647,0,0,1,1,2,2,3,3,4,4,5,5,6,6,7,7,8,8,9,9,10,10,12,12,13,13,14,14,15,15,16,16,17,17,18,18,21,21,22,22,23,23,24,24,25,25,27,27,28,28,29,29,30,30,32,32,34,34,36,36,37,37,41,41,43,43,44,44,46,46,47,47,48,48,49,49,50,50,51,51,52,52,53,53,54,54,55,55,56,56,57,57,58,58,60,60,64,64,65,65,67,67,68,68,70,70,71,71,75,75,76,76,77,77,78,78],"right_children":[2,4,6,8,10,12,14,16,18,20,22,-1,24,26,28,30,32,34,36,-1,-1,38,40,42,44,46,-1,48,50,52,54,-1,56,-1,58,-1,60,62,-1,-1,-1,64,-1,66,68,-1,70,72,74,76,78,80,82,84,86,88,90,92,94,-1,96,-1,-1,-1,98,100,-1,102,104,-1,106,108,-1,-1,-1,110,112,114,116,-1,-1,-1,-1,-1,-1,-1,-1,-1,-1,-1,-1,-1,-1,-1,-1,-1,-1,-1,-1,-1,-1,-1,-1,-1,-1,-1,-1,-1,-1,-1,-1,-1,-1,-1,-1,-1,-1],"split_conditions":[-3.513817E-1,1.8188405E0,3.4686708E-1,4.5352972E-1,3.5744682E-1,-1.4266541E0,-1.4266541E0,3.177989E-1,6.903606E-1,-1.4266541E0,1.1180521E0,6.80495E-2,9.964284E0,1.5281832E0,-5.15538E-1,1.8950362E0,-1.4266541E0,-2.1722725E-1,1.845833E0,5.5551667E-2,-7.0052646E-2,3.7002325E0,-2.4129477E-1,1.9224976E1,-2.1658225E0,9.024493E-1,-2.3738425E-2,2.4818912E-2,6.903606E-1,-1.783722E0,-6.0311824E-1,6.2170144E-2,-1.8545761E0,-5.4102656E-2,-3.178243E0,-6.863614E-2,-6.9043577E-1,4.9286575E0,-3.9391005E-3,4.4557508E-2,-5.023983E-2,-2.3988907E0,3.502551E-2,1.418409E0,-1.3565795E0,6.9344886E-2,1.0692775E0,3.0446367E0,8.724272E-1,3.0446367E0,3.5744682E-1,-1.3107684E0,-7.061562E-1,-6.399768E-1,4.490507E0,8.940629E-3,6.6753E0,4.5537263E-1,9.837893E-1,-5.8219876E-2,3.5671404E-1,6.877007E-2,1.7888308E-2,-2.1146314E-2,-2.0785007E0,1.6972432E-2,5.0479252E-2,9.1730505E-1,-2.9350958E0,5.3174086E-2,-1.1122671E0,6.4241625E-2,3.935322E-2,6.482404E-2,-1.3697333E-2,-1.4843172E0,-1.5122236E0,1.8950362E0,1.845833E0,-2.4615267E-2,5.007655E-2,-5.4329455E-2,5.836326E-2,-1.3593643E-2,-4.670421E-2,6.640558E-2,-1.7484978E-2,-3.716318E-2,5.1817443E-2,-6.628256E-2,-9.864445E-3,4.666186E-2,-4.7700036E-2,6.9439776E-2,5.2636184E-2,6.1462726E-2,-5.770581E-3,-2.5965853E-2,-6.9460236E-2,-4.6627376E-2,2.397388E-2,-4.012383E-2,4.795083E-2,-1.1751692E-2,-6.250976E-2,3.928252E-2,-4.256156E-2,-6.949257E-2,-4.53373E-3,-3.1137154E-2,2.9590765E-2,7.4321166E-2,-5.067646E-2,-7.2849624E-2,5.506661E-2,-8.630239E-2,4.5475554E-2],"split_indices":[24,8,30,29,0,2,2,0,29,2,50,0,22,0,40,9,2,39,29,0,0,99,16,37,23,37,0,46,29,31,40,0,31,0,54,0,0,85,0,0,0,42,0,20,44,0,26,10,55,10,0,0,0,16,54,42,37,39,0,0,19,0,0,0,7,58,0,0,30,0,0,41,0,0,0,0,0,9,29,0,0,0,0,0,0,0,0,0,0,0,0,0,0,0,0,0,0,0,0,0,0,0,0,0,0,0,0,0,0,0,0,0,0,0,0,0,0],"split_type":[0,0,0,0,0,0,0,0,0,0,0,0,0,0,0,0,0,0,0,0,0,0,0,0,0,0,0,0,0,0,0,0,0,0,0,0,0,0,0,0,0,0,0,0,0,0,0,0,0,0,0,0,0,0,0,0,0,0,0,0,0,0,0,0,0,0,0,0,0,0,0,0,0,0,0,0,0,0,0,0,0,0,0,0,0,0,0,0,0,0,0,0,0,0,0,0,0,0,0,0,0,0,0,0,0,0,0,0,0,0,0,0,0,0,0,0,0],"sum_hessian":[2.7171904E3,1.3917253E3,1.325465E3,1.0856633E3,3.0606207E2,1.39938E2,1.185527E3,8.2701776E2,2.5864554E2,2.7515326E2,3.090882E1,2.7673977E1,1.1226402E2,9.410793E1,1.0914191E3,5.837285E2,2.4328925E2,1.785902E2,8.005534E1,2.9738812E0,2.7217938E2,2.7770214E1,3.1386044E0,9.654017E1,1.5723848E1,9.285628E1,1.251658E0,5.9262184E1,1.0321569E3,4.200628E2,1.6366573E2,6.235511E0,2.3705373E2,2.6479228E0,1.7594226E2,3.610291E1,4.395244E1,2.6736637E1,1.033578E0,1.3057289E0,1.8328756E0,9.470195E1,1.838225E0,6.4755883E0,9.2482605E0,8.837005E1,4.4862313E0,5.3805878E1,5.456305E0,9.14222E2,1.1793484E2,2.0235623E2,2.1770659E2,2.7857587E0,1.6087996E2,3.3808532E0,2.3367288E2,2.9601862E0,1.7298207E2,3.5379028E0,4.0414536E1,2.5696913E1,1.0397232E0,1.2347203E0,9.3467224E1,3.1931682E0,3.2824202E0,2.4698033E0,6.7784567E0,2.2918568E0,2.1943748E0,5.2239014E1,1.5668675E0,3.9890661E0,1.4672391E0,8.4588464E2,6.833737E1,4.1388515E1,7.6546326E1,1.3314453E2,6.92117E1,1.9989574E2,1.781084E1,1.2054036E0,1.5803553E0,1.5986095E2,1.0190264E0,2.2903845E0,1.0904686E0,2.2953192E2,4.1409507E0,1.5397421E0,1.4204441E0,9.959463E1,7.338745E1,2.906642E1,1.1348115E1,1.6194451E0,9.184778E1,1.2113323E0,1.9818357E0,1.1230235E0,1.3467798E0,1.5033494E0,5.2751074E0,1.031117E0,1.1632577E0,4.79638E1,4.2752147E0,9.267584E1,7.532088E2,6.6859535E1,1.4778382E0,3.998442E1,1.4040941E0,1.6144041E1,6.0402283E1],"tree_param":{"num_deleted":"0","num_feature":"103","num_nodes":"117","size_leaf_vector":"1"}},{"base_weights":[-7.212582E-4,1.3394684E0,-7.101963E-2,6.8918526E-2,-4.9548503E-2,-1.266175E0,3.876251E-2,-1.3449174E0,-2.577517E-1,2.1958691E-1,-5.694062E-1,-1.3711307E0,4.5491895E-1,4.7705072E-1,-7.61238E-1,-1.3715618E0,2.776455E-1,-1.4701716E0,1.3047426E0,-2.5290841E-2,-6.8784736E-2,4.921459E-2,-2.2774046E-2,-1.4945294E-1,4.9064707E-2,1.3775968E-2,-1.1422786E0,6.532868E-2,-1.5439832E0,-6.1232634E-2,5.473954E-1,-6.84674E-2,-1.7195224E0,1.3321426E0,-7.5743414E-2,-4.5628842E-2,2.331306E-2,-4.5387406E-2,4.183691E-2,-1.6659198E-2,-6.2134057E-2,-9.084143E-2,-6.770541E-2,4.0426677E-1,-9.8439455E-1,1.2176155E0,1.2566975E-1,-1.898754E0,-1.4213151E0,1.3541232E0,-4.0217567E-2,9.195008E-4,6.3498974E-2,-6.401583E-2,6.691872E-2,1.3616746E-3,6.9197305E-2,-3.8996186E-2,3.8435645E-2,-2.7381403E-2,-9.563007E-2,-7.231969E-2,-2.4128774E-2,-6.492853E-3,6.858638E-2],"categories":[],"categories_nodes":[],"categories_segments":[],"categories_sizes":[],"default_left":[0,0,0,0,0,0,0,0,0,0,0,0,0,0,0,0,0,0,0,0,0,0,0,0,0,0,0,0,0,0,0,0,0,0,0,0,0,0,0,0,0,0,0,0,0,0,0,0,0,0,0,0,0,0,0,0,0,0,0,0,0,0,0,0,0],"id":12,"left_children":[1,3,5,-1,-1,7,9,11,13,15,17,19,21,23,25,27,29,31,33,-1,-1,-1,-1,35,-1,37,39,-1,41,43,45,-1,47,49,-1,-1,-1,-1,-1,-1,-1,-1,-1,51,53,55,57,59,61,63,-1,-1,-1,-1,-1,-1,-1,-1,-1,-1,-1,-1,-1,-1,-1],"loss_changes":[2.5181996E2,1.3443115E1,3.3326822E2,0E0,0E0,1.6621216E1,2.5602533E2,9.963989E0,6.5467668E0,1.6614569E2,9.026921E2,7.574463E-2,2.1798415E0,2.487774E0,3.058467E0,3.1264656E1,1.5836383E2,6.717163E0,1.5440338E1,0E0,0E0,0E0,0E0,2.3860357E0,0E0,4.0843945E0,1.4804935E-1,0E0,6.463928E-1,3.306718E2,2.724582E2,0E0,2.6453247E0,9.19455E0,0E0,0E0,0E0,0E0,0E0,0E0,0E0,0E0,0E0,1.7089285E2,1.7899922E2,7.369318E1,3.459844E2,6.530762E-2,2.7928162E-1,4.65094E0,0E0,0E0,0E0,0E0,0E0,0E0,0E0,0E0,0E0,0E0,0E0,0E0,0E0,0E0,0E0],"parents":[2147483647,0,0,1,1,2,2,5,5,6,6,7,7,8,8,9,9,10,10,11,11,12,12,13,13,14,14,15,15,16,16,17,17,18,18,23,23,25,25,26,26,28,28,29,29,30,30,32,32,33,33,43,43,44,44,45,45,46,46,47,47,48,48,49,49],"right_children":[2,4,6,-1,-1,8,10,12,14,16,18,20,22,24,26,28,30,32,34,-1,-1,-1,-1,36,-1,38,40,-1,42,44,46,-1,48,50,-1,-1,-1,-1,-1,-1,-1,-1,-1,52,54,56,58,60,62,64,-1,-1,-1,-1,-1,-1,-1,-1,-1,-1,-1,-1,-1,-1,-1],"split_conditions":[-9.8566544E-1,1.5613011E0,3.4686708E-1,6.8918526E-2,-4.9548503E-2,9.964284E0,1.8188405E0,1.9224976E1,-2.1658225E0,-6.6988385E-1,7.2427356E-1,-2.0785007E0,-1.0711513E0,1.418409E0,-8.932373E-1,-1.2923773E-2,-7.066913E-1,-3.5911745E-1,3.0769067E0,-2.5290841E-2,-6.8784736E-2,4.921459E-2,-2.2774046E-2,2.2700047E-1,4.9064707E-2,9.581725E-1,-3.6160752E-1,6.532868E-2,-3.6412296E-1,-1.4083378E0,3.451094E-1,-6.84674E-2,6.903606E-1,2.3370743E0,-7.5743414E-2,-4.5628842E-2,2.331306E-2,-4.5387406E-2,4.183691E-2,-1.6659198E-2,-6.2134057E-2,-9.084143E-2,-6.770541E-2,-1.302192E0,1.8950362E0,-1.4177619E0,2.1751834E-1,-2.0682068E0,1.6496556E0,-6.6988385E-1,-4.0217567E-2,9.195008E-4,6.3498974E-2,-6.401583E-2,6.691872E-2,1.3616746E-3,6.9197305E-2,-3.8996186E-2,3.8435645E-2,-2.7381403E-2,-9.563007E-2,-7.231969E-2,-2.4128774E-2,-6.492853E-3,6.858638E-2],"split_indices":[6,0,30,0,0,22,8,37,23,40,1,7,5,20,44,58,1,24,43,0,0,0,0,39,0,0,60,0,24,29,1,0,29,4,0,0,0,0,0,0,0,0,0,1,9,29,29,41,46,40,0,0,0,0,0,0,0,0,0,0,0,0,0,0,0],"split_type":[0,0,0,0,0,0,0,0,0,0,0,0,0,0,0,0,0,0,0,0,0,0,0,0,0,0,0,0,0,0,0,0,0,0,0,0,0,0,0,0,0,0,0,0,0,0,0,0,0,0,0,0,0,0,0,0,0,0,0,0,0,0,0,0,0],"sum_hessian":[2.6708655E3,1.3221545E2,2.53865E3,1.3044644E2,1.7690165E0,2.1268605E2,2.3259639E3,1.969719E2,1.5714152E1,1.7933833E3,5.325806E2,1.943791E2,2.5927956E0,6.410699E0,9.303454E0,6.233771E1,1.7310455E3,3.5984512E2,1.7273552E2,1.6065536E0,1.9277255E2,1.5881596E0,1.0046359E0,3.1725423E0,3.2381566E0,3.3841467E0,5.919307E0,3.3727474E0,5.8964966E1,7.675589E2,9.634867E2,2.608597E2,9.898543E1,1.7159555E2,1.1399595E0,1.2013857E0,1.9711565E0,1.5478705E0,1.8362762E0,1.1301854E0,4.789122E0,2.0679934E1,3.828503E1,5.106357E2,2.569232E2,3.7138397E2,5.9210266E2,5.847372E1,4.0511703E1,1.7021059E2,1.3849654E0,3.5390833E2,1.5672739E2,2.2828798E2,2.8635214E1,4.5673702E1,3.2571027E2,2.4577147E2,3.463312E2,1.004549E0,5.7469173E1,3.8930878E1,1.5808278E0,1.9207735E0,1.6828981E2],"tree_param":{"num_deleted":"0","num_feature":"103","num_nodes":"65","size_leaf_vector":"1"}},{"base_weights":[-8.7690237E-4,-3.4791434E-1,2.5731522E-1,-1.2885211E-1,-1.1454846E0,1.3130678E0,1.6303973E-1,-3.954814E-1,6.7243737E-1,-1.3341861E0,1.0599461E0,6.725042E-2,-4.518618E-2,-1.1457437E0,2.878513E-1,-3.9568834E-2,-1.2105334E0,1.0554103E0,-5.737749E-1,-6.715815E-2,1.1669831E-2,1.2452868E0,-1.5529141E-2,-1.275201E0,-2.380872E-1,-1.1198941E0,3.566184E-1,-5.558166E-1,1.2157729E0,5.6946892E-2,-1.2707056E0,-6.795742E-2,1.1065853E0,8.944202E-1,-1.2645388E0,1.5843635E-2,6.417829E-2,-1.3242795E0,3.9111618E-2,4.6112472E-1,-7.2959656E-1,-1.3410385E0,5.777974E-1,1.990665E-1,7.370951E-1,-6.833038E-2,-9.7225684E-1,-3.7810165E-2,1.2616024E0,-1.2890061E0,-2.791887E-1,1.1400149E0,-5.6622025E-2,1.1430517E0,-3.190269E-2,9.059865E-2,-6.7714E-2,-1.8882757E-2,-1.3318056E0,7.488788E-1,-2.604706E-2,-9.24967E-1,2.53002E-2,-1.4062425E0,1.9601097E-2,6.2385064E-2,-4.8586735E-1,5.0902474E-1,-1.5915089E0,9.454249E-1,-1.4907402E0,-2.8885169E-2,4.8742454E-2,-5.3185143E-2,4.9911957E-2,6.386235E-2,-1.8745003E-2,9.945457E-3,-6.4953305E-2,5.8323678E-2,-6.0681976E-2,-4.7378715E-2,5.8524158E-2,-1.0556233E-3,6.293514E-2,3.7671678E-2,-2.8108988E-2,-2.4636706E-2,-6.701006E-2,-2.2895437E-2,5.7520695E-2,-9.694408E-3,-6.1584532E-2,-7.3093444E-2,-2.5664575E-3,1.7771032E-2,-4.815611E-2,1.3710933E-2,4.304878E-2,-8.504305E-2,-6.906954E-2,5.2809533E-2,-7.465797E-2,5.4678895E-2,-8.608065E-2],"categories":[],"categories_nodes":[],"categories_segments":[],"categories_sizes":[],"default_left":[0,0,0,0,0,0,0,0,0,0,0,0,0,0,0,0,0,0,0,0,0,0,0,0,0,0,0,0,0,0,0,0,0,0,0,0,0,0,0,0,0,0,0,0,0,0,0,0,0,0,0,0,0,0,0,0,0,0,0,0,0,0,0,0,0,0,0,0,0,0,0,0,0,0,0,0,0,0,0,0,0,0,0,0,0,0,0,0,0,0,0,0,0,0,0,0,0,0,0,0,0,0,0,0,0],"id":13,"left_children":[1,3,5,7,9,11,13,15,17,19,21,-1,-1,23,25,27,29,31,33,-1,-1,35,-1,37,39,41,43,45,47,-1,49,-1,51,53,55,-1,-1,57,-1,59,61,63,65,67,69,71,73,-1,75,77,79,81,-1,83,-1,85,-1,-1,87,89,-1,91,-1,93,-1,-1,95,97,99,101,103,-1,-1,-1,-1,-1,-1,-1,-1,-1,-1,-1,-1,-1,-1,-1,-1,-1,-1,-1,-1,-1,-1,-1,-1,-1,-1,-1,-1,-1,-1,-1,-1,-1,-1],"loss_changes":[2.3555331E2,1.9579497E2,1.4981918E2,1.8847931E2,1.0193051E2,9.955017E0,2.2656554E2,1.9188373E2,1.05756584E2,3.4506226E0,5.363962E0,0E0,0E0,1.3888168E1,1.2287767E2,2.9980124E2,2.9872833E1,2.2371841E1,5.431283E1,0E0,0E0,2.137661E-1,0E0,1.1686127E1,5.9401913E0,2.2987938E1,7.2207855E1,6.646967E1,1.3137955E1,0E0,3.2060852E0,0E0,1.3710617E1,7.345196E0,4.509823E0,0E0,0E0,2.3361206E-1,0E0,2.4653292E0,2.8729172E0,6.5006943E0,5.963013E0,4.753025E2,1.6528416E2,8.136843E1,3.2898407E1,0E0,3.8616638E0,3.142517E0,7.951256E0,1.1539429E1,0E0,2.086237E0,0E0,1.7985942E0,0E0,0E0,5.9402466E-2,3.4776006E0,0E0,1.7694092E0,0E0,3.7655869E0,0E0,0E0,1.7977093E0,6.0053055E1,5.546875E-1,8.8958496E1,2.012954E1,0E0,0E0,0E0,0E0,0E0,0E0,0E0,0E0,0E0,0E0,0E0,0E0,0E0,0E0,0E0,0E0,0E0,0E0,0E0,0E0,0E0,0E0,0E0,0E0,0E0,0E0,0E0,0E0,0E0,0E0,0E0,0E0,0E0,0E0],"parents":[2147483647,0,0,1,1,2,2,3,3,4,4,5,5,6,6,7,7,8,8,9,9,10,10,13,13,14,14,15,15,16,16,17,17,18,18,21,21,23,23,24,24,25,25,26,26,27,27,28,28,30,30,32,32,33,33,34,34,37,37,39,39,40,40,41,41,42,42,43,43,44,44,45,45,46,46,48,48,49,49,50,50,51,51,53,53,55,55,58,58,59,59,61,61,63,63,66,66,67,67,68,68,69,69,70,70],"right_children":[2,4,6,8,10,12,14,16,18,20,22,-1,-1,24,26,28,30,32,34,-1,-1,36,-1,38,40,42,44,46,48,-1,50,-1,52,54,56,-1,-1,58,-1,60,62,64,66,68,70,72,74,-1,76,78,80,82,-1,84,-1,86,-1,-1,88,90,-1,92,-1,94,-1,-1,96,98,100,102,104,-1,-1,-1,-1,-1,-1,-1,-1,-1,-1,-1,-1,-1,-1,-1,-1,-1,-1,-1,-1,-1,-1,-1,-1,-1,-1,-1,-1,-1,-1,-1,-1,-1,-1],"split_conditions":[-4.6241266E-1,1.8188405E0,-1.4266541E0,4.5352972E-1,3.5744682E-1,1.5613011E0,3.4686708E-1,3.065011E-1,1.5510888E0,2.3370743E0,1.1180521E0,6.725042E-2,-4.518618E-2,9.964284E0,-5.533506E-1,1.8950362E0,-1.4266541E0,-2.1722725E-1,6.903606E-1,-6.715815E-2,1.1669831E-2,-9.647618E-1,-1.5529141E-2,1.9224976E1,-2.1658225E0,5.601711E-1,6.0443413E-1,-1.7930224E0,-6.0311824E-1,5.6946892E-2,6.6753E0,-6.795742E-2,2.255575E0,7.677666E-1,-1.9250044E0,1.5843635E-2,6.417829E-2,-2.3988907E0,3.9111618E-2,4.673878E-1,1.6476538E0,1.9881831E-1,8.724272E-1,1.8188405E0,1.8950362E0,-1.3107684E0,-7.061562E-1,-3.7810165E-2,4.490507E0,-1.4198107E0,6.037034E-1,-6.9043577E-1,-5.6622025E-2,-5.5743074E-1,-3.190269E-2,-6.111314E-1,-6.7714E-2,-1.8882757E-2,-2.0785007E0,-2.1214252E0,-2.604706E-2,-8.932373E-1,2.53002E-2,7.6494818E-3,1.9601097E-2,6.2385064E-2,-1.2828993E0,-6.794197E-1,6.903606E-1,9.086939E0,-8.379794E0,-2.8885169E-2,4.8742454E-2,-5.3185143E-2,4.9911957E-2,6.386235E-2,-1.8745003E-2,9.945457E-3,-6.4953305E-2,5.8323678E-2,-6.0681976E-2,-4.7378715E-2,5.8524158E-2,-1.0556233E-3,6.293514E-2,3.7671678E-2,-2.8108988E-2,-2.4636706E-2,-6.701006E-2,-2.2895437E-2,5.7520695E-2,-9.694408E-3,-6.1584532E-2,-7.3093444E-2,-2.5664575E-3,1.7771032E-2,-4.815611E-2,1.3710933E-2,4.304878E-2,-8.504305E-2,-6.906954E-2,5.2809533E-2,-7.465797E-2,5.4678895E-2,-8.608065E-2],"split_indices":[24,8,2,29,0,0,30,0,0,4,50,0,0,22,40,9,2,39,29,0,0,4,0,37,23,39,1,31,40,0,37,0,29,19,27,0,0,42,0,57,47,52,55,8,9,0,0,0,54,29,0,0,0,57,0,51,0,0,7,45,0,44,0,51,0,0,0,1,29,11,60,0,0,0,0,0,0,0,0,0,0,0,0,0,0,0,0,0,0,0,0,0,0,0,0,0,0,0,0,0,0,0,0,0,0],"split_type":[0,0,0,0,0,0,0,0,0,0,0,0,0,0,0,0,0,0,0,0,0,0,0,0,0,0,0,0,0,0,0,0,0,0,0,0,0,0,0,0,0,0,0,0,0,0,0,0,0,0,0,0,0,0,0,0,0,0,0,0,0,0,0,0,0,0,0,0,0,0,0,0,0,0,0,0,0,0,0,0,0,0,0,0,0,0,0,0,0,0,0,0,0,0,0,0,0,0,0,0,0,0,0,0,0],"sum_hessian":[2.6268757E3,1.120482E3,1.5063936E3,8.799538E2,2.4052829E2,1.2242935E2,1.3839642E3,6.606341E2,2.1931973E2,2.2193416E2,1.8594131E1,1.21078064E2,1.3512878E0,1.1977845E2,1.2641858E3,4.6056537E2,2.000687E2,1.6788132E2,5.1438427E1,2.2081284E2,1.1213245E0,1.645963E1,2.1345034E0,1.04472786E2,1.530567E1,5.8166294E1,1.2060194E3,3.2674976E2,1.3381561E2,4.548303E0,1.955204E2,2.9538267E0,1.6492749E2,1.6363512E1,3.5074913E1,1.0191535E0,1.5440475E1,1.02386765E2,2.0860226E0,6.3434362E0,8.962234E0,5.1648544E1,6.517749E0,8.539358E2,3.5208365E2,1.5107039E2,1.7567938E2,2.6872482E0,1.3112837E2,1.9168245E2,3.8379421E0,1.629849E2,1.9425867E0,1.4297906E1,2.065606E0,2.177904E0,3.289701E1,1.2112868E0,1.01175476E2,5.089587E0,1.253849E0,7.9556985E0,1.0065348E0,4.995754E1,1.6910064E0,3.892931E0,2.6248176E0,7.285377E2,1.2539807E2,3.2250146E2,2.9582193E1,1.018059E2,4.9264484E1,1.6832787E2,7.3515077E0,1.3010413E2,1.0242441E0,1.1612091E0,1.9052124E2,1.409322E0,2.4286203E0,1.9115481E0,1.6107335E2,1.3659068E0,1.2931999E1,1.0041199E0,1.173784E0,1.5936302E0,9.958185E1,1.2356191E0,3.853968E0,2.833692E0,5.1220064E0,4.791157E1,2.0459657E0,1.0424697E0,1.582348E0,4.3806158E2,2.9047617E2,7.780901E1,4.7589054E1,3.090315E2,1.3469984E1,2.1195781E0,2.7462614E1],"tree_param":{"num_deleted":"0","num_feature":"103","num_nodes":"105","size_leaf_vector":"1"}},{"base_weights":[-1.0777268E-3,1.2869931E0,-6.6907145E-2,6.627804E-2,-4.7394406E-2,-1.2170156E0,3.586187E-2,-1.2955045E0,-2.4469265E-1,2.0255841E-1,-5.3885394E-1,-1.3218037E0,4.3064815E-1,4.4527048E-1,-7.190754E-1,-1.3162991E0,2.5661626E-1,-1.4066434E0,1.2385145E0,-2.4002483E-2,-6.632384E-2,-1.0633658E-2,4.37796E-2,7.283692E-1,-2.5362542E-2,-9.087935E-1,2.4695588E-2,6.300407E-2,-1.4867224E0,-5.569835E-2,5.085023E-1,-6.606062E-2,-1.6079007E0,1.2664838E0,-7.486304E-2,-2.231019E-2,5.6260448E-2,-1.8692923E-1,-6.041875E-2,-8.6855784E-2,-6.514159E-2,3.8035405E-1,-9.4319046E-1,1.1526932E0,1.08186305E-1,-8.7453656E-2,-1.3570994E0,1.2888824E0,-4.068187E-2,-4.4244733E-2,3.2719772E-2,8.21077E-4,6.061552E-2,-6.1303623E-2,6.449977E-2,-6.147102E-4,6.60671E-2,-3.733155E-2,3.600567E-2,-6.914166E-2,-2.175202E-2,-5.505094E-3,6.528095E-2],"categories":[],"categories_nodes":[],"categories_segments":[],"categories_sizes":[],"default_left":[0,0,0,0,0,0,0,0,0,0,0,0,0,0,0,0,0,0,0,0,0,0,0,0,0,0,0,0,0,0,0,0,0,0,0,0,0,0,0,0,0,0,0,0,0,0,0,0,0,0,0,0,0,0,0,0,0,0,0,0,0,0,0],"id":14,"left_children":[1,3,5,-1,-1,7,9,11,13,15,17,19,21,23,25,27,29,31,33,-1,-1,-1,-1,35,-1,37,-1,-1,39,41,43,-1,45,47,-1,-1,-1,49,-1,-1,-1,51,53,55,57,-1,59,61,-1,-1,-1,-1,-1,-1,-1,-1,-1,-1,-1,-1,-1,-1,-1],"loss_changes":[2.1881625E2,1.2071625E1,2.9022604E2,0E0,0E0,1.5054047E1,2.1611583E2,9.0191345E0,5.64776E0,1.4389905E2,7.8405414E2,8.538818E-2,1.2016897E0,2.3242755E0,2.756514E0,2.8329834E1,1.3291599E2,3.7434692E0,1.4669464E1,0E0,0E0,0E0,0E0,3.2982402E0,0E0,1.7255445E0,0E0,0E0,3.6024475E-1,2.92559E2,2.4103806E2,0E0,1.0639343E0,8.772766E0,0E0,0E0,0E0,2.8278472E0,0E0,0E0,0E0,1.5348972E2,1.5891077E2,7.0414795E1,3.0281055E2,0E0,3.3400726E-1,3.993164E0,0E0,0E0,0E0,0E0,0E0,0E0,0E0,0E0,0E0,0E0,0E0,0E0,0E0,0E0,0E0],"parents":[2147483647,0,0,1,1,2,2,5,5,6,6,7,7,8,8,9,9,10,10,11,11,12,12,13,13,14,14,15,15,16,16,17,17,18,18,23,23,25,25,28,28,29,29,30,30,32,32,33,33,37,37,41,41,42,42,43,43,44,44,46,46,47,47],"right_children":[2,4,6,-1,-1,8,10,12,14,16,18,20,22,24,26,28,30,32,34,-1,-1,-1,-1,36,-1,38,-1,-1,40,42,44,-1,46,48,-1,-1,-1,50,-1,-1,-1,52,54,56,58,-1,60,62,-1,-1,-1,-1,-1,-1,-1,-1,-1,-1,-1,-1,-1,-1,-1],"split_conditions":[-9.8566544E-1,1.5613011E0,3.4686708E-1,6.627804E-2,-4.7394406E-2,9.964284E0,1.8188405E0,1.9224976E1,